%YAML:1.0
---
opencv_ml_ann_mlp:
   format: 3
   layer_sizes: [ 1120, 100, 25, 12 ]
   activation_function: SIGMOID_SYM
   f_param1: 6.6666666666666663e-01
   f_param2: 1.7159000000000000e+00
   min_val: -9.4999999999999996e-01
   max_val: 9.4999999999999996e-01
   min_val1: -9.7999999999999998e-01
   max_val1: 9.7999999999999998e-01
   training_params:
      train_method: BACKPROP
      dw_scale: 1.0000000000000001e-01
      moment_scale: 0.
      term_criteria:
         epsilon: 1.0000000000000000e-02
         iterations: 1000
   input_scale:
      - 6.8037050819557673e-02
      - -5.7831493196624020e-02
      - 4.5453144141156449e-02
      - -8.6929138169961714e-02
      - 3.4190481983476254e-02
      - -1.1624763874381926e-01
      - 2.1846510373770806e-02
      - -1.8569533817705186e-01
      - 1.8752405152490360e-02
      - -2.1916873521973110e-01
      - 1.4666476168711487e-02
      - -2.8984623528416076e-01
      - 1.2331450097438171e-02
      - -3.5899934096166874e-01
      - 1.1566904200986716e-02
      - -3.9081677569083867e-01
      - 1.1111178091312098e-02
      - -4.1319693527066864e-01
      - 1.0565124270086544e-02
      - -4.4452760366389138e-01
      - 1.0501716565665242e-02
      - -4.4855456881097661e-01
      - 1.0586623934085953e-02
      - -4.4318254444067318e-01
      - 1.0522672835293128e-02
      - -4.4721359549995793e-01
      - 1.0696955403725117e-02
      - -4.3643578047198472e-01
      - 1.0652246562424528e-02
      - -4.3913886453595119e-01
      - 1.0522672835293128e-02
      - -4.4721359549995793e-01
      - 1.0439899373823570e-02
      - -4.5256963785525178e-01
      - 1.0608309295761398e-02
      - -4.4183608216846221e-01
      - 1.0719605401458009e-02
      - -4.3508198423167693e-01
      - 1.1597881381776441e-02
      - -3.8939886739314405e-01
      - 1.3938598834765130e-02
      - -3.0804303424830942e-01
      - 1.6100935634240001e-02
      - -2.6003011049297597e-01
      - 1.9624886028901153e-02
      - -2.0851441405707474e-01
      - 4.1148479853756872e-02
      - -9.6184571658156692e-02
      - 4.8190112971708263e-02
      - -8.1923192051904042e-02
      - 6.0879644927355384e-02
      - -6.4684622735315098e-02
      - 1.
      - 0.
      - 1.
      - 0.
      - 4.8190112971708263e-02
      - -8.1923192051904042e-02
      - 3.6520330846644161e-02
      - -1.0864798426876639e-01
      - 2.9907114656501907e-02
      - -1.3346049915463978e-01
      - 1.8916983144899910e-02
      - -2.1707238158772646e-01
      - 1.5369839248423934e-02
      - -2.7435163058436723e-01
      - 1.2883210041339261e-02
      - -3.3947258458928953e-01
      - 1.0812236576002653e-02
      - -4.2965125093890538e-01
      - 1.0244616875889522e-02
      - -4.6587395243107604e-01
      - 9.8819687871067215e-03
      - -4.9348081630614188e-01
      - 9.7140274128099530e-03
      - -5.0780078300464027e-01
      - 9.5322708053058574e-03
      - -5.2463235444702117e-01
      - 9.4035120436376986e-03
      - -5.3752825719443997e-01
      - 9.3788278240202142e-03
      - -5.4010324731576409e-01
      - 9.5591363768727667e-03
      - -5.2204833538196393e-01
      - 9.4926834926748211e-03
      - -5.2850515345467064e-01
      - 9.4285435860872492e-03
      - -5.3495199171562524e-01
      - 9.5057856244599604e-03
      - -5.2721463519661049e-01
      - 9.6280120811811035e-03
      - -5.1558004694724802e-01
      - 9.7287341888056700e-03
      - -5.0650222370469522e-01
      - 1.0081876014220916e-02
      - -4.7775489962389367e-01
      - 1.1629179798688789e-02
      - -3.8797851103375469e-01
      - 1.3703069761070826e-02
      - -3.1448545101657543e-01
      - 1.6621297400806555e-02
      - -2.5077382453466890e-01
      - 2.6442966662701888e-02
      - -1.5171652122725207e-01
      - 3.5296875323169379e-02
      - -1.1250879009260240e-01
      - 4.8190112971708263e-02
      - -8.1923192051904042e-02
      - 9.6138570170051410e-02
      - -4.0858892322271849e-02
      - 1.
      - 0.
      - 3.9413247657224003e-02
      - -1.0050378152592120e-01
      - 3.0632684936664437e-02
      - -1.3018891098082386e-01
      - 2.3634821783112370e-02
      - -1.7076158738298686e-01
      - 1.6621297400806555e-02
      - -2.5077382453466890e-01
      - 1.4124774806141256e-02
      - -3.0315297927680668e-01
      - 1.1137629355354379e-02
      - -4.1181384541422816e-01
      - 9.8192975689282876e-03
      - -4.9869757528194542e-01
      - 9.4159840120561396e-03
      - -5.3624028948659719e-01
      - 9.0972681234870404e-03
      - -5.7221816496733480e-01
      - 8.9591171475898058e-03
      - -5.9018184209747848e-01
      - 8.9497311770621747e-03
      - -5.9146535916409648e-01
      - 8.9876499336087115e-03
      - -5.8633181254379829e-01
      - 8.9037179036159410e-03
      - -5.9788465722781048e-01
      - 9.1605462240448091e-03
      - -5.6451866105676141e-01
      - 9.0767351803121808e-03
      - -5.7478425529326893e-01
      - 8.9972873921790580e-03
      - -5.8504861267644326e-01
      - 8.9685652856135913e-03
      - -5.8889841806660237e-01
      - 8.9685652856135913e-03
      - -5.8889841806660237e-01
      - 8.9127998388570367e-03
      - -5.9660053921349288e-01
      - 9.2490083356500004e-03
      - -5.5424682451382623e-01
      - 1.0263433850449533e-02
      - -4.6454867465597199e-01
      - 1.1505893605854450e-02
      - -3.9364538499029533e-01
      - 1.4124774806141256e-02
      - -3.0315297927680668e-01
      - 1.9260539586075903e-02
      - -2.1282896242613875e-01
      - 3.0632684936664437e-02
      - -1.3018891098082386e-01
      - 3.4190481983476254e-02
      - -1.1624763874381926e-01
      - 9.6138570170051410e-02
      - -4.0858892322271849e-02
      - 1.
      - 0.
      - 3.6520330846644161e-02
      - -1.0864798426876639e-01
      - 2.8011204481792715e-02
      - -1.4285714285714282e-01
      - 2.1846510373770806e-02
      - -1.8569533817705186e-01
      - 1.4594847966392975e-02
      - -2.9153208812869968e-01
      - 1.2292473028026468e-02
      - -3.6047677154687618e-01
      - 1.0152768987254260e-02
      - -4.7248448674434518e-01
      - 9.2152705168007318e-03
      - -5.5809982067374431e-01
      - 8.8679807228754012e-03
      - -6.0302268915552726e-01
      - 8.5781407971395277e-03
      - -6.5075920622299743e-01
      - 8.5575643229800942e-03
      - -6.5465367070797720e-01
      - 8.5176050313604691e-03
      - -6.6245673131406058e-01
      - 8.5110968556823575e-03
      - -6.6375916603252783e-01
      - 8.5850898212587630e-03
      - -6.4946204497822546e-01
      - 8.7340275134779218e-03
      - -6.2360956446232363e-01
      - 8.6423459357109784e-03
      - -6.3910148194582683e-01
      - 8.5781407971395277e-03
      - -6.5075920622299743e-01
      - 8.5176050313604691e-03
      - -6.6245673131406058e-01
      - 8.5046313524447092e-03
      - -6.6506217176117632e-01
      - 8.5176050313604691e-03
      - -6.6245673131406058e-01
      - 8.6949541092994336e-03
      - -6.3005811214511021e-01
      - 9.3185971867011282e-03
      - -5.4653572500002112e-01
      - 1.0320810901329710e-02
      - -4.6056618647183833e-01
      - 1.1824011620495112e-02
      - -3.7940297287263691e-01
      - 1.6302567628822859e-02
      - -2.5635787596323945e-01
      - 2.7456939576074268e-02
      - -1.4586499149789456e-01
      - 3.4190481983476254e-02
      - -1.1624763874381926e-01
      - 9.6138570170051410e-02
      - -4.0858892322271849e-02
      - 1.
      - 0.
      - 3.3183656001021224e-02
      - -1.1987595730368916e-01
      - 3.0632684936664437e-02
      - -1.3018891098082386e-01
      - 2.2988642421982321e-02
      - -1.7586311452816475e-01
      - 1.3646316552327920e-02
      - -3.1608280714329545e-01
      - 1.1566904200986716e-02
      - -3.9081677569083867e-01
      - 9.5456555986286277e-03
      - -5.2334056819481456e-01
      - 8.6796776138235998e-03
      - -6.3264000207756765e-01
      - 8.4483222852950405e-03
      - -6.7681621908069889e-01
      - 8.2542700553246799e-03
      - -7.2441537573043224e-01
      - 8.2883445696419634e-03
      - -7.1507692774586040e-01
      - 8.3241205248119031e-03
      - -7.0578136899748922e-01
      - 8.3561845512825760e-03
      - -6.9784586233898616e-01
      - 8.4010176375212270e-03
      - -6.8730825546970542e-01
      - 8.6062113607119628e-03
      - -6.4557342969540610e-01
      - 8.5176050313604691e-03
      - -6.6245673131406058e-01
      - 8.4483222852950405e-03
      - -6.7681621908069889e-01
      - 8.3561845512825760e-03
      - -6.9784586233898616e-01
      - 8.3137218367780076e-03
      - -7.0843302201644598e-01
      - 8.2784378611911579e-03
      - -7.1774056256527341e-01
      - 8.4243543653571059e-03
      - -6.8205679030522470e-01
      - 8.8331683450913190e-03
      - -6.0816364055953731e-01
      - 9.5591363768727667e-03
      - -5.2204833538196393e-01
      - 1.0812236576002653e-02
      - -4.2965125093890538e-01
      - 1.4253772038904964e-02
      - -2.9986372926846322e-01
      - 2.4720255952988823e-02
      - -1.6284468609031388e-01
      - 3.5296875323169379e-02
      - -1.1250879009260240e-01
      - 5.1495801703337667e-02
      - -7.6600005033714780e-02
      - 1.3590376053127240e-01
      - -2.8879549112895385e-02
      - 3.2262355678028515e-02
      - -1.2340351046845907e-01
      - 3.1415162920591315e-02
      - -1.2683872029188742e-01
      - 2.2988642421982321e-02
      - -1.7586311452816475e-01
      - 1.3270809955222377e-02
      - -3.2712546539623155e-01
      - 1.0957580910968528e-02
      - -4.2145595578812700e-01
      - 9.1822138390362153e-03
      - -5.6195148694901642e-01
      - 8.3727139244490004e-03
      - -6.9388866648871095e-01
      - 8.1867311957477817e-03
      - -7.4458320225326080e-01
      - 8.1300895295167517e-03
      - -7.6361865905986093e-01
      - 8.1699346405228763e-03
      - -7.5000000000000000e-01
      - 8.2263756481319797e-03
      - -7.3245592177055108e-01
      - 8.3137218367780076e-03
      - -7.0843302201644598e-01
      - 8.3782986660102966e-03
      - -6.9257111347907607e-01
      - 8.5712370545239242e-03
      - -6.5205685892290755e-01
      - 8.4243543653571059e-03
      - -6.8205679030522470e-01
      - 8.3293736645720044e-03
      - -7.0445677768117732e-01
      - 8.2638353010419194e-03
      - -7.2174271560474867e-01
      - 8.2263756481319797e-03
      - -7.3245592177055108e-01
      - 8.1149895204518825e-03
      - -7.6909813180082720e-01
      - 8.1576622351740187e-03
      - -7.5407390286389830e-01
      - 8.3727139244490004e-03
      - -6.9388866648871095e-01
      - 8.8591919567859410e-03
      - -6.0430763135226107e-01
      - 9.8979344584819145e-03
      - -4.9217479094801320e-01
      - 1.2660518000561973e-02
      - -3.4705644969040511e-01
      - 2.3634821783112370e-02
      - -1.7076158738298686e-01
      - 3.4190481983476254e-02
      - -1.1624763874381926e-01
      - 6.8037050819557673e-02
      - -5.7831493196624020e-02
      - 1.3590376053127240e-01
      - -2.8879549112895385e-02
      - 3.7882970864824582e-02
      - -1.0465170701407792e-01
      - 3.2262355678028515e-02
      - -1.2340351046845907e-01
      - 2.2685603971266646e-02
      - -1.7836556122408401e-01
      - 1.3071895424836602e-02
      - -3.3333333333333337e-01
      - 1.0630182707007016e-02
      - -4.4048819592160321e-01
      - 8.8246067000187361e-03
      - -6.0944940022004401e-01
      - 8.1576622351740187e-03
      - -7.5407390286389830e-01
      - 8.0432327830710498e-03
      - -7.9819031331001333e-01
      - 7.9966469492317085e-03
      - -8.2075585125176953e-01
      - 8.1617223391611676e-03
      - -7.5271484272913869e-01
      - 8.2263756481319797e-03
      - -7.3245592177055108e-01
      - 8.3561845512825760e-03
      - -6.9784586233898616e-01
      - 8.3671667874691824e-03
      - -6.9520697045384572e-01
      - 8.4184615433647685e-03
      - -6.8336861578263508e-01
      - 8.3085759351038818e-03
      - -7.0976009925624906e-01
      - 8.2590358042261541e-03
      - -7.2307858465999975e-01
      - 8.1112878913048268e-03
      - -7.7047095857531722e-01
      - 8.0967715494922772e-03
      - -7.7597434337446614e-01
      - 8.0401212559287217e-03
      - -7.9959005890211143e-01
      - 8.0104795957046549e-03
      - -8.1366446493370037e-01
      - 8.1456646144326267e-03
      - -7.5815773398831676e-01
      - 8.4184615433647685e-03
      - -6.8336861578263508e-01
      - 9.2718871322247133e-03
      - -5.5167728436737040e-01
      - 1.1824011620495112e-02
      - -3.7940297287263691e-01
      - 2.2685603971266646e-02
      - -1.7836556122408401e-01
      - 3.5296875323169379e-02
      - -1.1250879009260240e-01
      - 9.6138570170051410e-02
      - -4.0858892322271849e-02
      - 1.3590376053127240e-01
      - -2.8879549112895385e-02
      - 3.3183656001021224e-02
      - -1.1987595730368916e-01
      - 3.2262355678028515e-02
      - -1.2340351046845907e-01
      - 2.2115290689558878e-02
      - -1.8328047158971919e-01
      - 1.2492030485729073e-02
      - -3.5305601160291789e-01
      - 1.0170845914428591e-02
      - -4.7116443698590454e-01
      - 8.5781407971395277e-03
      - -6.5075920622299743e-01
      - 8.0133244551847688e-03
      - -8.1225060008866612e-01
      - 7.9328899988105675e-03
      - -8.5972695362109530e-01
      - 7.9566780170516709e-03
      - -8.4370624523311655e-01
      - 8.1076153885289888e-03
      - -7.7184498498795973e-01
      - 8.2218418566424971e-03
      - -7.3379938570534287e-01
      - 8.3895817507349726e-03
      - -6.8993822922606729e-01
      - 8.3293736645720044e-03
      - -7.0445677768117732e-01
      - 8.4010176375212270e-03
      - -6.8730825546970542e-01
      - 8.2883445696419634e-03
      - -7.1507692774586040e-01
      - 8.2173406088924140e-03
      - -7.3514383422303764e-01
      - 8.2084351706755137e-03
      - -7.3783571640409529e-01
      - 8.1187203865512661e-03
      - -7.6772649655325409e-01
      - 7.9808993847009495e-03
      - -8.2931520731273733e-01
      - 7.9454990046383105e-03
      - -8.5096294339676304e-01
      - 7.9834600759705054e-03
      - -8.2788480987814139e-01
      - 8.2128717610390044e-03
      - -7.3648927517117269e-01
      - 8.9780760571193975e-03
      - -5.8761507793846457e-01
      - 1.0957580910968528e-02
      - -4.2145595578812700e-01
      - 2.1587751951448936e-02
      - -1.8808328887699885e-01
      - 4.8190112971708263e-02
      - -8.1923192051904042e-02
      - 9.6138570170051410e-02
      - -4.0858892322271849e-02
      - 1.3590376053127240e-01
      - -2.8879549112895385e-02
      - 3.5296875323169379e-02
      - -1.1250879009260240e-01
      - 4.1148479853756872e-02
      - -9.6184571658156692e-02
      - 2.6935208592519310e-02
      - -1.4881702747366921e-01
      - 1.2331450097438171e-02
      - -3.5899934096166874e-01
      - 9.8661234932006566e-03
      - -4.9478609318401290e-01
      - 8.4126079550127866e-03
      - -6.8468112993860319e-01
      - 7.9249667407938103e-03
      - -8.6560449226320391e-01
      - 7.8762984562286333e-03
      - -9.1217381496197858e-01
      - 7.9660661352004003e-03
      - -8.3793058159639211e-01
      - 8.1617223391611676e-03
      - -7.5271484272913869e-01
      - 8.3453504249741718e-03
      - -7.0048785129626956e-01
      - 8.4918273810009604e-03
      - -6.6766992783120049e-01
      - 8.4126079550127866e-03
      - -6.8468112993860319e-01
      - 8.5110968556823575e-03
      - -6.6375916603252783e-01
      - 8.3453504249741718e-03
      - -7.0048785129626956e-01
      - 8.2542700553246799e-03
      - -7.2441537573043224e-01
      - 8.1456646144326267e-03
      - -7.5815773398831676e-01
      - 8.0861859741442228e-03
      - -7.8011479185556387e-01
      - 7.9498968868354693e-03
      - -8.4805525040317364e-01
      - 7.8881403841891146e-03
      - -8.9845918975914019e-01
      - 7.8955201492640036e-03
      - -8.9091075484257709e-01
      - 8.0432327830710498e-03
      - -7.9819031331001333e-01
      - 8.5307503977886737e-03
      - -6.5985354326895385e-01
      - 1.0244616875889522e-02
      - -4.6587395243107604e-01
      - 1.9439986689066591e-02
      - -2.1068085574275919e-01
      - 4.1148479853756872e-02
      - -9.6184571658156692e-02
      - 9.6138570170051410e-02
      - -4.0858892322271849e-02
      - 7.8529595972040608e-02
      - -5.0062617432175882e-02
      - 3.5296875323169379e-02
      - -1.1250879009260240e-01
      - 4.3138752801327590e-02
      - -9.1669849702821132e-02
      - 2.8011204481792715e-02
      - -1.4285714285714282e-01
      - 1.2492030485729073e-02
      - -3.5305601160291789e-01
      - 9.7140274128099530e-03
      - -5.0780078300464027e-01
      - 8.3952804928566598e-03
      - -6.8862288242656755e-01
      - 7.9002251375037275e-03
      - -8.8640526042791823e-01
      - 7.8787707884665770e-03
      - -9.0911166435418722e-01
      - 7.9886579261717761e-03
      - -8.2502864732539027e-01
      - 8.2263756481319797e-03
      - -7.3245592177055108e-01
      - 8.3616570605881436e-03
      - -6.9652603314699235e-01
      - 8.4918273810009604e-03
      - -6.6766992783120049e-01
      - 8.5046313524447092e-03
      - -6.6506217176117632e-01
      - 8.5850898212587630e-03
      - -6.4946204497822546e-01
      - 8.3782986660102966e-03
      - -6.9257111347907607e-01
      - 8.2833739398781442e-03
      - -7.1640830362521102e-01
      - 8.0896859783564385e-03
      - -7.7873339649153672e-01
      - 8.0161956084075867e-03
      - -8.1083818579042743e-01
      - 7.9068240421813381e-03
      - -8.8042485709689200e-01
      - 7.8683564108345885e-03
      - -9.2295820699089726e-01
      - 7.8694234983007431e-03
      - -9.2141112385728829e-01
      - 7.9808993847009495e-03
      - -8.2931520731273733e-01
      - 8.3085759351038818e-03
      - -7.0976009925624906e-01
      - 9.8661234932006566e-03
      - -4.9478609318401290e-01
      - 1.8284960095175336e-02
      - -2.2536213317303599e-01
      - 3.9413247657224003e-02
      - -1.0050378152592120e-01
      - 1.3590376053127240e-01
      - -2.8879549112895385e-02
      - 6.8037050819557673e-02
      - -5.7831493196624020e-02
      - 3.0632684936664437e-02
      - -1.3018891098082386e-01
      - 5.1495801703337667e-02
      - -7.6600005033714780e-02
      - 2.8011204481792715e-02
      - -1.4285714285714282e-01
      - 1.2031806385344443e-02
      - -3.7073003424842566e-01
      - 9.4926834926748211e-03
      - -5.2850515345467064e-01
      - 8.2638353010419194e-03
      - -7.2174271560474867e-01
      - 7.8643120227951738e-03
      - -9.2916846549324983e-01
      - 7.8597585697273761e-03
      - -9.3698146849362485e-01
      - 7.9308731675892651e-03
      - -8.6119369008559932e-01
      - 8.1740870915977606e-03
      - -7.4864420150170996e-01
      - 8.4184615433647685e-03
      - -6.8336861578263508e-01
      - 8.5712370545239242e-03
      - -6.5205685892290755e-01
      - 8.5712370545239242e-03
      - -6.5205685892290755e-01
      - 8.6277505602655180e-03
      - -6.4168894791974795e-01
      - 8.4362585649653370e-03
      - -6.7943517417589583e-01
      - 8.2495378984812767e-03
      - -7.2575309661889031e-01
      - 8.0932144688217952e-03
      - -7.7735324973033337e-01
      - 7.9660661352004003e-03
      - -8.3793058159639211e-01
      - 7.8643120227951738e-03
      - -9.2916846549324983e-01
      - 7.8505114763130837e-03
      - -9.5756613732328832e-01
      - 7.8529595972040601e-03
      - -9.5118973121134176e-01
      - 7.9349309297942310e-03
      - -8.5826196669386845e-01
      - 8.2173406088924140e-03
      - -7.3514383422303764e-01
      - 9.6280120811811035e-03
      - -5.1558004694724802e-01
      - 1.7080033152822742e-02
      - -2.4317697201331381e-01
      - 3.9413247657224003e-02
      - -1.0050378152592120e-01
      - 9.6138570170051410e-02
      - -4.0858892322271849e-02
      - 5.5598525883006740e-02
      - -7.0888120500833582e-02
      - 3.5296875323169379e-02
      - -1.1250879009260240e-01
      - 4.8190112971708263e-02
      - -8.1923192051904042e-02
      - 2.8011204481792715e-02
      - -1.4285714285714282e-01
      - 1.2104185011643117e-02
      - -3.6781592204130520e-01
      - 9.4159840120561396e-03
      - -5.3624028948659719e-01
      - 8.2263756481319797e-03
      - -7.3245592177055108e-01
      - 7.8597585697273761e-03
      - -9.3698146849362485e-01
      - 7.8494193041709383e-03
      - -9.6076892283052284e-01
      - 7.9433367468797773e-03
      - -8.5241932464953607e-01
      - 8.1658130988741806e-03
      - -7.5135687776016058e-01
      - 8.5850898212587630e-03
      - -6.4946204497822546e-01
      - 8.8768272832504096e-03
      - -6.0173792946333704e-01
      - 8.9219416916824033e-03
      - -5.9531655937750827e-01
      - 8.9404069134814360e-03
      - -5.9274897836381923e-01
      - 8.6721136745779668e-03
      - -6.3393150961164935e-01
      - 8.4184615433647685e-03
      - -6.8336861578263508e-01
      - 8.1576622351740187e-03
      - -7.5407390286389830e-01
      - 7.9476856984224912e-03
      - -8.4950825509013406e-01
      - 7.8633567878506581e-03
      - -9.3072656780197349e-01
      - 7.8459274140990441e-03
      - -9.7367959208969135e-01
      - 7.8474981878243547e-03
      - -9.6720415164935170e-01
      - 7.9002251375037275e-03
      - -8.8640526042791823e-01
      - 8.1536326619717769e-03
      - -7.5543406613168518e-01
      - 9.3067989156062191e-03
      - -5.4782145116987102e-01
      - 1.5286011045466464e-02
      - -2.7610357450873801e-01
      - 3.5296875323169379e-02
      - -1.1250879009260240e-01
      - 7.8529595972040608e-02
      - -5.0062617432175882e-02
      - 4.3138752801327590e-02
      - -9.1669849702821132e-02
      - 3.5296875323169379e-02
      - -1.1250879009260240e-01
      - 5.5598525883006740e-02
      - -7.0888120500833582e-02
      - 2.8011204481792715e-02
      - -1.4285714285714282e-01
      - 1.1891771985605233e-02
      - -3.7652323049422570e-01
      - 9.2950816086250915e-03
      - -5.4910694602952725e-01
      - 8.1867311957477817e-03
      - -7.4458320225326080e-01
      - 7.8499544115604621e-03
      - -9.5916630466254393e-01
      - 7.8442268065158707e-03
      - -9.8346993586692733e-01
      - 7.9349309297942310e-03
      - -8.5826196669386845e-01
      - 8.1782705808820088e-03
      - -7.4728947432809356e-01
      - 8.5991248222791247e-03
      - -6.4686916475594713e-01
      - 8.9780760571193975e-03
      - -5.8761507793846457e-01
      - 9.0665711903318413e-03
      - -5.7606726700570943e-01
      - 9.0869673120911217e-03
      - -5.7350122448435092e-01
      - 8.6872909850313866e-03
      - -6.3134887233715598e-01
      - 8.3241205248119031e-03
      - -7.0578136899748922e-01
      - 8.0401212559287217e-03
      - -7.9959005890211143e-01
      - 7.9018398953877318e-03
      - -8.8490729528473355e-01
      - 7.8529595972040601e-03
      - -9.5118973121134176e-01
      - 7.8440197567681211e-03
      - -9.8511083120311649e-01
      - 7.8455893847898875e-03
      - -9.7530483039669291e-01
      - 7.8750962432236563e-03
      - -9.1370804162002472e-01
      - 8.0967715494922772e-03
      - -7.7597434337446614e-01
      - 9.1180779694247562e-03
      - -5.6965192113981167e-01
      - 1.4386907199350714e-02
      - -2.9655012464661662e-01
      - 3.3183656001021224e-02
      - -1.1987595730368916e-01
      - 6.8037050819557673e-02
      - -5.7831493196624020e-02
      - 3.9413247657224003e-02
      - -1.0050378152592120e-01
      - 3.5296875323169379e-02
      - -1.1250879009260240e-01
      - 6.8037050819557673e-02
      - -5.7831493196624020e-02
      - 2.9231902399754119e-02
      - -1.3665914371885049e-01
      - 1.1926206862652857e-02
      - -3.7507920583043236e-01
      - 9.3544848296424673e-03
      - -5.4267705117963361e-01
      - 8.1496334958706743e-03
      - -7.5679534051029052e-01
      - 7.8455893847898875e-03
      - -9.7530483039669291e-01
      - 7.8431481481708431e-03
      - -1.0016680578732688e+00
      - 7.9068240421813381e-03
      - -8.8042485709689200e-01
      - 8.1824852384636323e-03
      - -7.4593581055144087e-01
      - 8.5920844032134173e-03
      - -6.4816536716741213e-01
      - 9.0564748108176597e-03
      - -5.7735026918962584e-01
      - 9.2604086074130568e-03
      - -5.5296214897015217e-01
      - 9.0069889156058885e-03
      - -5.8376546909270666e-01
      - 8.6949541092994336e-03
      - -6.3005811214511021e-01
      - 8.2263756481319797e-03
      - -7.3245592177055108e-01
      - 7.9433367468797773e-03
      - -8.5241932464953607e-01
      - 7.8550269816277142e-03
      - -9.4643256344886917e-01
      - 7.8455893847898875e-03
      - -1.0253204627247283e+00
      - 7.8436710784602487e-03
      - -9.8840060177447209e-01
      - 7.8431481481708431e-03
      - -9.9833471991029610e-01
      - 7.8565156339177808e-03
      - -9.4327290829725352e-01
      - 8.1112878913048268e-03
      - -7.7047095857531722e-01
      - 9.0069889156058885e-03
      - -5.8376546909270666e-01
      - 1.3590376053127242e-02
      - -3.1767504024184928e-01
      - 2.9907114656501907e-02
      - -1.3346049915463978e-01
      - 7.8529595972040608e-02
      - -5.0062617432175882e-02
      - 3.4190481983476254e-02
      - -1.1624763874381926e-01
      - 3.2262355678028515e-02
      - -1.2340351046845907e-01
      - 1.
      - 0.
      - 3.6520330846644161e-02
      - -1.0864798426876639e-01
      - 1.2215861921203882e-02
      - -3.6342189215581550e-01
      - 9.2718871322247133e-03
      - -5.5167728436737040e-01
      - 8.1224806013228765e-03
      - -7.6635604473481334e-01
      - 7.8436710784602487e-03
      - -9.8840060177447209e-01
      - 7.8436710784602487e-03
      - -1.0117355232328915e+00
      - 7.8826495314448016e-03
      - -9.0453403373329100e-01
      - 8.1953175417051362e-03
      - -7.4188112046285748e-01
      - 8.6133443037856288e-03
      - -6.4427815392316501e-01
      - 8.9876499336087115e-03
      - -5.8633181254379829e-01
      - 9.0069889156058885e-03
      - -5.8376546909270666e-01
      - 8.7500167865473301e-03
      - -6.2103244142519676e-01
      - 8.3952804928566598e-03
      - -6.8862288242656755e-01
      - 8.1536326619717769e-03
      - -7.5543406613168518e-01
      - 7.8924991563632911e-03
      - -8.9392418569759724e-01
      - 7.8435294411789216e-03
      - -9.9004950371280931e-01
      - 7.8580927768702701e-03
      - -1.0636910835091020e+00
      - 7.8444556700504285e-03
      - -1.0185045130601726e+00
      - 7.8436710784602487e-03
      - -1.0117355232328915e+00
      - 7.8624238484207229e-03
      - -9.3228690782648727e-01
      - 8.0624750506765874e-03
      - -7.8982021215190523e-01
      - 8.8768272832504096e-03
      - -6.0173792946333704e-01
      - 1.2929468077874188e-02
      - -3.3794397188543657e-01
      - 2.8011204481792715e-02
      - -1.4285714285714282e-01
      - 9.6138570170051410e-02
      - -4.0858892322271849e-02
      - 3.5296875323169379e-02
      - -1.1250879009260240e-01
      - 3.4190481983476254e-02
      - -1.1624763874381926e-01
      - 1.
      - 0.
      - 3.0632684936664437e-02
      - -1.3018891098082386e-01
      - 1.2331450097438171e-02
      - -3.5899934096166874e-01
      - 9.3544848296424673e-03
      - -5.4267705117963361e-01
      - 8.1003573254011339e-03
      - -7.7459666924148340e-01
      - 7.8432352959559200e-03
      - -1.0050125627355515e+00
      - 7.8442268065158707e-03
      - -1.0168078997946197e+00
      - 7.8800409709650718e-03
      - -9.0758371883090216e-01
      - 8.2084351706755137e-03
      - -7.3783571640409529e-01
      - 8.6350244596501424e-03
      - -6.4039500148880368e-01
      - 8.9685652856135913e-03
      - -5.8889841806660237e-01
      - 9.1076381589025694e-03
      - -5.7093506708620478e-01
      - 8.7500167865473301e-03
      - -6.2103244142519676e-01
      - 8.3839212086167583e-03
      - -6.9125430365045171e-01
      - 8.0591993210079784e-03
      - -7.9121189333995823e-01
      - 7.8727595698104402e-03
      - -9.1678285190442577e-01
      - 7.8434096002413800e-03
      - -1.0083683467310325e+00
      - 7.8800409709650718e-03
      - -1.1018267287651911e+00
      - 7.8536266698487848e-03
      - -1.0530731660933490e+00
      - 7.8449788619321375e-03
      - -1.0219065590024350e+00
      - 7.8523145574783577e-03
      - -9.5278021761803022e-01
      - 8.0104795957046549e-03
      - -8.1366446493370037e-01
      - 8.7026673112389312e-03
      - -6.2876771323701275e-01
      - 1.1926206862652857e-02
      - -3.7507920583043236e-01
      - 2.4720255952988823e-02
      - -1.6284468609031388e-01
      - 5.1495801703337667e-02
      - -7.6600005033714780e-02
      - 3.7882970864824582e-02
      - -1.0465170701407792e-01
      - 3.5296875323169379e-02
      - -1.1250879009260240e-01
      - 9.6138570170051410e-02
      - -4.0858892322271849e-02
      - 3.3183656001021224e-02
      - -1.1987595730368916e-01
      - 1.2410788582419381e-02
      - -3.5603449745815596e-01
      - 9.3424394300144521e-03
      - -5.4396353581259149e-01
      - 8.0624750506765874e-03
      - -7.8982021215190523e-01
      - 7.8436710784602487e-03
      - -1.0117355232328915e+00
      - 7.8523145574783560e-03
      - -1.0495599945389507e+00
      - 7.8683564108345885e-03
      - -9.2295820699089726e-01
      - 8.1496334958706743e-03
      - -7.5679534051029052e-01
      - 8.4854884279857955e-03
      - -6.6897469394133025e-01
      - 8.8331683450913190e-03
      - -6.0816364055953731e-01
      - 8.8076503893298793e-03
      - -6.1202160642855996e-01
      - 8.5110968556823575e-03
      - -6.6375916603252783e-01
      - 8.1417258964538823e-03
      - -7.5952125456544151e-01
      - 7.9733694055122029e-03
      - -8.3361577134630083e-01
      - 7.8455893847898875e-03
      - -9.7530483039669291e-01
      - 7.8597585697273761e-03
      - -1.0672569667868561e+00
      - 7.9068240421813398e-03
      - -1.1358152736593494e+00
      - 7.8683564108345868e-03
      - -1.0834726777719226e+00
      - 7.8489061407070806e-03
      - -1.0390970617028585e+00
      - 7.8470726767882661e-03
      - -9.6881921035797136e-01
      - 7.9808993847009495e-03
      - -8.2931520731273733e-01
      - 8.5643783199879833e-03
      - -6.5335501108608318e-01
      - 1.1629179798688789e-02
      - -3.8797851103375469e-01
      - 2.3634821783112370e-02
      - -1.7076158738298686e-01
      - 4.8190112971708263e-02
      - -8.1923192051904042e-02
      - 3.9413247657224003e-02
      - -1.0050378152592120e-01
      - 3.4190481983476254e-02
      - -1.1624763874381926e-01
      - 9.6138570170051410e-02
      - -4.0858892322271849e-02
      - 3.4190481983476254e-02
      - -1.1624763874381926e-01
      - 1.2410788582419381e-02
      - -3.5603449745815596e-01
      - 9.3185971867011282e-03
      - -5.4653572500002112e-01
      - 8.0724687781225744e-03
      - -7.8565302383077962e-01
      - 7.8470726767882644e-03
      - -1.0321843222230362e+00
      - 7.8543157922048735e-03
      - -1.0548346108931146e+00
      - 7.8580927768702701e-03
      - -9.4012257459281701e-01
      - 8.1076153885289888e-03
      - -7.7184498498795973e-01
      - 8.4854884279857955e-03
      - -6.6897469394133025e-01
      - 8.7261106828609141e-03
      - -6.2489860127637720e-01
      - 8.6133443037856288e-03
      - -6.4427815392316501e-01
      - 8.3137218367780076e-03
      - -7.0843302201644598e-01
      - 8.0932144688217952e-03
      - -7.7735324973033337e-01
      - 7.9068240421813381e-03
      - -8.8042485709689200e-01
      - 7.8489061407070806e-03
      - -1.0390970617028585e+00
      - 7.8800409709650718e-03
      - -1.1018267287651911e+00
      - 7.9269115910442865e-03
      - -1.1572300058975780e+00
      - 7.8839879763493038e-03
      - -1.1074046611279642e+00
      - 7.8529595972040601e-03
      - -1.0513149660756935e+00
      - 7.8438345156274254e-03
      - -9.8675438206593014e-01
      - 7.9758541185149905e-03
      - -8.3218067909055782e-01
      - 8.4982082754384847e-03
      - -6.6636575639782014e-01
      - 1.1191293480544869e-02
      - -4.0904177671391495e-01
      - 2.2988642421982321e-02
      - -1.7586311452816475e-01
      - 6.0879644927355384e-02
      - -6.4684622735315098e-02
      - 3.5296875323169379e-02
      - -1.1250879009260240e-01
      - 3.0632684936664437e-02
      - -1.3018891098082386e-01
      - 6.8037050819557673e-02
      - -5.7831493196624020e-02
      - 2.6442966662701888e-02
      - -1.5171652122725207e-01
      - 1.2253946320539298e-02
      - -3.6195093944292955e-01
      - 9.2950816086250915e-03
      - -5.4910694602952725e-01
      - 8.0624750506765874e-03
      - -7.8982021215190523e-01
      - 7.8484149082870963e-03
      - -1.0373642405028471e+00
      - 7.8643120227951738e-03
      - -1.0762311003195195e+00
      - 7.8543157922048735e-03
      - -9.4801591611912828e-01
      - 8.0861859741442228e-03
      - -7.8011479185556387e-01
      - 8.4126079550127866e-03
      - -6.8468112993860319e-01
      - 8.5575643229800942e-03
      - -6.5465367070797720e-01
      - 8.3895817507349726e-03
      - -6.8993822922606729e-01
      - 8.1576622351740187e-03
      - -7.5407390286389830e-01
      - 8.0309486289166267e-03
      - -8.0379757089669290e-01
      - 7.8800409709650718e-03
      - -9.0758371883090216e-01
      - 7.8510905124228089e-03
      - -1.0460596721489341e+00
      - 7.9002251375037292e-03
      - -1.1281521496355327e+00
      - 7.9390853087151613e-03
      - -1.1691295502746664e+00
      - 7.8853492433368002e-03
      - -1.1092715048064044e+00
      - 7.8529595972040601e-03
      - -1.0513149660756935e+00
      - 7.8435294411789216e-03
      - -9.9004950371280931e-01
      - 7.9498968868354693e-03
      - -8.4805525040317364e-01
      - 8.4422703754330284e-03
      - -6.7812536790665801e-01
      - 1.1273749499806328e-02
      - -4.0486852891179476e-01
      - 2.2685603971266646e-02
      - -1.7836556122408401e-01
      - 6.0879644927355384e-02
      - -6.4684622735315098e-02
      - 3.6520330846644161e-02
      - -1.0864798426876639e-01
      - 2.7456939576074268e-02
      - -1.4586499149789456e-01
      - 5.5598525883006740e-02
      - -7.0888120500833582e-02
      - 2.2988642421982321e-02
      - -1.7586311452816475e-01
      - 1.1757690104218786e-02
      - -3.8227189951341328e-01
      - 9.3185971867011282e-03
      - -5.4653572500002112e-01
      - 8.0724687781225744e-03
      - -7.8565302383077962e-01
      - 7.8434096002413800e-03
      - -9.9170110133051947e-01
      - 7.8474981878243547e-03
      - -1.0339078862458588e+00
      - 7.8499544115604621e-03
      - -9.5916630466254393e-01
      - 8.0495373457378106e-03
      - -7.9539490897571741e-01
      - 8.3727139244490004e-03
      - -6.9388866648871095e-01
      - 8.4544145165918357e-03
      - -6.7550771987568770e-01
      - 8.2983901461666579e-03
      - -7.1241679404840752e-01
      - 8.1112878913048268e-03
      - -7.7047095857531722e-01
      - 7.9308731675892651e-03
      - -8.6119369008559932e-01
      - 7.8494193041709383e-03
      - -9.6076892283052284e-01
      - 7.8597585697273761e-03
      - -1.0672569667868561e+00
      - 7.8924991563632911e-03
      - -1.1186630991750421e+00
      - 7.9288803826057640e-03
      - -1.1592023119369625e+00
      - 7.8881403841891146e-03
      - -1.1130166082090840e+00
      - 7.8643120227951738e-03
      - -1.0762311003195195e+00
      - 7.8438345156274254e-03
      - -1.0134234194190632e+00
      - 7.9369960147776496e-03
      - -8.5679871979524724e-01
      - 8.3293736645720044e-03
      - -7.0445677768117732e-01
      - 1.1084975903594252e-02
      - -4.1457809879442503e-01
      - 2.1587751951448936e-02
      - -1.8808328887699885e-01
      - 5.1495801703337667e-02
      - -7.6600005033714780e-02
      - 3.2262355678028515e-02
      - -1.2340351046845907e-01
      - 2.7456939576074268e-02
      - -1.4586499149789456e-01
      - 5.1495801703337667e-02
      - -7.6600005033714780e-02
      - 2.3634821783112370e-02
      - -1.7076158738298686e-01
      - 1.1790673961445817e-02
      - -3.8083876895469987e-01
      - 9.2264399342756806e-03
      - -5.5681565003353739e-01
      - 8.1039719026721364e-03
      - -7.7322021916370520e-01
      - 7.8449788619321375e-03
      - -9.7856305079025996e-01
      - 7.8435294411789216e-03
      - -1.0100505037878156e+00
      - 7.8787707884665770e-03
      - -9.0911166435418722e-01
      - 8.1112878913048268e-03
      - -7.7047095857531722e-01
      - 8.4010176375212270e-03
      - -6.8730825546970542e-01
      - 8.3399884325316351e-03
      - -7.0181002659753711e-01
      - 8.2686687031987040e-03
      - -7.2040776076618707e-01
      - 8.0691096831072007e-03
      - -7.8704078571606850e-01
      - 7.9349309297942310e-03
      - -8.5826196669386845e-01
      - 7.8643120227951738e-03
      - -9.2916846549324983e-01
      - 7.8474981878243547e-03
      - -1.0339078862458588e+00
      - 7.8606247621301282e-03
      - -1.0690449676496974e+00
      - 7.8986336213011030e-03
      - -1.1262464214772712e+00
      - 7.8939981127027232e-03
      - -1.1205530320981514e+00
      - 7.8683564108345868e-03
      - -1.0834726777719226e+00
      - 7.8516915344411901e-03
      - -1.0478082352711768e+00
      - 7.9454990046383105e-03
      - -8.5096294339676304e-01
      - 8.3399884325316351e-03
      - -7.0181002659753711e-01
      - 1.1164333269493308e-02
      - -4.1042880181974778e-01
      - 2.3979971778528120e-02
      - -1.6815955209692846e-01
      - 5.1495801703337667e-02
      - -7.6600005033714780e-02
      - 3.2262355678028515e-02
      - -1.2340351046845907e-01
      - 2.9231902399754119e-02
      - -1.3665914371885049e-01
      - 3.4190481983476254e-02
      - -1.1624763874381926e-01
      - 1.9439986689066591e-02
      - -2.1068085574275919e-01
      - 1.2104185011643117e-02
      - -3.6781592204130520e-01
      - 9.4539287132449478e-03
      - -5.3237436066460608e-01
      - 8.1300895295167517e-03
      - -7.6361865905986093e-01
      - 7.8565156339177808e-03
      - -9.4327290829725352e-01
      - 7.8516915344411901e-03
      - -9.5437310601132663e-01
      - 7.9155998341641498e-03
      - -8.7299171671037867e-01
      - 8.3137218367780076e-03
      - -7.0843302201644598e-01
      - 8.5176050313604691e-03
      - -6.6245673131406058e-01
      - 8.4010176375212270e-03
      - -6.8730825546970542e-01
      - 8.3034654290034173e-03
      - -7.1108802067628019e-01
      - 8.0691096831072007e-03
      - -7.8704078571606850e-01
      - 7.9758541185149905e-03
      - -8.3218067909055782e-01
      - 7.8955201492640036e-03
      - -8.9091075484257709e-01
      - 7.8431808282498228e-03
      - -9.9667220374984622e-01
      - 7.8452732033732243e-03
      - -1.0236120212101214e+00
      - 7.8580927768702701e-03
      - -1.0636910835091020e+00
      - 7.8955201492640036e-03
      - -1.1224468832197438e+00
      - 7.8615131808670736e-03
      - -1.0708363641488563e+00
      - 7.8444556700504285e-03
      - -1.0185045130601726e+00
      - 7.9328899988105675e-03
      - -8.5972695362109530e-01
      - 8.3293736645720044e-03
      - -7.0445677768117732e-01
      - 1.1191293480544869e-02
      - -4.0904177671391495e-01
      - 2.3634821783112370e-02
      - -1.7076158738298686e-01
      - 4.8190112971708263e-02
      - -8.1923192051904042e-02
      - 3.3183656001021224e-02
      - -1.1987595730368916e-01
      - 2.8601506978828621e-02
      - -1.3978986535902488e-01
      - 2.9231902399754119e-02
      - -1.3665914371885049e-01
      - 1.8592339448265119e-02
      - -2.2124883943435492e-01
      - 1.1790673961445817e-02
      - -3.8083876895469987e-01
      - 9.5591363768727667e-03
      - -5.2204833538196393e-01
      - 8.2084351706755137e-03
      - -7.3783571640409529e-01
      - 7.9051393047681520e-03
      - -8.8191710368819698e-01
      - 7.8839879763493020e-03
      - -9.0301227284110819e-01
      - 7.9660661352004003e-03
      - -8.3793058159639211e-01
      - 8.3616570605881436e-03
      - -6.9652603314699235e-01
      - 8.6062113607119628e-03
      - -6.4557342969540610e-01
      - 8.4544145165918357e-03
      - -6.7550771987568770e-01
      - 8.3839212086167583e-03
      - -6.9125430365045171e-01
      - 8.1867311957477817e-03
      - -7.4458320225326080e-01
      - 8.0432327830710498e-03
      - -7.9819031331001333e-01
      - 7.9454990046383105e-03
      - -8.5096294339676304e-01
      - 7.8652895774729437e-03
      - -9.2761258954321535e-01
      - 7.8505114763130837e-03
      - -9.5756613732328832e-01
      - 7.8431481481708431e-03
      - -1.0016680578732688e+00
      - 7.8826495314448016e-03
      - -1.1055415967851334e+00
      - 7.8624238484207229e-03
      - -1.0726311735207972e+00
      - 7.8466690508077804e-03
      - -1.0304638130973316e+00
      - 7.9328899988105675e-03
      - -8.5972695362109530e-01
      - 8.3727139244490004e-03
      - -6.9388866648871095e-01
      - 1.1191293480544869e-02
      - -4.0904177671391495e-01
      - 2.5536632063155561e-02
      - -1.5736949508919612e-01
      - 7.8529595972040608e-02
      - -5.0062617432175882e-02
      - 3.4190481983476254e-02
      - -1.1624763874381926e-01
      - 2.6935208592519310e-02
      - -1.4881702747366921e-01
      - 2.4341349664775531e-02
      - -1.6552117772047362e-01
      - 1.6100935634240001e-02
      - -2.6003011049297597e-01
      - 1.1387513861029454e-02
      - -3.9927470475234522e-01
      - 9.6001637110676094e-03
      - -5.1816883630487420e-01
      - 8.3839212086167583e-03
      - -6.9125430365045171e-01
      - 7.9521326292234309e-03
      - -8.4660392003869955e-01
      - 7.9349309297942310e-03
      - -8.5826196669386845e-01
      - 8.0624750506765874e-03
      - -7.8982021215190523e-01
      - 8.4791911777335402e-03
      - -6.7028006259983630e-01
      - 8.8161008439630872e-03
      - -6.1073538596554289e-01
      - 8.5440694734947951e-03
      - -6.5725254424858703e-01
      - 8.3839212086167583e-03
      - -6.9125430365045171e-01
      - 8.1576622351740187e-03
      - -7.5407390286389830e-01
      - 8.0691096831072007e-03
      - -7.8704078571606850e-01
      - 8.0220171189021305e-03
      - -8.0801767430141702e-01
      - 7.9390853087151613e-03
      - -8.5533720344769970e-01
      - 7.8986336213011030e-03
      - -8.8790515195451014e-01
      - 7.8516915344411901e-03
      - -9.5437310601132663e-01
      - 7.8536266698487848e-03
      - -1.0530731660933490e+00
      - 7.8550269816277142e-03
      - -1.0565993168661978e+00
      - 7.8523145574783560e-03
      - -1.0495599945389507e+00
      - 7.9328899988105675e-03
      - -8.5972695362109530e-01
      - 8.3507490689672757e-03
      - -6.9916646579928510e-01
      - 1.1218513710291516e-02
      - -4.0765274194771794e-01
      - 2.9231902399754119e-02
      - -1.3665914371885049e-01
      - 6.0879644927355384e-02
      - -6.4684622735315098e-02
      - 3.5296875323169379e-02
      - -1.1250879009260240e-01
      - 2.8601506978828621e-02
      - -1.3978986535902488e-01
      - 2.4341349664775531e-02
      - -1.6552117772047362e-01
      - 1.5369839248423934e-02
      - -2.7435163058436723e-01
      - 1.1387513861029454e-02
      - -3.9927470475234522e-01
      - 9.6001637110676094e-03
      - -5.1816883630487420e-01
      - 8.4729353940426050e-03
      - -6.7158604167030200e-01
      - 8.0432327830710498e-03
      - -7.9819031331001333e-01
      - 8.0048684404679018e-03
      - -8.1649658092772603e-01
      - 8.1867311957477817e-03
      - -7.4458320225326080e-01
      - 8.7419960991474387e-03
      - -6.2232084730805826e-01
      - 8.8591919567859410e-03
      - -6.0430763135226107e-01
      - 8.5307503977886737e-03
      - -6.5985354326895385e-01
      - 8.3671667874691824e-03
      - -6.9520697045384572e-01
      - 8.1496334958706743e-03
      - -7.5679534051029052e-01
      - 8.0370367795757278e-03
      - -8.0099117804446596e-01
      - 8.0591993210079784e-03
      - -7.9121189333995823e-01
      - 8.0309486289166267e-03
      - -8.0379757089669290e-01
      - 8.0190931358551515e-03
      - -8.0942721340037938e-01
      - 7.8955201492640036e-03
      - -8.9091075484257709e-01
      - 7.8444556700504285e-03
      - -1.0185045130601726e+00
      - 7.8466690508077804e-03
      - -1.0304638130973316e+00
      - 7.8444556700504285e-03
      - -1.0185045130601726e+00
      - 7.9433367468797773e-03
      - -8.5241932464953607e-01
      - 8.4126079550127866e-03
      - -6.8468112993860319e-01
      - 1.1790673961445817e-02
      - -3.8083876895469987e-01
      - 3.0632684936664437e-02
      - -1.3018891098082386e-01
      - 9.6138570170051410e-02
      - -4.0858892322271849e-02
      - 4.1148479853756872e-02
      - -9.6184571658156692e-02
      - 2.5977553272089372e-02
      - -1.5456644196893177e-01
      - 2.1846510373770806e-02
      - -1.8569533817705186e-01
      - 1.5369839248423934e-02
      - -2.7435163058436723e-01
      - 1.1137629355354379e-02
      - -4.1181384541422816e-01
      - 9.6994283371548851e-03
      - -5.0909874484641704e-01
      - 8.5373880939643449e-03
      - -6.5855277409817470e-01
      - 8.0896859783564385e-03
      - -7.7873339649153672e-01
      - 8.0827143533052787e-03
      - -7.8149744403520416e-01
      - 8.3189033080770299e-03
      - -7.0710678118654757e-01
      - 8.9219416916824033e-03
      - -5.9531655937750827e-01
      - 9.0069889156058885e-03
      - -5.8376546909270666e-01
      - 8.7500167865473301e-03
      - -6.2103244142519676e-01
      - 8.5850898212587630e-03
      - -6.4946204497822546e-01
      - 8.3241205248119031e-03
      - -7.0578136899748922e-01
      - 8.2128717610390044e-03
      - -7.3648927517117269e-01
      - 8.1300895295167517e-03
      - -7.6361865905986093e-01
      - 8.1224806013228765e-03
      - -7.6635604473481334e-01
      - 8.0624750506765874e-03
      - -7.8982021215190523e-01
      - 7.9521326292234309e-03
      - -8.4660392003869955e-01
      - 7.8438345156274254e-03
      - -9.8675438206593014e-01
      - 7.8474981878243547e-03
      - -1.0339078862458588e+00
      - 7.8434096002413800e-03
      - -1.0083683467310325e+00
      - 7.9636817804982704e-03
      - -8.3937205966451778e-01
      - 8.4010176375212270e-03
      - -6.8730825546970542e-01
      - 1.2451167171873686e-02
      - -3.5454698521910322e-01
      - 3.4190481983476254e-02
      - -1.1624763874381926e-01
      - 1.3590376053127240e-01
      - -2.8879549112895385e-02
      - 4.1148479853756872e-02
      - -9.6184571658156692e-02
      - 2.4341349664775531e-02
      - -1.6552117772047362e-01
      - 2.1097945121991122e-02
      - -1.9278247355219386e-01
      - 1.4739314026097947e-02
      - -2.8815358921021489e-01
      - 1.1191293480544869e-02
      - -4.0904177671391495e-01
      - 9.7140274128099530e-03
      - -5.0780078300464027e-01
      - 8.6645988496644299e-03
      - -6.3522340316602355e-01
      - 8.1576622351740187e-03
      - -7.5407390286389830e-01
      - 8.1417258964538823e-03
      - -7.5952125456544151e-01
      - 8.3727139244490004e-03
      - -6.9388866648871095e-01
      - 9.0665711903318413e-03
      - -5.7606726700570943e-01
      - 9.2152705168007318e-03
      - -5.5809982067374431e-01
      - 8.7826276228369308e-03
      - -6.1588176205143974e-01
      - 8.6571328248766736e-03
      - -6.3651569094905747e-01
      - 8.3346629067441082e-03
      - -7.0313299947019980e-01
      - 8.1910085854692526e-03
      - -7.4323164152401633e-01
      - 8.1339384721638968e-03
      - -7.6225170907265927e-01
      - 8.1224806013228765e-03
      - -7.6635604473481334e-01
      - 8.1076153885289888e-03
      - -7.7184498498795973e-01
      - 7.9636817804982704e-03
      - -8.3937205966451778e-01
      - 7.8431481481708431e-03
      - -9.9833471991029610e-01
      - 7.8447063530980941e-03
      - -1.0202040612204073e+00
      - 7.8431372549019607e-03
      - -1.
      - 8.0048684404679018e-03
      - -8.1649658092772603e-01
      - 8.6277505602655180e-03
      - -6.4168894791974795e-01
      - 1.2792447766954566e-02
      - -3.4251778896020851e-01
      - 3.9413247657224003e-02
      - -1.0050378152592120e-01
      - 1.3590376053127240e-01
      - -2.8879549112895385e-02
      - 4.8190112971708263e-02
      - -8.1923192051904042e-02
      - 2.7456939576074268e-02
      - -1.4586499149789456e-01
      - 2.2115290689558878e-02
      - -1.8328047158971919e-01
      - 1.4739314026097947e-02
      - -2.8815358921021489e-01
      - 1.1416665162382387e-02
      - -3.9787078090902617e-01
      - 9.8661234932006566e-03
      - -4.9478609318401290e-01
      - 8.7026673112389312e-03
      - -6.2876771323701275e-01
      - 8.2218418566424971e-03
      - -7.3379938570534287e-01
      - 8.1782705808820088e-03
      - -7.4728947432809356e-01
      - 8.4184615433647685e-03
      - -6.8336861578263508e-01
      - 9.0665711903318413e-03
      - -5.7606726700570943e-01
      - 9.3185971867011282e-03
      - -5.4653572500002112e-01
      - 8.8946954514558200e-03
      - -5.9916892234869268e-01
      - 8.7026673112389312e-03
      - -6.2876771323701275e-01
      - 8.4243543653571059e-03
      - -6.8205679030522470e-01
      - 8.2448391793944510e-03
      - -7.2709175513284818e-01
      - 8.1824852384636323e-03
      - -7.4593581055144087e-01
      - 8.1378172219538185e-03
      - -7.6088591025268204e-01
      - 8.0339792661964279e-03
      - -8.0239367921136828e-01
      - 7.9498968868354693e-03
      - -8.4805525040317364e-01
      - 7.8438345156274254e-03
      - -9.8675438206593014e-01
      - 7.8436710784602487e-03
      - -9.8840060177447209e-01
      - 7.8523145574783577e-03
      - -9.5278021761803022e-01
      - 8.0339792661964279e-03
      - -8.0239367921136828e-01
      - 8.7743949839645050e-03
      - -6.1716900718460344e-01
      - 1.3220074617551054e-02
      - -3.2868410517886310e-01
      - 4.5453144141156449e-02
      - -8.6929138169961714e-02
      - 1.
      - 0.
      - 7.8529595972040608e-02
      - -5.0062617432175882e-02
      - 3.0632684936664437e-02
      - -1.3018891098082386e-01
      - 2.4720255952988823e-02
      - -1.6284468609031388e-01
      - 1.4813394757878731e-02
      - -2.8645402113047996e-01
      - 1.1218513710291516e-02
      - -4.0765274194771794e-01
      - 9.9796132161646747e-03
      - -4.8563292813161352e-01
      - 8.8417861711796320e-03
      - -6.0687809832434203e-01
      - 8.2833739398781442e-03
      - -7.1640830362521102e-01
      - 8.2833739398781442e-03
      - -7.1640830362521102e-01
      - 8.5850898212587630e-03
      - -6.4946204497822546e-01
      - 9.2950816086250915e-03
      - -5.4910694602952725e-01
      - 9.3911269033607782e-03
      - -5.3881590608032470e-01
      - 8.9404069134814360e-03
      - -5.9274897836381923e-01
      - 8.7261106828609141e-03
      - -6.2489860127637720e-01
      - 8.4729353940426050e-03
      - -6.7158604167030200e-01
      - 8.2309421286536951e-03
      - -7.3111343457766453e-01
      - 8.1003573254011339e-03
      - -7.7459666924148340e-01
      - 8.0758558555343186e-03
      - -7.8426655177057647e-01
      - 8.0591993210079784e-03
      - -7.9121189333995823e-01
      - 7.9613223517127213e-03
      - -8.4081515687025976e-01
      - 7.8505114763130837e-03
      - -9.5756613732328832e-01
      - 7.8516915344411901e-03
      - -9.5437310601132663e-01
      - 7.8739166244589688e-03
      - -9.1524438363554939e-01
      - 8.2084351706755137e-03
      - -7.3783571640409529e-01
      - 9.0869673120911217e-03
      - -5.7350122448435092e-01
      - 1.4253772038904964e-02
      - -2.9986372926846322e-01
      - 5.1495801703337667e-02
      - -7.6600005033714780e-02
      - 1.3590376053127240e-01
      - -2.8879549112895385e-02
      - 6.0879644927355384e-02
      - -6.4684622735315098e-02
      - 2.8601506978828621e-02
      - -1.3978986535902488e-01
      - 2.2988642421982321e-02
      - -1.7586311452816475e-01
      - 1.4386907199350714e-02
      - -2.9655012464661662e-01
      - 1.1387513861029454e-02
      - -3.9927470475234522e-01
      - 1.0207435417555952e-02
      - -4.6852128566581819e-01
      - 9.0972681234870404e-03
      - -5.7221816496733480e-01
      - 8.4362585649653370e-03
      - -6.7943517417589583e-01
      - 8.3727139244490004e-03
      - -6.9388866648871095e-01
      - 8.6423459357109784e-03
      - -6.3910148194582683e-01
      - 9.2041767763878356e-03
      - -5.5938384358497073e-01
      - 9.2950816086250915e-03
      - -5.4910694602952725e-01
      - 8.9219416916824033e-03
      - -5.9531655937750827e-01
      - 8.7419960991474387e-03
      - -6.2232084730805826e-01
      - 8.4243543653571059e-03
      - -6.8205679030522470e-01
      - 8.2263756481319797e-03
      - -7.3245592177055108e-01
      - 8.1536326619717769e-03
      - -7.5543406613168518e-01
      - 8.0657784728360108e-03
      - -7.8842984571972008e-01
      - 8.0591993210079784e-03
      - -7.9121189333995823e-01
      - 7.9566780170516709e-03
      - -8.4370624523311655e-01
      - 7.8615131808670736e-03
      - -9.3384949697224751e-01
      - 7.8813338742394646e-03
      - -9.0605784551725455e-01
      - 7.9390853087151613e-03
      - -8.5533720344769970e-01
      - 8.4362585649653370e-03
      - -6.7943517417589583e-01
      - 9.5863895114061317e-03
      - -5.1946248164931974e-01
      - 1.5630883021070616e-02
      - -2.6904657400017795e-01
      - 6.0879644927355384e-02
      - -6.4684622735315098e-02
      - 1.
      - 0.
      - 6.0879644927355384e-02
      - -6.4684622735315098e-02
      - 2.7456939576074268e-02
      - -1.4586499149789456e-01
      - 2.2685603971266646e-02
      - -1.7836556122408401e-01
      - 1.4594847966392975e-02
      - -2.9153208812869968e-01
      - 1.1857708957152227e-02
      - -3.7796447300922725e-01
      - 1.0419637131132234e-02
      - -4.5390544252494797e-01
      - 9.3185971867011282e-03
      - -5.4653572500002112e-01
      - 8.6062113607119628e-03
      - -6.4557342969540610e-01
      - 8.4667208431406394e-03
      - -6.7289263900860230e-01
      - 8.6205239398292038e-03
      - -6.4298332936201075e-01
      - 9.0564748108176597e-03
      - -5.7735026918962584e-01
      - 8.9404069134814360e-03
      - -5.9274897836381923e-01
      - 8.6205239398292038e-03
      - -6.4298332936201075e-01
      - 8.5373880939643449e-03
      - -6.5855277409817470e-01
      - 8.2883445696419634e-03
      - -7.1507692774586040e-01
      - 8.1996581998876640e-03
      - -7.4053163117735465e-01
      - 8.1262702776354490e-03
      - -7.6498676826090706e-01
      - 8.0401212559287217e-03
      - -7.9959005890211143e-01
      - 8.0657784728360108e-03
      - -7.8842984571972008e-01
      - 7.9613223517127213e-03
      - -8.4081515687025976e-01
      - 7.8775232941997089e-03
      - -9.1064169280948626e-01
      - 7.9476856984224912e-03
      - -8.4950825509013406e-01
      - 8.0792710140228340e-03
      - -7.8288136125881269e-01
      - 8.7261106828609141e-03
      - -6.2489860127637720e-01
      - 1.0263433850449533e-02
      - -4.6454867465597199e-01
      - 1.7080033152822742e-02
      - -2.4317697201331381e-01
      - 6.8037050819557673e-02
      - -5.7831493196624020e-02
      - 9.6138570170051410e-02
      - -4.0858892322271849e-02
      - 1.3590376053127240e-01
      - -2.8879549112895385e-02
      - 2.8601506978828621e-02
      - -1.3978986535902488e-01
      - 2.4720255952988823e-02
      - -1.6284468609031388e-01
      - 1.4666476168711487e-02
      - -2.8984623528416076e-01
      - 1.1824011620495112e-02
      - -3.7940297287263691e-01
      - 1.0719605401458009e-02
      - -4.3508198423167693e-01
      - 9.6280120811811035e-03
      - -5.1558004694724802e-01
      - 8.6949541092994336e-03
      - -6.3005811214511021e-01
      - 8.5781407971395277e-03
      - -6.5075920622299743e-01
      - 8.6645988496644299e-03
      - -6.3522340316602355e-01
      - 9.0364827897103667e-03
      - -5.7991628302966280e-01
      - 8.7500167865473301e-03
      - -6.2103244142519676e-01
      - 8.5575643229800942e-03
      - -6.5465367070797720e-01
      - 8.4918273810009604e-03
      - -6.6766992783120049e-01
      - 8.3293736645720044e-03
      - -7.0445677768117732e-01
      - 8.2084351706755137e-03
      - -7.3783571640409529e-01
      - 8.1149895204518825e-03
      - -7.6909813180082720e-01
      - 8.0527305616675520e-03
      - -7.9399923338042055e-01
      - 7.9912952280878028e-03
      - -8.2360286444479913e-01
      - 7.9709098818531634e-03
      - -8.3505244649764210e-01
      - 7.9068240421813381e-03
      - -8.8042485709689200e-01
      - 8.0527305616675520e-03
      - -7.9399923338042055e-01
      - 8.2983901461666579e-03
      - -7.1241679404840752e-01
      - 9.0972681234870404e-03
      - -5.7221816496733480e-01
      - 1.1084975903594252e-02
      - -4.1457809879442503e-01
      - 1.9260539586075903e-02
      - -2.1282896242613875e-01
      - 9.6138570170051410e-02
      - -4.0858892322271849e-02
      - 6.0879644927355384e-02
      - -6.4684622735315098e-02
      - 1.
      - 0.
      - 2.4341349664775531e-02
      - -1.6552117772047362e-01
      - 2.5118141773347001e-02
      - -1.6012815380508713e-01
      - 1.5813380232726854e-02
      - -2.6546712065690209e-01
      - 1.2533387688246923e-02
      - -3.5156152465532620e-01
      - 1.1475850491663976e-02
      - -3.9505615317553233e-01
      - 1.0320810901329710e-02
      - -4.6056618647183833e-01
      - 9.2264399342756806e-03
      - -5.5681565003353739e-01
      - 8.9037179036159410e-03
      - -5.9788465722781048e-01
      - 8.9219416916824033e-03
      - -5.9531655937750827e-01
      - 9.1931580891596917e-03
      - -5.6066772896262662e-01
      - 8.7743949839645050e-03
      - -6.1716900718460344e-01
      - 8.6350244596501424e-03
      - -6.4039500148880368e-01
      - 8.5920844032134173e-03
      - -6.4816536716741213e-01
      - 8.4362585649653370e-03
      - -6.7943517417589583e-01
      - 8.3671667874691824e-03
      - -6.9520697045384572e-01
      - 8.1867311957477817e-03
      - -7.4458320225326080e-01
      - 8.0932144688217952e-03
      - -7.7735324973033337e-01
      - 8.0133244551847688e-03
      - -8.1225060008866612e-01
      - 8.0463714497671680e-03
      - -7.9679193281319383e-01
      - 8.0591993210079784e-03
      - -7.9121189333995823e-01
      - 8.2983901461666579e-03
      - -7.1241679404840752e-01
      - 8.6497152893885085e-03
      - -6.3780838115128513e-01
      - 9.6994283371548851e-03
      - -5.0909874484641704e-01
      - 1.1996217529137636e-02
      - -3.7218264884149516e-01
      - 2.0865836995000945e-02
      - -1.9509557590325882e-01
      - 7.8529595972040608e-02
      - -5.0062617432175882e-02
      - 1.3590376053127240e-01
      - -2.8879549112895385e-02
      - 1.
      - 0.
      - 2.5977553272089372e-02
      - -1.5456644196893177e-01
      - 2.5536632063155561e-02
      - -1.5736949508919612e-01
      - 1.6302567628822859e-02
      - -2.5635787596323945e-01
      - 1.3120631490092311e-02
      - -3.3178796880570932e-01
      - 1.1824011620495112e-02
      - -3.7940297287263691e-01
      - 1.0630182707007016e-02
      - -4.4048819592160321e-01
      - 9.5727140427076373e-03
      - -5.2075564392329543e-01
      - 9.1076381589025694e-03
      - -5.7093506708620478e-01
      - 9.1076381589025694e-03
      - -5.7093506708620478e-01
      - 9.1180779694247562e-03
      - -5.6965192113981167e-01
      - 8.8076503893298793e-03
      - -6.1202160642855996e-01
      - 8.4982082754384847e-03
      - -6.6636575639782014e-01
      - 8.5046313524447092e-03
      - -6.6506217176117632e-01
      - 8.3507490689672757e-03
      - -6.9916646579928510e-01
      - 8.2638353010419194e-03
      - -7.2174271560474867e-01
      - 8.2263756481319797e-03
      - -7.3245592177055108e-01
      - 8.1262702776354490e-03
      - -7.6498676826090706e-01
      - 8.0691096831072007e-03
      - -7.8704078571606850e-01
      - 8.1224806013228765e-03
      - -7.6635604473481334e-01
      - 8.2084351706755137e-03
      - -7.3783571640409529e-01
      - 8.5991248222791247e-03
      - -6.4686916475594713e-01
      - 9.1076381589025694e-03
      - -5.7093506708620478e-01
      - 1.0225951306891143e-02
      - -4.6719815033358908e-01
      - 1.3120631490092311e-02
      - -3.3178796880570932e-01
      - 2.1846510373770806e-02
      - -1.8569533817705186e-01
      - 7.8529595972040608e-02
      - -5.0062617432175882e-02
      - 9.6138570170051410e-02
      - -4.0858892322271849e-02
      - 1.
      - 0.
      - 2.3979971778528120e-02
      - -1.6815955209692846e-01
      - 2.2988642421982321e-02
      - -1.7586311452816475e-01
      - 1.6302567628822859e-02
      - -2.5635787596323945e-01
      - 1.3120631490092311e-02
      - -3.3178796880570932e-01
      - 1.2140988830627655e-02
      - -3.6635433796418948e-01
      - 1.1164333269493308e-02
      - -4.1042880181974778e-01
      - 9.9465664219404813e-03
      - -4.8825207923700337e-01
      - 9.3911269033607782e-03
      - -5.3881590608032470e-01
      - 9.2950816086250915e-03
      - -5.4910694602952725e-01
      - 9.3185971867011282e-03
      - -5.4653572500002112e-01
      - 9.0464455168266129e-03
      - -5.7863327137002218e-01
      - 8.7743949839645050e-03
      - -6.1716900718460344e-01
      - 8.6062113607119628e-03
      - -6.4557342969540610e-01
      - 8.4918273810009604e-03
      - -6.6766992783120049e-01
      - 8.4918273810009604e-03
      - -6.6766992783120049e-01
      - 8.3671667874691824e-03
      - -6.9520697045384572e-01
      - 8.2883445696419634e-03
      - -7.1507692774586040e-01
      - 8.2173406088924140e-03
      - -7.3514383422303764e-01
      - 8.2883445696419634e-03
      - -7.1507692774586040e-01
      - 8.5046313524447092e-03
      - -6.6506217176117632e-01
      - 9.1076381589025694e-03
      - -5.7093506708620478e-01
      - 9.5863895114061317e-03
      - -5.1946248164931974e-01
      - 1.1164333269493308e-02
      - -4.1042880181974778e-01
      - 1.4594847966392975e-02
      - -2.9153208812869968e-01
      - 2.4720255952988823e-02
      - -1.6284468609031388e-01
      - 9.6138570170051410e-02
      - -4.0858892322271849e-02
      - 1.
      - 0.
      - 1.
      - 0.
      - 2.3634821783112370e-02
      - -1.7076158738298686e-01
      - 2.5977553272089372e-02
      - -1.5456644196893177e-01
      - 1.7452671444027255e-02
      - -2.3735633163877068e-01
      - 1.4253772038904964e-02
      - -2.9986372926846322e-01
      - 1.3322240709931101e-02
      - -3.2556225734894129e-01
      - 1.1824011620495112e-02
      - -3.7940297287263691e-01
      - 1.0379615565205632e-02
      - -4.5657333967448271e-01
      - 9.8347890964908743e-03
      - -4.9739445855502601e-01
      - 9.7735114948653227e-03
      - -5.0260282862344918e-01
      - 9.5322708053058574e-03
      - -5.2463235444702117e-01
      - 9.2041767763878356e-03
      - -5.5938384358497073e-01
      - 8.9311439016573381e-03
      - -5.9403270875898373e-01
      - 8.9037179036159410e-03
      - -5.9788465722781048e-01
      - 8.7992549528691875e-03
      - -6.1330807021498235e-01
      - 8.8161008439630872e-03
      - -6.1073538596554289e-01
      - 8.6721136745779668e-03
      - -6.3393150961164935e-01
      - 8.5241561282647978e-03
      - -6.6115485969853838e-01
      - 8.4729353940426050e-03
      - -6.7158604167030200e-01
      - 8.6062113607119628e-03
      - -6.4557342969540610e-01
      - 8.8768272832504096e-03
      - -6.0173792946333704e-01
      - 9.6562668431543919e-03
      - -5.1298917604257710e-01
      - 1.0379615565205632e-02
      - -4.5657333967448271e-01
      - 1.2747920433607170e-02
      - -3.4403450270197350e-01
      - 1.6003162857596766e-02
      - -2.6185175225742707e-01
      - 2.9231902399754119e-02
      - -1.3665914371885049e-01
      - 1.3590376053127240e-01
      - -2.8879549112895385e-02
      - 1.
      - 0.
      - 1.
      - 0.
      - 2.3979971778528120e-02
      - -1.6815955209692846e-01
      - 2.5536632063155561e-02
      - -1.5736949508919612e-01
      - 1.9439986689066591e-02
      - -2.1068085574275919e-01
      - 1.5542226640118137e-02
      - -2.7082329920405857e-01
      - 1.4386907199350714e-02
      - -2.9655012464661662e-01
      - 1.3170019911850883e-02
      - -3.3023824928966089e-01
      - 1.1566904200986716e-02
      - -3.9081677569083867e-01
      - 1.0652246562424528e-02
      - -4.3913886453595119e-01
      - 1.0439899373823570e-02
      - -4.5256963785525178e-01
      - 1.0117042697390451e-02
      - -4.7512161767619904e-01
      - 9.7140274128099530e-03
      - -5.0780078300464027e-01
      - 9.4285435860872492e-03
      - -5.3495199171562524e-01
      - 9.3424394300144521e-03
      - -5.4396353581259149e-01
      - 9.2376856606106242e-03
      - -5.5553132141497141e-01
      - 9.2604086074130568e-03
      - -5.5296214897015217e-01
      - 9.1076381589025694e-03
      - -5.7093506708620478e-01
      - 8.9685652856135913e-03
      - -5.8889841806660237e-01
      - 8.9780760571193975e-03
      - -5.8761507793846457e-01
      - 9.1285881129271086e-03
      - -5.6836871738112416e-01
      - 9.6280120811811035e-03
      - -5.1558004694724802e-01
      - 1.0565124270086544e-02
      - -4.4452760366389138e-01
      - 1.1790673961445817e-02
      - -3.8083876895469987e-01
      - 1.4524397429592963e-02
      - -2.9321127310990797e-01
      - 1.8916983144899910e-02
      - -2.1707238158772646e-01
      - 3.5296875323169379e-02
      - -1.1250879009260240e-01
      - 1.3590376053127240e-01
      - -2.8879549112895385e-02
      - 1.
      - 0.
      - 1.
      - 0.
      - 2.3979971778528120e-02
      - -1.6815955209692846e-01
      - 2.5118141773347001e-02
      - -1.6012815380508713e-01
      - 2.1846510373770806e-02
      - -1.8569533817705186e-01
      - 1.7452671444027255e-02
      - -2.3735633163877068e-01
      - 1.5630883021070616e-02
      - -2.6904657400017795e-01
      - 1.4253772038904964e-02
      - -2.9986372926846322e-01
      - 1.2617621651099262e-02
      - -3.4856179811161714e-01
      - 1.1757690104218786e-02
      - -3.8227189951341328e-01
      - 1.1358650905106172e-02
      - -4.0067641067762022e-01
      - 1.0982588894337331e-02
      - -4.2008402520840293e-01
      - 1.0522672835293128e-02
      - -4.4721359549995793e-01
      - 1.0152768987254260e-02
      - -4.7248448674434518e-01
      - 9.9796132161646747e-03
      - -4.8563292813161352e-01
      - 9.9630263853145613e-03
      - -4.8694291458224920e-01
      - 9.8661234932006566e-03
      - -4.9478609318401290e-01
      - 9.8347890964908743e-03
      - -4.9739445855502601e-01
      - 9.7584751364854783e-03
      - -5.0390325986026896e-01
      - 9.7140274128099530e-03
      - -5.0780078300464027e-01
      - 9.9630263853145613e-03
      - -4.8694291458224920e-01
      - 1.0696955403725117e-02
      - -4.3643578047198472e-01
      - 1.2140988830627655e-02
      - -3.6635433796418948e-01
      - 1.3220074617551054e-02
      - -3.2868410517886310e-01
      - 1.6512782766010176e-02
      - -2.5264557631995571e-01
      - 2.3304730270201517e-02
      - -1.7332893138462377e-01
      - 4.5453144141156449e-02
      - -8.6929138169961714e-02
      - 1.
      - 0.
      - 1.
      - 0.
      - 1.
      - 0.
      - 2.6442966662701888e-02
      - -1.5171652122725207e-01
      - 2.8601506978828621e-02
      - -1.3978986535902488e-01
      - 2.6442966662701888e-02
      - -1.5171652122725207e-01
      - 2.1587751951448936e-02
      - -1.8808328887699885e-01
      - 1.8436586807434274e-02
      - -2.2331315770504764e-01
      - 1.6512782766010176e-02
      - -2.5264557631995571e-01
      - 1.4739314026097947e-02
      - -2.8815358921021489e-01
      - 1.3480860250414872e-02
      - -3.2084447395987398e-01
      - 1.2883210041339261e-02
      - -3.3947258458928953e-01
      - 1.2292473028026468e-02
      - -3.6047677154687618e-01
      - 1.1692760959901648e-02
      - -3.8513031411676052e-01
      - 1.1446109207891457e-02
      - -3.9646460768834035e-01
      - 1.1416665162382387e-02
      - -3.9787078090902617e-01
      - 1.1330071988688557e-02
      - -4.0207592969858513e-01
      - 1.1301772896161471e-02
      - -4.0347329239296453e-01
      - 1.0932801994818483e-02
      - -4.2282611714960483e-01
      - 1.1007829117604756e-02
      - -4.1871030006089094e-01
      - 1.1007829117604756e-02
      - -4.1871030006089094e-01
      - 1.1273749499806328e-02
      - -4.0486852891179476e-01
      - 1.2292473028026468e-02
      - -3.6047677154687618e-01
      - 1.3535229885953640e-02
      - -3.1926223493493144e-01
      - 1.5813380232726854e-02
      - -2.6546712065690209e-01
      - 1.9815514989450021e-02
      - -2.0632904982764835e-01
      - 3.2262355678028515e-02
      - -1.2340351046845907e-01
      - 6.8037050819557673e-02
      - -5.7831493196624020e-02
      - 1.
      - 0.
      - 1.
      - 0.
      - 1.
      - 0.
      - 2.4341349664775531e-02
      - -1.6552117772047362e-01
      - 2.8011204481792715e-02
      - -1.4285714285714282e-01
      - 2.8011204481792715e-02
      - -1.4285714285714282e-01
      - 2.4720255952988823e-02
      - -1.6284468609031388e-01
      - 2.1846510373770806e-02
      - -1.8569533817705186e-01
      - 1.9260539586075903e-02
      - -2.1282896242613875e-01
      - 1.7582902122153247e-02
      - -2.3539110216032658e-01
      - 1.5721249524260256e-02
      - -2.6726124191242434e-01
      - 1.4888752874549003e-02
      - -2.8474739872574967e-01
      - 1.3646316552327920e-02
      - -3.1608280714329545e-01
      - 1.3023798193539745e-02
      - -3.3487441105139065e-01
      - 1.2883210041339261e-02
      - -3.3947258458928953e-01
      - 1.2617621651099262e-02
      - -3.4856179811161714e-01
      - 1.2575248188948016e-02
      - -3.5006347145984035e-01
      - 1.2451167171873686e-02
      - -3.5454698521910322e-01
      - 1.2178211977271879e-02
      - -3.6488967636900865e-01
      - 1.2215861921203882e-02
      - -3.6342189215581550e-01
      - 1.2178211977271879e-02
      - -3.6488967636900865e-01
      - 1.2370885790221652e-02
      - -3.5751859933740571e-01
      - 1.4253772038904964e-02
      - -2.9986372926846322e-01
      - 1.6845550880676033e-02
      - -2.4699788978791232e-01
      - 2.0012171101169755e-02
      - -2.0412414523193148e-01
      - 2.5536632063155561e-02
      - -1.5736949508919612e-01
      - 5.1495801703337667e-02
      - -7.6600005033714780e-02
      - 7.8529595972040608e-02
      - -5.0062617432175882e-02
      - 1.
      - 0.
      - 1.
      - 0.
      - 1.
      - 0.
   output_scale:
      - 5.2631578947368418e-01
      - 4.9999999999999994e-01
      - 5.2631578947368418e-01
      - 4.9999999999999994e-01
      - 5.2631578947368418e-01
      - 4.9999999999999994e-01
      - 5.2631578947368418e-01
      - 4.9999999999999994e-01
      - 5.2631578947368418e-01
      - 4.9999999999999994e-01
      - 5.2631578947368418e-01
      - 4.9999999999999994e-01
      - 5.2631578947368418e-01
      - 4.9999999999999994e-01
      - 5.2631578947368418e-01
      - 4.9999999999999994e-01
      - 5.2631578947368418e-01
      - 4.9999999999999994e-01
      - 5.2631578947368418e-01
      - 4.9999999999999994e-01
      - 5.2631578947368418e-01
      - 4.9999999999999994e-01
      - 5.2631578947368418e-01
      - 4.9999999999999994e-01
   inv_output_scale:
      - 1.8999999999999999e+00
      - -9.4999999999999996e-01
      - 1.8999999999999999e+00
      - -9.4999999999999996e-01
      - 1.8999999999999999e+00
      - -9.4999999999999996e-01
      - 1.8999999999999999e+00
      - -9.4999999999999996e-01
      - 1.8999999999999999e+00
      - -9.4999999999999996e-01
      - 1.8999999999999999e+00
      - -9.4999999999999996e-01
      - 1.8999999999999999e+00
      - -9.4999999999999996e-01
      - 1.8999999999999999e+00
      - -9.4999999999999996e-01
      - 1.8999999999999999e+00
      - -9.4999999999999996e-01
      - 1.8999999999999999e+00
      - -9.4999999999999996e-01
      - 1.8999999999999999e+00
      - -9.4999999999999996e-01
      - 1.8999999999999999e+00
      - -9.4999999999999996e-01
   weights:
      -
         - -5.1369469208880313e-04
         - 2.7404550791191046e-02
         - 1.3012462842595265e-01
         - -8.3913917621712408e-02
         - -1.5150978521391506e-01
         - 1.9818787567378319e-02
         - -8.3745224743314185e-03
         - -2.7363057113479698e-02
         - -9.5983778882722231e-03
         - 5.8212944927044812e-02
         - 5.0344797601275845e-02
         - -8.6166057571720814e-03
         - -3.1435459624379034e-03
         - -4.2884996490425764e-02
         - -3.9474053647714263e-01
         - 1.2468200959785342e-01
         - -1.4851718042032580e-01
         - -6.8823742894304175e-04
         - 3.9253372341822537e-02
         - -7.0449920184643125e-03
         - -3.6973669425284334e-03
         - 1.6860933374834242e-01
         - -1.0549545645105700e-02
         - 5.0112161743749883e-02
         - 9.7910739352557313e-02
         - 2.9804920915487516e-03
         - 5.6656301504265990e-04
         - -5.3797389994147387e-03
         - 7.9943983821063269e-02
         - -7.3570380917756820e-02
         - 1.3303632843135293e-02
         - -1.0909337370498330e-01
         - -2.8439596199707571e-03
         - 5.7522223898390769e-02
         - 8.3763298702283738e-03
         - -2.8886425258493165e-02
         - 2.7029282704225787e-03
         - -3.3890647850600149e-02
         - 1.0350333439117891e-01
         - -1.2905225734432876e-01
         - 1.6958032140628324e-01
         - -7.2254808722717459e-02
         - -5.7029912137579143e-03
         - 2.1003911649951690e-01
         - -1.8097980452301218e-01
         - -1.0843513958164577e-01
         - 2.4111055785219042e-02
         - 5.6380188803204553e-03
         - 7.4519476244870606e-03
         - -6.5686098165821202e-02
         - -3.5243875490337090e-03
         - -1.1279244910355746e-01
         - 8.7783892514801981e-02
         - -4.4432117885285526e-02
         - 6.7237040039129836e-02
         - 1.7634329485835040e-01
         - -9.0646322996711534e-02
         - 1.5073391182447546e-01
         - -1.3963404705619825e-02
         - -1.0311392833710012e-02
         - 1.2643774491335785e-01
         - -4.9073815129325304e-03
         - -3.3251288137138091e-01
         - -3.3438045715817077e-01
         - 5.8823918566503389e-02
         - 7.2328980470388864e-03
         - -3.2462063550489750e-02
         - -7.4528442865140856e-05
         - 6.6291155369473777e-03
         - -1.0683693300892220e-02
         - 9.2817326426059041e-02
         - 2.6669811551582098e-02
         - 9.5466706564527613e-05
         - -1.0597249596152053e-01
         - 4.8929005780099837e-02
         - 5.9645765141224043e-02
         - 5.6377627474808178e-03
         - 2.8018102598621083e-02
         - 1.9154952048623719e-02
         - 2.5783704138552271e-01
         - -1.0680252317759871e-01
         - -3.1406343845793746e-03
         - -4.6814392929656785e-03
         - 6.2567857830922849e-02
         - 6.0289467309826107e-03
         - 4.6584417116774440e-02
         - 1.6221171866458665e-02
         - 1.4191067667002118e-02
         - 1.4584518108667028e-02
         - 4.8952092620239912e-03
         - -6.2767475430655140e-02
         - 1.2654577065884152e-02
         - -9.0532081659017799e-02
         - -3.7006811666311490e-01
         - 3.1842937849614741e-02
         - -1.7960907061192910e-01
         - 2.4960149185782723e-01
         - -5.0308739845198153e-02
         - 9.4985108366843179e-02
         - 1.7534288070414428e-01
         - 2.1466529119258059e-03
         - 2.7220208882247635e-02
         - 2.8320115733755015e-02
         - 1.5828530452972972e-01
         - -3.1228244975115664e-03
         - 4.3646848840508422e-02
         - 4.0680254339474968e-02
         - -1.6695774326261209e-02
         - -1.1987388777288615e-02
         - -3.3109961490129285e-02
         - -1.5704849321460856e-01
         - 4.1318392321457335e-02
         - 2.3010889943201229e-02
         - -1.1240805934070812e-01
         - 3.7566555179587527e-02
         - 1.3072440979088193e-01
         - -6.2724522807836358e-02
         - 1.0365669016238580e-01
         - 1.7251348484268458e-02
         - 1.8333975054255918e-02
         - 8.0759033384707982e-02
         - -2.0591730790940007e-02
         - 2.4572601495626480e-02
         - 2.3178209299044322e-02
         - -1.2944073699464459e-02
         - 4.2410678166130908e-03
         - -2.1551243559366263e-02
         - -3.8696910862137106e-02
         - 6.4283503555082706e-03
         - -3.5380929747971970e-03
         - 7.7934694364707093e-03
         - 7.6602327112035460e-03
         - 1.3739032202443385e-02
         - 1.9507874853118955e-03
         - -1.1650823415544083e-01
         - 2.7447473947550755e-03
         - 9.3971583645124507e-03
         - 2.4873264467339121e-02
         - 1.1441365382040396e-02
         - -1.5005841859318412e-02
         - -8.1676739527563852e-02
         - 2.9622425586712789e-03
         - 3.3641701640985677e-02
         - 4.0032021282979523e-02
         - -1.5612500963666534e-01
         - -1.3942789562850827e-01
         - -1.1049340712704575e-02
         - 6.9218429338454594e-03
         - 5.7811863453030845e-03
         - 2.6307208035021108e-03
         - -9.9638676949393677e-03
         - -1.4810624170840170e-02
         - -8.2769694704699678e-02
         - 8.8396537831266900e-02
         - -5.5519831090948817e-02
         - 1.2996930174274402e-02
         - -2.6908520733054820e-02
         - -9.2233779852608101e-03
         - 4.2307004694944211e-01
         - -6.3984405863362686e-03
         - 3.7618798071807742e-02
         - -1.2672643745711559e-03
         - -2.4021604668596205e-01
         - -3.0688611518048470e-01
         - 6.4819114150938231e-02
         - 9.8516254262894648e-03
         - -1.4431985827845752e-02
         - -2.6531309171516484e-02
         - -1.9688521630005333e-02
         - 2.1549573458310746e-02
         - 1.3149940652183142e-01
         - -2.0844322178920949e-01
         - -2.0025284440192540e-02
         - 2.0719145640334621e-01
         - -5.9153384045159164e-02
         - -1.1534827995566579e-01
         - 6.2303942545313178e-02
         - 9.1356189095664606e-02
         - 5.3640593189855409e-02
         - -8.8387116408857741e-03
         - 1.5953120191481465e-01
         - -3.5887191822118526e-03
         - 1.7918616393502604e-02
         - 1.7147946667820699e-01
         - 4.5822043306157139e-03
         - 1.7568009779279199e-02
         - 1.0277147172966743e-01
         - 8.5133717798478170e-02
         - -1.2177334192008888e-02
         - -1.3379903882462169e-03
         - -4.2582124728483869e-02
         - 5.1176057975424556e-03
         - -1.1895398967013353e-01
         - -3.5653973182583577e-03
         - -1.2278735038888851e-02
         - -1.0277520683763940e-01
         - 1.2050994896276841e-01
         - 4.7167732242346799e-02
         - 1.2289299367686238e-01
         - 6.2434819583733536e-02
         - 2.4546922003416110e-03
         - 4.0941197229424311e-02
         - 6.3969830999572388e-02
         - 2.3264491083585567e-01
         - -5.1169229367713596e-03
         - 6.6565743861675630e-02
         - 1.3927386143933062e-02
         - 7.7797442775516160e-02
         - -1.5388314477649195e-02
         - -1.7538991480528079e-04
         - -8.9552641187195151e-02
         - -4.7319850554212645e-02
         - 1.2780245462028418e-02
         - -1.0856269202667918e-01
         - 3.3833778918187715e-02
         - 1.2498018234353135e-01
         - -1.7406867579460206e-01
         - 5.8801282943837692e-02
         - -2.6481820537675279e-02
         - -2.5132549254430991e-02
         - 6.0720004188138395e-02
         - -2.0637779126442969e-02
         - -3.8533981362118101e-02
         - 5.2018877268770920e-02
         - -1.8182554869720820e-02
         - 1.1295090985727702e-02
         - -2.0691973351849503e-02
         - 9.3038579013829895e-03
         - 1.5644026206692127e-02
         - -3.5762466444666623e-02
         - 9.9059636969526139e-03
         - 1.1712947981775246e-02
         - -2.6031501344851174e-02
         - 3.6873785940723901e-03
         - -8.9392263725457430e-02
         - -8.6498094442217892e-04
         - 1.1244000154874319e-02
         - -1.1994000271782865e-01
         - 4.6505029084862037e-03
         - -4.5430134549437062e-02
         - -4.9983366652864666e-02
         - 7.6863352447743534e-03
         - -5.8813423129789558e-02
         - -6.0752129220940101e-02
         - -1.5583688465928244e-01
         - 1.8706420494476655e-02
         - 1.9230261675484139e-02
         - 4.8169883282922051e-02
         - 6.3589138574242721e-03
         - 7.0945665245716960e-03
         - -3.0356110877245011e-02
         - 3.4882755931722534e-02
         - 5.1397437019478666e-02
         - -2.8960346330484665e-02
         - -2.0600089150989681e-02
         - 5.6817869991994494e-02
         - -9.3490254557266159e-02
         - -1.8274066151775965e-02
         - 2.7908393579936958e-01
         - -1.0268313443734238e-02
         - -1.2607991580495557e-02
         - 2.6993354458850177e-02
         - -1.3680091424139568e-01
         - -8.9991792435747550e-02
         - -7.9429806206863351e-02
         - 6.3772924904981088e-03
         - 3.9205955715548767e-02
         - -5.1441667744909957e-02
         - 7.9386781981190896e-02
         - -4.3810243491023294e-03
         - -2.9497430103996400e-02
         - -6.4532615167399554e-02
         - 8.2344397250380633e-02
         - 1.1796409525612399e-01
         - -1.3459629392563652e-01
         - -7.9826749272605704e-02
         - -2.0643826672257896e-02
         - -5.3288425179084647e-03
         - 5.5802663331528730e-02
         - -1.5936018552862249e-02
         - 1.1393949934778648e-01
         - 1.8717903569688825e-02
         - 7.1959830524507301e-02
         - 9.3085959493645093e-02
         - 1.5444376826104460e-02
         - 1.5521232818750513e-02
         - 8.7103361360773263e-02
         - 9.4252253025343777e-02
         - 2.4768753571478151e-03
         - 1.6194457378294592e-03
         - -5.3704358148973154e-02
         - 1.0070434080763635e-02
         - -1.0181204639406150e-01
         - -3.2094708401628121e-04
         - -1.1023988915392888e-01
         - -6.3654644420341397e-02
         - 6.8161483440059359e-02
         - -6.4191669471402799e-02
         - 1.0592793015062123e-01
         - 4.0530372855976590e-02
         - -2.0602610217764182e-02
         - -1.3983934986737584e-02
         - 5.0539994649238619e-02
         - -1.7941159197389878e-01
         - -1.0795751938644575e-01
         - -5.9351866827606861e-02
         - 3.6276960032272690e-04
         - -8.3428419431288373e-03
         - 3.5620994786624074e-02
         - 6.8025896624842694e-02
         - -1.6376031923203527e-02
         - -4.3256688443454264e-03
         - 3.9285934117792964e-02
         - -2.7235374446847139e-02
         - -4.5078773679330143e-02
         - 9.0492684618221735e-03
         - -2.8342386926206642e-01
         - 4.7263291580180333e-02
         - 1.7312478887076592e-02
         - 4.4928238033098887e-02
         - -1.3399859855952242e-01
         - 1.5734076380710033e-01
         - -4.6767270429871069e-02
         - 3.1370033871295389e-02
         - 5.3392529615132328e-02
         - -2.3947625391586423e-02
         - 2.4790543911095378e-02
         - -4.7793354836001237e-02
         - 1.0436094846040121e-01
         - -1.2084105380747651e-01
         - 1.1383326580854834e-02
         - -6.8450373543398529e-02
         - 5.7048706924426205e-03
         - 7.0220538806123486e-02
         - 1.4564564589140966e-01
         - -6.0174020608743314e-02
         - 4.4084996567140038e-02
         - -5.8347150172116113e-02
         - 1.4894175190629702e-01
         - -8.0981360887497592e-02
         - 3.4912376188962257e-02
         - -3.3357481309871193e-02
         - -2.8393860310888933e-02
         - -3.8615018726697710e-02
         - -2.8356910703076127e-01
         - -6.7879344840157318e-03
         - -1.0293574761251116e-02
         - 7.0584085742887034e-02
         - -6.6863775330412894e-03
         - 5.0423029395027345e-03
         - 1.8087676723981760e-02
         - -8.8774661223340101e-02
         - 1.3091651728468881e-01
         - -1.1064870651756031e-01
         - 1.6580955850050710e-01
         - 1.3367074213571856e-01
         - -1.2815748314425579e-01
         - 8.5321216185381021e-02
         - -7.1606058895939510e-03
         - -2.5379981066785715e-02
         - 1.0320677322401888e-02
         - 2.2984730540296055e-03
         - 4.8898003242268333e-02
         - -4.5513860393786576e-02
         - 3.9668756077483089e-02
         - -1.9640200679393201e-02
         - 1.1501963281687538e-01
         - -1.7584690754052590e-01
         - 1.7720178212349773e-02
         - -3.1281112150615312e-02
         - 7.6425392061965228e-03
         - 1.7092647191023194e-01
         - 2.0138453590299400e-02
         - -7.0703999488422459e-02
         - -1.8189235830156109e-01
         - 2.5769243861198825e-02
         - -1.0131799392151048e-02
         - 5.4441937932237172e-02
         - -2.9968789520387926e-02
         - 7.8167335011787964e-02
         - -7.3540958678731588e-02
         - -1.3049344628970871e-02
         - -4.9815166158521634e-02
         - 2.8397576730131414e-03
         - -3.0553343824645703e-02
         - 6.0280094683696397e-02
         - 7.9495328087477432e-02
         - 9.5213352187470360e-02
         - 3.4099715813427717e-02
         - -2.1799098097941911e-02
         - -5.1637044261374576e-03
         - 7.1229642320054165e-03
         - -1.1941633756149648e-02
         - -1.3620603496653494e-01
         - -1.8033208552341423e-01
         - -5.5245159173236767e-02
         - -6.6691370370821304e-02
         - -1.5970112889982466e-01
         - 6.8703696180942464e-02
         - 5.6131987581978841e-02
         - -8.9564328314648042e-02
         - -6.6736268058102566e-02
         - 4.2400607764880985e-02
         - -1.4167727431229751e-01
         - -1.5162297448632395e-01
         - 2.3882985739288556e-02
         - -9.3264940260082738e-02
         - 5.1353308028734409e-03
         - 4.1996432732702357e-02
         - 8.5200422828264108e-02
         - 3.9826938257332377e-02
         - 3.8248144421256625e-02
         - 6.9407991498144240e-03
         - -1.2426647980395696e-01
         - -2.6951294266960055e-02
         - -1.0683489931031560e-02
         - -2.6206109538904770e-01
         - 1.2126065883764048e-01
         - -2.5178982892981986e-02
         - -1.9717607778187020e-02
         - -1.1828739437539382e-01
         - 1.6928191681269414e-01
         - -3.3596944130606182e-02
         - 6.6016376042251704e-02
         - 5.2654788686640086e-02
         - -9.1583079295613212e-02
         - -3.4885872321786904e-03
         - -2.3014957807597366e-03
         - 1.2479285855356344e-01
         - -1.1149172196193782e-01
         - 8.3352898779010060e-02
         - -6.9284072102432842e-02
         - 2.7823668991988081e-02
         - 6.1884188060038203e-02
         - 1.0595283311993935e-01
         - -9.2051169654622497e-02
         - 9.6809694754537406e-02
         - -1.3083888591186964e-02
         - 1.3494757665678675e-01
         - -1.0098945389708644e-01
         - 7.0191458594139833e-02
         - -1.3452017070569133e-01
         - 3.9848379070814037e-03
         - -1.2447826502244645e-01
         - -3.1143308787194968e-01
         - 7.8174067107250972e-02
         - 1.5963401839241807e-02
         - 1.1208453972675288e-01
         - -3.6058082562763619e-02
         - 5.5262215070216759e-02
         - -1.4117684419503526e-01
         - -1.1467830539734523e-01
         - 1.5666764496248381e-01
         - -1.2951103456891155e-01
         - 2.0110573205055832e-01
         - 1.8884296536563031e-01
         - -1.0435447381092555e-01
         - 1.2963357344417847e-01
         - -1.4409455885062214e-01
         - -8.6714780070332495e-02
         - -3.2529238706882828e-03
         - -4.4499033092528867e-02
         - 6.7161838941113952e-02
         - 2.5714115454102224e-02
         - 2.8935790787939033e-02
         - -4.8356364245430869e-02
         - 2.0425168532377708e-02
         - -2.2131225593916068e-01
         - -1.9105518631485068e-03
         - -1.0453703449480306e-01
         - -5.6388590658361305e-02
         - 1.7599950797061456e-01
         - 7.4647726838389217e-02
         - -1.3136783023693527e-01
         - -2.0369720440853820e-01
         - 9.7005753259277711e-02
         - -3.9698880529128927e-02
         - 5.3595534476753197e-04
         - -1.8122343770969350e-02
         - 9.0880521171838355e-02
         - -1.9423686598930723e-01
         - -5.8005079389445630e-02
         - -1.7531946311676592e-03
         - -2.6491195763780596e-02
         - -8.2974449467826006e-02
         - -1.9454760558704317e-02
         - 1.1183690749338548e-01
         - 1.0971657875281680e-01
         - 8.4094437550604820e-02
         - -1.0591672321968712e-02
         - -8.0621355840798825e-02
         - 4.4086967195129556e-02
         - -2.7590366543465760e-02
         - -1.7218208913281291e-01
         - -1.6947393366858504e-01
         - -7.2935056501309634e-03
         - -4.3336991453690424e-02
         - -1.8995102688999069e-01
         - 3.2765467821759903e-02
         - 1.1157591084913250e-01
         - -5.8754927024078099e-02
         - -6.0767135285671486e-02
         - 4.4266473418072057e-02
         - -1.7436127491309764e-01
         - -1.5755876384682727e-01
         - -7.2357388370438397e-02
         - -8.1429670442344865e-02
         - -5.7157274199583899e-02
         - 8.6918679005208305e-03
         - 9.0010129346233841e-02
         - 2.1128990061974295e-01
         - 1.8172080401235619e-01
         - 1.0927311614063152e-01
         - -1.5331246095004103e-01
         - -3.0148394978090333e-02
         - -4.8960828007357307e-02
         - -2.3829144749738748e-01
         - 1.0520038940911983e-01
         - -8.0854024463975716e-02
         - 4.1597163139487593e-03
         - -1.7780879290966226e-01
         - 1.2443701741619226e-01
         - -5.4718496635485413e-02
         - 5.0711822204445728e-02
         - -2.2760579608616015e-02
         - -4.2004724041300769e-02
         - -5.8023950644100562e-02
         - 3.5811076196815499e-02
         - 1.4641387601841357e-01
         - -2.5897825089585996e-01
         - 1.4677689098800384e-01
         - -3.6036860480861480e-02
         - -3.7679824613147568e-02
         - 7.8967689317038334e-02
         - 1.5141639427109865e-01
         - -6.7905360778343665e-02
         - 1.1643671089659850e-01
         - 1.4277265488631613e-02
         - 2.6109257353390286e-01
         - -1.2780822890982502e-01
         - 7.5302249737946095e-02
         - -1.8415718250320670e-01
         - 9.3046565075249506e-03
         - -3.5342885813660518e-02
         - -3.0587129886472703e-01
         - 6.2587124719805168e-02
         - -7.2275586391253501e-03
         - 1.2427403583307770e-01
         - -4.7691936362432644e-03
         - 3.6498507126127202e-03
         - -2.0172508722653826e-01
         - -1.3328892370397247e-01
         - 1.6629612771376262e-01
         - -1.9090073967065649e-01
         - 2.4118018908337505e-01
         - 2.6126929532580484e-01
         - -1.9586937122140205e-01
         - 7.2073687033680847e-02
         - -8.2433822396729403e-02
         - -5.4617317105903049e-02
         - -1.8380226647473394e-02
         - -7.9739271066515849e-02
         - 1.3561188811822814e-01
         - 9.0884967847800549e-02
         - -4.8261044783817951e-02
         - -6.7999088328421803e-02
         - 2.4050023155940320e-02
         - -1.3727382097148175e-01
         - -2.0554294173466942e-01
         - -1.0011611439683668e-01
         - 9.9240733860136709e-03
         - 3.1373995270846983e-01
         - -4.9659510347649191e-02
         - -1.9069968208427360e-01
         - -2.1896874915610479e-01
         - 7.3775825624930153e-02
         - -3.2016030574627402e-02
         - 8.0742622054278887e-03
         - 3.0090763947633818e-02
         - -1.2768971660703862e-02
         - -1.6136708730140706e-01
         - -7.8927302199233523e-02
         - -6.0907389012105594e-03
         - 6.6876664425842947e-02
         - -1.4082967737579211e-01
         - -5.4490080560802186e-02
         - 9.7515483200058178e-02
         - 1.4710212682618509e-01
         - 1.1313000355376400e-01
         - -2.2761241479067353e-02
         - 1.7786942724838096e-02
         - 1.0613789333829157e-01
         - 3.3044774383188508e-02
         - -2.4971576329529482e-01
         - -2.4015836876592131e-01
         - -6.6365788474085988e-02
         - -8.2144147297721917e-02
         - -1.8672955670777228e-01
         - -4.1493749075762802e-02
         - 4.5742954356573315e-02
         - -1.4224177777136263e-01
         - -4.1539929270425269e-02
         - -1.8840372840801877e-02
         - -2.9687574833862414e-02
         - -1.4000559880049152e-01
         - 1.0976289512234223e-01
         - -2.7150147611212577e-01
         - 1.5089680353110233e-02
         - 1.2176694955418145e-01
         - 2.5115335600860217e-03
         - 1.4178121300896002e-01
         - 3.0191875318837730e-01
         - 1.5702774774317302e-01
         - -1.9087238423531044e-01
         - -1.9585364582609946e-01
         - -8.2579258098458896e-02
         - -1.0639657256204078e-01
         - 2.1047456626211236e-01
         - -4.4338610079438859e-02
         - 2.8379443277374905e-02
         - -6.0264148098513395e-02
         - 3.3003685980624350e-02
         - 3.0270727494605139e-02
         - 5.0762940386617633e-02
         - 5.0292985511859498e-02
         - -1.7856424548508645e-01
         - -8.0828446351799893e-02
         - -9.6792575484966975e-02
         - -5.3036689939264463e-02
         - -1.2099092566770431e-01
         - 1.4767218925020031e-01
         - -1.2005087307855167e-01
         - -1.0571977641946533e-01
         - 3.1527005297545478e-02
         - 1.1423035750567687e-01
         - -3.3618907103115381e-02
         - 1.4383363958431655e-01
         - 1.2313673172582806e-01
         - 1.1511300899002373e-01
         - -2.0140486103656347e-01
         - 3.5060686862605391e-02
         - -1.6786479570680213e-01
         - 2.2643753848530627e-02
         - 9.7163280394285581e-02
         - -1.0928872007107321e-01
         - 1.5860309293985644e-02
         - -1.6354647830591311e-02
         - 4.7184473161740556e-02
         - -1.2556979732041273e-01
         - -5.9000253905525414e-02
         - -2.1308020668901631e-01
         - -1.7537424193305663e-02
         - 3.5020379489498030e-02
         - -4.6398548007400738e-02
         - 1.0735476773493879e-01
         - 1.1858522638231984e-01
         - 9.5522831035452173e-04
         - 1.2656357803083884e-01
         - -6.1366949102938911e-02
         - 1.3842402383473631e-02
         - -8.7858325060915898e-02
         - -8.4149349956802039e-02
         - 9.4462048696947937e-02
         - 1.4345786252483249e-02
         - 3.0631714237077071e-02
         - -1.2137869300756091e-01
         - -1.1194183936178814e-01
         - -1.0395226593916132e-01
         - -3.3857589812744099e-01
         - -4.6495368319440435e-02
         - 3.2454111154418194e-02
         - 1.7947180719064681e-01
         - -2.0211136079469791e-01
         - -9.0029624423582130e-02
         - -1.1375670612412739e-01
         - -3.1864314541773180e-02
         - -1.2494425651466556e-01
         - 1.5433772323280598e-01
         - 9.7089418109127204e-02
         - 1.9637029083481927e-02
         - -4.2332574214047868e-02
         - -1.3421175078169434e-01
         - 1.9935220239534987e-01
         - 7.1123212503320668e-02
         - -1.0567653852002945e-01
         - -7.3653503946176063e-02
         - 2.1542616788975588e-01
         - 2.0800153908397290e-02
         - 4.6783726388817733e-02
         - -1.2754380354798825e-01
         - 1.3334623136608095e-01
         - 5.4807336616646711e-02
         - 7.2491931757854289e-02
         - -1.5585552891179497e-01
         - -1.9844943501667225e-01
         - -4.6571255215112996e-02
         - -3.5987395697091862e-02
         - -1.3150586082941654e-01
         - -2.2114652948616219e-02
         - 5.5110172385353214e-02
         - -1.4393899417755496e-01
         - -6.5431019076434963e-02
         - -6.2775465328424304e-02
         - 1.9496145020412130e-02
         - -1.7993993666764518e-01
         - 9.3795766741471151e-02
         - -2.1011216524648260e-01
         - 9.1617736045726660e-03
         - 1.0861458361365783e-01
         - 2.8841140930744497e-02
         - 2.7340487989032564e-02
         - 2.5986698481263443e-01
         - 1.1069838330193840e-01
         - -1.7825670706596736e-01
         - -1.7550969688654552e-01
         - -1.5568481998377098e-01
         - -4.9782892898883088e-02
         - 1.8793449101044765e-01
         - -7.7151675508989062e-02
         - 2.8173257423187201e-02
         - -7.8209710793865614e-02
         - -2.9338019341544921e-02
         - 7.1448867209770617e-02
         - 2.7583852326303109e-02
         - 5.0464967105973757e-02
         - -1.3421827560001995e-01
         - -1.0395172413098609e-01
         - -4.0593354684874489e-02
         - -5.4588146567388508e-02
         - -6.2989249035399389e-02
         - 1.7410099891352190e-01
         - -1.1355324867938707e-01
         - -7.7751519321610910e-02
         - 3.1645224467419970e-02
         - 3.2525242610088649e-02
         - -2.5576073763806752e-02
         - 7.8871157921214102e-02
         - 9.4299045951565130e-02
         - 7.3853763868341263e-02
         - -1.8501591544974258e-01
         - -7.2662150074228937e-02
         - -1.4224626133220075e-01
         - 8.8875024130392485e-02
         - 1.3652762024460913e-01
         - -7.6472800823359999e-02
         - -1.5098996696549814e-02
         - -1.8619489497665086e-02
         - -1.1965545683346563e-02
         - -6.9629804365350684e-02
         - -4.8977425800512751e-02
         - -1.4629048916423254e-01
         - 8.9780530301228137e-03
         - 1.8038354801360883e-02
         - 1.3259545967380177e-02
         - 5.0678425340381889e-02
         - 2.9081636457679052e-02
         - 3.5538137047792503e-02
         - 1.1702234387237848e-01
         - -8.8489935021939720e-02
         - -9.1367163871941080e-03
         - -7.5035876710715474e-02
         - -5.9230368222059356e-02
         - 8.3667571089853815e-02
         - -1.1415354542833116e-02
         - 3.5695583550403504e-02
         - -7.8101215432768128e-02
         - -7.7703456713915403e-02
         - -2.5552256290664616e-02
         - -2.8068715567728236e-01
         - -4.3156024797857094e-02
         - 4.0188838608862652e-02
         - 1.0255616753703481e-01
         - -9.4721123698713369e-02
         - -4.6858390504063284e-02
         - -7.0578005947644643e-02
         - -1.0150301020672757e-01
         - -1.2281047403947715e-01
         - 6.5331526446172156e-02
         - 1.3574166869719012e-01
         - 1.8008267125795230e-02
         - -4.6839365831839515e-02
         - -1.4340013955100028e-01
         - 1.5000921278621721e-01
         - 1.0285284960234749e-01
         - -8.3612039077511566e-02
         - -6.3712943113903367e-02
         - 2.0966611591340856e-01
         - -2.5902640452758099e-02
         - 6.0077902475556597e-02
         - -1.0236495613939504e-01
         - 1.5916303888950667e-01
         - 9.9112082268548785e-02
         - 1.9427566255066954e-02
         - -1.8084970040332096e-01
         - -1.4353381221328512e-01
         - -8.2662590679368791e-02
         - -4.1605612960387936e-02
         - -1.0978560493944831e-01
         - -3.8909595989482090e-03
         - 2.7073307014820591e-02
         - -1.2962129349004978e-01
         - -6.9472321657219144e-02
         - -1.1053762124909844e-01
         - 1.3869049975681230e-01
         - -1.5530681490809520e-01
         - 8.3422099839800715e-02
         - -1.9270739686596289e-01
         - -3.3587592259884794e-02
         - 9.0391410436303443e-02
         - 5.1245556078214530e-02
         - 4.3492430016331594e-02
         - 3.1337409235017677e-01
         - 9.0128284954847412e-02
         - -1.6418330273298498e-01
         - -1.2022814912069382e-01
         - -1.5282556481800497e-01
         - 8.3121683189941620e-02
         - 2.1487114608012506e-01
         - -8.2511866040388820e-02
         - 4.2614814130584336e-02
         - -5.9012742575230072e-02
         - -4.8506327503681938e-02
         - 1.2882555330643189e-01
         - -5.7178888915615809e-02
