%YAML:1.0
---
opencv_ml_svm:
   format: 3
   svmType: C_SVC
   kernel:
      type: INTER
      gamma: 5.3830000000000000e+00
   C: 2.6699999999999999e+00
   term_criteria: { epsilon:1.1920928955078125e-07, iterations:1000 }
   var_count: 64
   class_count: 13
   class_labels: !!opencv-matrix
      rows: 13
      cols: 1
      dt: i
      data: [ 0, 1, 2, 3, 4, 5, 6, 7, 8, 9, 10, 11, 12 ]
   sv_total: 663
   support_vectors:
      - [ 2.15374277e+04, 1.35771904e+04, 1.14039465e+03, 4.83828467e+03,
          6120., 0., 0., 0., 1.80982852e+04, 6.72532520e+03,
          1.14039465e+03, 1.61276160e+03, 4590., 0., 0., 0., 16320., 0.,
          0., 0., 4.45914258e+03, 3.42118408e+03, 7.02742871e+03,
          2.41914233e+03, 18360., 0., 0., 0., 8.53914258e+03,
          3.42118408e+03, 1.59165010e+04, 5.64466553e+03, 12240., 0., 0.,
          0., 9.34552344e+03, 1.14039465e+03, 1.36942324e+04,
          7.25742725e+03, 14280., 0., 0., 0., 6.49914258e+03,
          2.28078931e+03, 8.16782324e+03, 4.03190405e+03, 2.07791426e+04,
          7.02742871e+03, 3.42118408e+03, 2.41914233e+03, 4.08000024e+03,
          0., 0., 0., 2.64719043e+04, 1.21932139e+04, 1.14039465e+03,
          8.06380798e+02, 10200., 0., 0., 0. ]
      - [ 2.35774277e+04, 1.39378145e+04, 0., 2.41914233e+03, 9180., 0.,
          0., 0., 1.83119043e+04, 8.16782324e+03, 2.28078931e+03,
          2.41914233e+03, 2040., 0., 0., 0., 13260., 7.21248901e+02, 0.,
          0., 4.45914258e+03, 3.42118408e+03, 7.02742871e+03,
          2.41914233e+03, 16320., 0., 0., 0., 9.47638086e+03,
          1.14039465e+03, 1.69398535e+04, 7.25742725e+03, 14280., 0., 0.,
          0., 8.96638086e+03, 0., 1.62186035e+04, 5.64466553e+03, 16320.,
          0., 0., 0., 6.49914258e+03, 2.28078931e+03, 8.16782324e+03,
          4.03190405e+03, 1.87391426e+04, 7.02742871e+03, 3.42118408e+03,
          2.41914233e+03, 4080., 0., 0., 0., 2.44319043e+04,
          1.21932139e+04, 1.14039465e+03, 8.06380798e+02, 10200., 0., 0.,
          0. ]
      - [ 1.78846660e+04, 1.64621855e+04, 1.14039465e+03, 3.22552319e+03,
          6120., 0., 0., 0., 1.42319043e+04, 8.16782324e+03,
          2.28078931e+03, 2.41914233e+03, 2040., 0., 0., 0., 19380., 0.,
          0., 0., 4.45914258e+03, 3.42118408e+03, 7.02742871e+03,
          2.41914233e+03, 20400., 0., 0., 0., 7.30552344e+03,
          2.28078931e+03, 1.15304863e+04, 8.87018848e+03, 10200., 0., 0.,
          0., 9.34552344e+03, 2.28078931e+03, 1.25538379e+04,
          5.64466553e+03, 14280., 0., 0., 0., 6.49914258e+03,
          2.28078931e+03, 8.16782324e+03, 4.03190405e+03, 2.23919043e+04,
          8.16782324e+03, 2.28078931e+03, 2.41914233e+03, 4080., 0., 0.,
          0., 2.95319043e+04, 1.18325889e+04, 1.14039465e+03, 0., 5100.,
          0., 0., 0. ]
      - [ 2.50246660e+04, 1.76025801e+04, 1.14039465e+03, 1.61276160e+03,
          4080., 0., 0., 0., 2.23919043e+04, 7.44657422e+03, 0.,
          8.06380798e+02, 6120., 0., 0., 0., 12240., 0., 0., 0.,
          5.69276172e+03, 2.28078931e+03, 6.66680420e+03, 2.41914233e+03,
          14280., 0., 0., 0., 1.01519043e+04, 2.28078931e+03,
          1.40548574e+04, 7.25742725e+03, 16320., 0., 0., 0.,
          4.67276172e+03, 3.42118408e+03, 1.54388340e+04, 4.03190405e+03,
          21420., 0., 0., 0., 6.49914258e+03, 2.28078931e+03,
          8.16782324e+03, 4.03190405e+03, 1.62719043e+04, 7.80719873e+03,
          1.14039465e+03, 1.61276160e+03, 6120., 0., 0., 0.,
          2.03519043e+04, 1.29144629e+04, 3.42118408e+03, 2.41914233e+03,
          6120., 0., 0., 0. ]
      - [ 2.91046660e+04, 1.03315703e+04, 0., 2.41914233e+03, 0., 0., 0.,
          0., 2.64719043e+04, 8.16782324e+03, 2.28078931e+03,
          2.41914233e+03, 3570., 0., 1.08187329e+03, 2.41914233e+03,
          9180., 0., 0., 0., 4.45914258e+03, 3.42118408e+03,
          7.02742871e+03, 2.41914233e+03, 8160., 0., 0., 0.,
          9.04914258e+03, 2.28078931e+03, 1.15304863e+04, 6.45104639e+03,
          2.12063809e+04, 1.50101904e+03, 0., 0., 8.06380798e+02,
          1.14039465e+03, 9.30821777e+03, 4.03190405e+03, 28560., 0., 0.,
          0., 6.49914258e+03, 2.28078931e+03, 8.16782324e+03,
          4.03190405e+03, 1.18127617e+04, 5.52640918e+03, 3.42118408e+03,
          2.41914233e+03, 4080., 0., 0., 0., 1.62719043e+04,
          1.00294668e+04, 3.42118408e+03, 2.41914233e+03, 8.16000049e+03,
          0., 0., 0. ]
      - [ 2.44319043e+04, 1.27974199e+04, 3.42118408e+03, 4.03190405e+03,
          6120., 0., 0., 0., 2.23919043e+04, 7.32953174e+03, 0.,
          2.41914233e+03, 6120., 0., 0., 0., 18360., 0., 0., 0.,
          6.49914258e+03, 1.14039465e+03, 9.19117578e+03, 4.03190405e+03,
          16320., 0., 0., 0., 1.05791426e+04, 1.14039465e+03,
          1.49611670e+04, 4.03190405e+03, 18360., 0., 0., 0.,
          1.17646660e+04, 2.28078931e+03, 1.09357764e+04, 5.64466553e+03,
          20400., 0., 0., 0., 8.53914258e+03, 0., 7.32953174e+03,
          4.03190405e+03, 2.07791426e+04, 8.05078076e+03, 2.28078931e+03,
          2.41914233e+03, 4080., 0., 0., 0., 2.60446660e+04,
          1.02145273e+04, 0., 4.03190405e+03, 10200., 0., 0., 0. ]
      - [ 2.70646660e+04, 1.25538379e+04, 3.42118408e+03, 3.22552319e+03,
          4080., 1.14039465e+03, 3.60624451e+02, 0., 2.29019043e+04,
          9.19117578e+03, 1.14039465e+03, 2.41914233e+03, 4080., 0., 0.,
          0., 16320., 0., 0., 0., 6.49914258e+03, 1.14039465e+03,
          9.19117578e+03, 4.03190405e+03, 14280., 0., 0., 0.,
          1.11719043e+04, 3.42118408e+03, 1.06336729e+04, 5.64466553e+03,
          20400., 0., 0., 0., 1.13855234e+04, 2.28078931e+03,
          1.21932139e+04, 5.64466553e+03, 20910., 0., 0., 0.,
          6.49914258e+03, 2.28078931e+03, 8.05078076e+03, 2.41914233e+03,
          1.87391426e+04, 8.05078076e+03, 2.28078931e+03, 2.41914233e+03,
          4080., 0., 0., 0., 2.23919043e+04, 1.20761709e+04,
          1.14039465e+03, 2.41914233e+03, 10200., 0., 0., 0. ]
      - [ 2.23919043e+04, 1.27974199e+04, 3.42118408e+03, 4.03190405e+03,
          6120., 0., 0., 0., 2.03519043e+04, 7.32953174e+03, 0.,
          2.41914233e+03, 6120., 0., 0., 0., 20400., 0., 0., 0.,
          6.49914258e+03, 1.14039465e+03, 8.83055078e+03, 4.03190405e+03,
          18360., 0., 0., 0., 1.21919043e+04, 1.14039465e+03,
          1.17155469e+04, 5.64466553e+03, 16320., 0., 0., 0.,
          1.21919043e+04, 2.28078931e+03, 1.10528193e+04, 5.64466553e+03,
          18360., 0., 0., 0., 8.53914258e+03, 0., 7.32953174e+03,
          4.03190405e+03, 2.44319043e+04, 7.32953174e+03, 0.,
          2.41914233e+03, 6120., 0., 0., 0., 2.60446660e+04,
          1.32165654e+04, 0., 2.41914233e+03, 10200., 0., 0., 0. ]
      - [ 1.83119043e+04, 1.57994580e+04, 3.42118408e+03, 2.41914233e+03,
          8160., 0., 0., 0., 2.07791426e+04, 9.07413281e+03,
          1.14039465e+03, 2.41914233e+03, 4080., 0., 1.50101904e+03,
          8.06380798e+02, 12240., 0., 0., 0., 6.07190381e+03,
          2.28078931e+03, 8.05078076e+03, 4.03190405e+03, 12240., 0., 0.,
          0., 8.53914258e+03, 3.42118408e+03, 1.73004766e+04,
          4.83828467e+03, 12240., 0., 0., 0., 8.11190430e+03,
          4.56157861e+03, 1.18911104e+04, 5.64466553e+03, 16320., 0., 0.,
          0., 4.45914258e+03, 0., 1.32165654e+04, 5.64466553e+03,
          1.62719043e+04, 8.05078076e+03, 2.28078931e+03, 4.03190405e+03,
          2040., 0., 0., 0., 1.99246660e+04, 1.18911104e+04,
          4.56157861e+03, 4.03190405e+03, 4080., 0., 0., 0. ]
      - [ 1.99246660e+04, 1.55558760e+04, 2.28078931e+03, 1.61276160e+03,
          10200., 0., 0., 0., 2.23919043e+04, 1.02145273e+04, 0.,
          2.41914233e+03, 4.88638086e+03, 0., 1.44249780e+03,
          8.06380798e+02, 14280., 0., 0., 0., 6.49914258e+03,
          1.14039465e+03, 9.07413281e+03, 2.41914233e+03, 12240., 0., 0.,
          0., 1.13855234e+04, 3.42118408e+03, 1.14719648e+04,
          4.83828467e+03, 14280., 3.60624451e+02, 1.14039465e+03,
          8.06380798e+02, 4.03190405e+03, 5.70197314e+03, 1.37527539e+04,
          5.64466553e+03, 16320., 0., 0., 0., 4.45914258e+03, 0.,
          1.32165654e+04, 5.64466553e+03, 1.46591426e+04, 9.07413281e+03,
          1.14039465e+03, 2.41914233e+03, 4080., 0., 0., 0.,
          1.83119043e+04, 1.29144629e+04, 3.42118408e+03, 2.41914233e+03,
          6120., 0., 0., 0. ]
      - [ 1.62719043e+04, 1.00294668e+04, 3.42118408e+03, 2.41914233e+03,
          8160., 0., 0., 0., 1.42319043e+04, 6.91038623e+03,
          1.14039465e+03, 2.41914233e+03, 5100., 0., 0., 0.,
          2.15855234e+04, 7.21248901e+02, 0., 1.61276160e+03,
          7.51914258e+03, 1.14039465e+03, 9.07413281e+03, 2.41914233e+03,
          22440., 0., 0., 0., 4.45914258e+03, 0., 1.11698613e+04,
          8.87018848e+03, 8160., 0., 0., 0., 8.11190430e+03,
          4.56157861e+03, 1.03900908e+04, 4.83828467e+03, 10200., 0., 0.,
          0., 2.84638086e+03, 0., 1.03315703e+04, 4.03190405e+03,
          2.07791426e+04, 9.07413281e+03, 1.14039465e+03, 2.41914233e+03,
          4080., 0., 1.50101904e+03, 8.06380798e+02, 2.85119043e+04,
          1.10528193e+04, 2.28078931e+03, 2.41914233e+03, 1.61276160e+03,
          0., 2.88499561e+03, 1.61276160e+03 ]
      - [ 2.19646660e+04, 1.10528193e+04, 2.28078931e+03, 4.03190405e+03,
          10200., 0., 0., 0., 2.44319043e+04, 1.02145273e+04, 0.,
          2.41914233e+03, 5.69276172e+03, 0., 2.88499561e+03,
          1.61276160e+03, 14280., 0., 0., 0., 8.53914258e+03, 0.,
          7.32953174e+03, 4.03190405e+03, 10200., 0., 0., 0.,
          1.05791426e+04, 3.42118408e+03, 1.00294668e+04, 4.03190405e+03,
          16320., 0., 0., 0., 8.53914258e+03, 3.42118408e+03,
          1.29144629e+04, 4.03190405e+03, 20400., 0., 0., 0.,
          2.41914233e+03, 1.14039465e+03, 1.49611670e+04, 4.03190405e+03,
          1.26191426e+04, 9.07413281e+03, 1.14039465e+03, 2.41914233e+03,
          4080., 0., 0., 0., 1.78846660e+04, 1.11698613e+04,
          2.28078931e+03, 2.41914233e+03, 8.16000049e+03, 0., 0., 0. ]
      - [ 2.13719043e+04, 1.24367959e+04, 3.42118408e+03, 3.22552319e+03,
          6120., 0., 0., 0., 2.64719043e+04, 7.32953174e+03, 0.,
          2.41914233e+03, 6120., 0., 5.88703418e+03, 1.61276160e+03,
          14280., 0., 0., 0., 6.49914258e+03, 1.14039465e+03,
          9.07413281e+03, 2.41914233e+03, 10200., 0., 0., 0.,
          1.05791426e+04, 3.42118408e+03, 1.00294668e+04, 4.03190405e+03,
          16320., 0., 0., 0., 6.28552344e+03, 4.56157861e+03,
          1.15304863e+04, 5.64466553e+03, 21420., 0., 0., 0.,
          4.45914258e+03, 0., 1.32165654e+04, 5.64466553e+03,
          1.26191426e+04, 9.07413281e+03, 1.14039465e+03, 2.41914233e+03,
          4080., 0., 0., 0., 1.62719043e+04, 1.17740674e+04,
          4.56157861e+03, 4.03190405e+03, 4080., 0., 0., 0. ]
      - [ 2.03519043e+04, 1.27974199e+04, 3.42118408e+03, 4.03190405e+03,
          8160., 0., 0., 0., 2.03519043e+04, 7.21248926e+03, 0.,
          4.03190405e+03, 4080., 0., 0., 0., 14280., 0., 0., 0.,
          6.49914258e+03, 1.14039465e+03, 9.19117578e+03, 4.03190405e+03,
          14280., 0., 0., 0., 1.05791426e+04, 3.42118408e+03,
          1.59165010e+04, 5.64466553e+03, 10200., 0., 0., 0.,
          8.11190430e+03, 4.56157861e+03, 1.18911104e+04, 5.64466553e+03,
          14280., 0., 0., 0., 4.45914258e+03, 0., 1.32165654e+04,
          5.64466553e+03, 1.87391426e+04, 9.07413281e+03, 1.14039465e+03,
          2.41914233e+03, 4080., 0., 0., 0., 2.23919043e+04,
          1.17740674e+04, 4.56157861e+03, 4.03190405e+03, 4080., 0., 0.,
          0. ]
      - [ 1.83119043e+04, 8.52844727e+03, 3.42118408e+03, 3.22552319e+03,
          8160., 0., 0., 0., 1.58446660e+04, 7.02742871e+03,
          1.14039465e+03, 2.41914233e+03, 5100., 0., 0., 0.,
          1.89527617e+04, 2.88499561e+03, 0., 1.61276160e+03,
          6.49914258e+03, 1.14039465e+03, 9.07413281e+03, 2.41914233e+03,
          20400., 0., 0., 0., 7.30552344e+03, 3.42118408e+03,
          1.25538379e+04, 5.64466553e+03, 10200., 0., 0., 0.,
          7.30552344e+03, 4.56157861e+03, 1.32750869e+04, 4.03190405e+03,
          10200., 0., 0., 0., 2.84638086e+03, 0., 1.03315703e+04,
          4.03190405e+03, 1.87391426e+04, 9.07413281e+03, 1.14039465e+03,
          2.41914233e+03, 4080., 0., 0., 0., 2.91046660e+04,
          1.08092373e+04, 2.28078931e+03, 1.61276160e+03, 6.71276172e+03,
          0., 2.88499561e+03, 1.61276160e+03 ]
      - [ 2.44319043e+04, 1.20761709e+04, 1.14039465e+03, 2.41914233e+03,
          1020., 0., 0., 0., 2.85119043e+04, 7.32953174e+03, 0.,
          2.41914233e+03, 6120., 0., 5.88703418e+03, 1.61276160e+03,
          10200., 0., 0., 0., 4.88638086e+03, 1.14039465e+03,
          1.21932139e+04, 4.03190405e+03, 4080., 0., 0., 0.,
          1.05791426e+04, 2.28078931e+03, 1.11698613e+04, 5.64466553e+03,
          1.50863809e+04, 4.38601465e+03, 0., 0., 2.41914233e+03,
          2.28078931e+03, 1.11698613e+04, 5.64466553e+03, 24480., 0., 0.,
          0., 4.45914258e+03, 0., 1.32165654e+04, 5.64466553e+03,
          1.13855234e+04, 7.80719873e+03, 1.14039465e+03, 8.06380798e+02,
          4080., 0., 0., 0., 1.38046660e+04, 1.18911104e+04,
          4.56157861e+03, 4.03190405e+03, 4080., 0., 0., 0. ]
      - [ 2.80846660e+04, 1.03900908e+04, 0., 1.61276160e+03, 0., 0., 0.,
          0., 2.89391426e+04, 9.07413281e+03, 1.14039465e+03,
          2.41914233e+03, 5.69276172e+03, 0., 2.88499561e+03,
          1.61276160e+03, 10200., 0., 0., 0., 6.49914258e+03,
          1.14039465e+03, 9.07413281e+03, 2.41914233e+03, 6120., 0., 0.,
          0., 1.05791426e+04, 3.42118408e+03, 1.00294668e+04,
          4.03190405e+03, 1.58927617e+04, 2.88499561e+03, 0.,
          1.61276160e+03, 8.06380798e+02, 1.14039465e+03, 1.21932139e+04,
          4.03190405e+03, 26520., 0., 0., 0., 2.84638086e+03, 0.,
          1.62186035e+04, 5.64466553e+03, 1.10063809e+04, 6.18913721e+03,
          1.14039465e+03, 8.06380798e+02, 4080., 0., 0., 0.,
          1.21919043e+04, 1.39378145e+04, 2.28078931e+03, 2.41914233e+03,
          6.12000049e+03, 0., 0., 0. ]
      - [ 2.34119043e+04, 1.24367959e+04, 3.42118408e+03, 3.22552319e+03,
          5100., 0., 0., 0., 2.64719043e+04, 7.32953174e+03, 0.,
          2.41914233e+03, 7.73276172e+03, 0., 2.88499561e+03,
          1.61276160e+03, 12240., 0., 0., 0., 6.07190381e+03,
          2.28078931e+03, 8.05078076e+03, 4.03190405e+03, 8160., 0., 0.,
          0., 1.05791426e+04, 2.28078931e+03, 1.11698613e+04,
          5.64466553e+03, 1.50863809e+04, 1.50101904e+03, 0., 0.,
          5.26552344e+03, 4.56157861e+03, 1.15304863e+04, 5.64466553e+03,
          21420., 0., 0., 0., 4.45914258e+03, 0., 1.32165654e+04,
          5.64466553e+03, 1.18127617e+04, 8.41140527e+03, 3.42118408e+03,
          2.41914233e+03, 2040., 0., 0., 0., 1.58446660e+04,
          1.18911104e+04, 4.56157861e+03, 4.03190405e+03, 4080., 0., 0.,
          0. ]
      - [ 2.44319043e+04, 1.27974199e+04, 3.42118408e+03, 4.03190405e+03,
          4080., 0., 0., 0., 2.19646660e+04, 1.03315703e+04, 0.,
          2.41914233e+03, 2040., 0., 0., 0., 16320., 0., 0., 0.,
          4.88638086e+03, 0., 1.04486123e+04, 5.64466553e+03, 12240., 0.,
          0., 0., 8.53914258e+03, 1.14039465e+03, 1.49611670e+04,
          4.03190405e+03, 18360., 0., 0., 0., 8.11190430e+03,
          3.42118408e+03, 1.27974199e+04, 4.03190405e+03, 20400., 0., 0.,
          0., 2.84638086e+03, 1.14039465e+03, 1.20761709e+04,
          2.41914233e+03, 2.03519043e+04, 7.44657422e+03, 0.,
          8.06380798e+02, 6120., 0., 0., 0., 2.44319043e+04,
          7.63163477e+03, 3.42118408e+03, 4.03190405e+03, 7140., 0., 0.,
          0. ]
      - [ 1.62719043e+04, 1.20761709e+04, 1.14039465e+03, 2.41914233e+03,
          6120., 0., 0., 0., 1.01519043e+04, 8.16782324e+03,
          2.28078931e+03, 2.41914233e+03, 2040., 0., 0., 0.,
          2.40527617e+04, 2.88499561e+03, 0., 1.61276160e+03,
          6.92638086e+03, 0., 7.44657422e+03, 4.03190405e+03, 24480., 0.,
          0., 0., 2040., 0., 8.94759375e+03, 7.25742725e+03, 7140., 0.,
          0., 0., 6.49914258e+03, 3.42118408e+03, 1.57994580e+04,
          4.03190405e+03, 8160., 0., 0., 0., 6.20276172e+03,
          1.14039465e+03, 8.10930176e+03, 4.03190405e+03, 2.64719043e+04,
          7.44657422e+03, 0., 8.06380798e+02, 8160., 0., 0., 0.,
          3.46319023e+04, 7.50509570e+03, 0., 0., 0., 0., 1.50101904e+03,
          8.06380798e+02 ]
      - [ 2.34119043e+04, 2.04875762e+04, 1.14039465e+03, 0., 3060., 0.,
          0., 0., 2.23919043e+04, 8.16782324e+03, 2.28078931e+03,
          2.41914233e+03, 2040., 0., 0., 0., 12240., 0., 0., 0.,
          4.45914258e+03, 3.42118408e+03, 7.02742871e+03, 2.41914233e+03,
          12240., 0., 0., 0., 9.34552344e+03, 2.28078931e+03,
          1.54388340e+04, 5.64466553e+03, 18360., 0., 0., 0.,
          4.08000024e+03, 0., 1.57409375e+04, 4.03190405e+03, 23460., 0.,
          0., 0., 6.49914258e+03, 2.28078931e+03, 8.16782324e+03,
          4.03190405e+03, 1.54655234e+04, 7.44657422e+03, 1.14039465e+03,
          1.61276160e+03, 6630., 0., 0., 0., 2.03519043e+04,
          1.25538379e+04, 2.28078931e+03, 1.61276160e+03, 8.16000049e+03,
          0., 0., 0. ]
      - [ 2.97455234e+04, 5.88703418e+03, 0., 1.61276160e+03, 0., 0.,
          1.50101904e+03, 8.06380798e+02, 3.36119023e+04, 6.36470068e+03,
          0., 0., 510., 0., 5.88703418e+03, 1.61276160e+03, 6120., 0.,
          0., 0., 4.45914258e+03, 3.42118408e+03, 5.52640918e+03,
          1.61276160e+03, 4080., 0., 0., 0., 8.53914258e+03,
          3.42118408e+03, 1.00294668e+04, 4.03190405e+03, 2.81327617e+04,
          3.00203809e+03, 0., 0., 0., 0., 4.50305713e+03, 2.41914233e+03,
          34680., 0., 0., 0., 8.06380798e+02, 0., 7.44657422e+03,
          4.03190405e+03, 6.92638086e+03, 4.02539038e+03, 3.42118408e+03,
          2.41914233e+03, 4.08000024e+03, 0., 0., 0., 1.01519043e+04,
          1.21932139e+04, 1.14039465e+03, 8.06380798e+02, 10200., 0., 0.,
          0. ]
      - [ 2.97455234e+04, 5.88703418e+03, 0., 1.61276160e+03, 0., 0.,
          3.00203809e+03, 1.61276160e+03, 3.17855234e+04, 6.00407617e+03,
          0., 0., 0., 0., 5.88703418e+03, 1.61276160e+03, 4080., 0., 0.,
          0., 4.88638086e+03, 1.14039465e+03, 6.18913721e+03,
          8.06380798e+02, 4080., 0., 0., 0., 7.73276172e+03,
          2.28078931e+03, 1.25538379e+04, 4.03190405e+03, 3.01727617e+04,
          3.00203809e+03, 0., 0., 0., 0., 4.50305713e+03, 2.41914233e+03,
          34680., 0., 0., 0., 0., 0., 6.00407617e+03, 3.22552319e+03,
          4.88638086e+03, 6.18913721e+03, 1.14039465e+03, 8.06380798e+02,
          6120., 0., 0., 0., 8.11190381e+03, 1.25538379e+04,
          2.28078931e+03, 1.61276160e+03, 8.16000049e+03, 0., 0., 0. ]
      - [ 2.93182852e+04, 8.88907227e+03, 0., 1.61276160e+03, 0., 0., 0.,
          0., 2.85119043e+04, 8.16782324e+03, 2.28078931e+03,
          2.41914233e+03, 4080., 0., 1.44249780e+03, 3.22552319e+03,
          10200., 0., 0., 0., 4.45914258e+03, 3.42118408e+03,
          7.02742871e+03, 2.41914233e+03, 6120., 0., 0., 0.,
          8.96638086e+03, 1.14039465e+03, 1.21932139e+04, 4.03190405e+03,
          2.20127617e+04, 3.00203809e+03, 0., 0., 0., 0., 9.00611426e+03,
          4.83828467e+03, 28560., 0., 0., 0., 6.49914258e+03,
          2.28078931e+03, 8.16782324e+03, 4.03190405e+03, 1.10063809e+04,
          4.02539038e+03, 3.42118408e+03, 2.41914233e+03, 4.08000024e+03,
          0., 0., 0., 1.42319043e+04, 1.21932139e+04, 1.14039465e+03,
          8.06380798e+02, 10200., 0., 0., 0. ]
      - [ 1.17646660e+04, 1.03315703e+04, 0., 2.41914233e+03,
          8.16000049e+03, 0., 0., 0., 5.26552344e+03, 6.66680420e+03,
          2.28078931e+03, 2.41914233e+03, 2040., 0., 0., 0.,
          3.01727617e+04, 2.88499561e+03, 0., 1.61276160e+03,
          8.06380798e+02, 1.14039465e+03, 6.30617969e+03, 2.41914233e+03,
          3.14063809e+04, 1.50101904e+03, 0., 0., 2.63276172e+03, 0.,
          3.72328711e+03, 4.83828467e+03, 4080., 0., 0., 0.,
          1.05791426e+04, 1.14039465e+03, 1.21932139e+04, 5.64466553e+03,
          4080., 0., 0., 0., 6.49914258e+03, 2.28078931e+03,
          5.16578516e+03, 2.41914233e+03, 3.09791426e+04, 6.30617969e+03,
          1.14039465e+03, 8.06380798e+02, 0., 0., 0., 0., 3.70991406e+04,
          4.50305713e+03, 0., 0., 0., 0., 3.00203809e+03, 1.61276160e+03 ]
      - [ 1.21919043e+04, 1.32165654e+04, 0., 8.06380798e+02,
          8.16000049e+03, 0., 0., 0., 6.07190381e+03, 8.16782324e+03,
          2.28078931e+03, 2.41914233e+03, 2040., 0., 0., 0.,
          2.77055234e+04, 7.21248901e+02, 0., 1.61276160e+03,
          3.65276172e+03, 3.42118408e+03, 6.66680420e+03, 2.41914233e+03,
          29580., 0., 0., 0., 1.61276160e+03, 0., 8.88907227e+03,
          4.83828467e+03, 6120., 0., 0., 0., 8.96638086e+03, 0.,
          1.61015615e+04, 4.03190405e+03, 6120., 0., 0., 0.,
          6.49914258e+03, 2.28078931e+03, 5.16578516e+03, 2.41914233e+03,
          2.79191426e+04, 6.66680420e+03, 3.42118408e+03, 1.61276160e+03,
          2040., 0., 0., 0., 3.58655234e+04, 6.00407617e+03, 0., 0., 0.,
          0., 3.00203809e+03, 1.61276160e+03 ]
      - [ 1.99246660e+04, 1.79632051e+04, 1.14039465e+03, 2.41914233e+03,
          6120., 0., 0., 0., 1.83119043e+04, 8.16782324e+03,
          2.28078931e+03, 2.41914233e+03, 2040., 0., 0., 0., 16320., 0.,
          0., 0., 4.88638086e+03, 1.14039465e+03, 9.19117578e+03,
          2.41914233e+03, 16320., 0., 0., 0., 8.11190381e+03,
          3.42118408e+03, 1.57994580e+04, 5.64466553e+03, 14280., 0., 0.,
          0., 6.49914258e+03, 3.42118408e+03, 1.57994580e+04,
          4.03190405e+03, 16320., 0., 0., 0., 6.49914258e+03,
          2.28078931e+03, 8.16782324e+03, 4.03190405e+03, 1.87391426e+04,
          9.19117578e+03, 1.14039465e+03, 8.06380798e+02, 6120., 0., 0.,
          0., 2.44319043e+04, 1.29144629e+04, 3.42118408e+03,
          2.41914233e+03, 6120., 0., 0., 0. ]
      - [ 3.17855234e+04, 5.88703418e+03, 0., 1.61276160e+03, 0., 0.,
          3.00203809e+03, 1.61276160e+03, 3.30191406e+04, 4.50305713e+03,
          0., 0., 2040., 0., 1.44249780e+03, 3.22552319e+03, 2040., 0.,
          0., 0., 4.88638086e+03, 1.14039465e+03, 6.18913721e+03,
          8.06380798e+02, 2040., 0., 0., 0., 7.73276172e+03,
          2.28078931e+03, 1.25538379e+04, 4.03190405e+03, 3.01727617e+04,
          3.00203809e+03, 0., 0., 0., 0., 3.00203809e+03, 1.61276160e+03,
          36720., 0., 0., 0., 0., 0., 6.00407617e+03, 3.22552319e+03,
          3.65276172e+03, 4.44453613e+03, 1.14039465e+03, 1.61276160e+03,
          6630., 0., 0., 0., 6.07190381e+03, 1.29144629e+04,
          3.42118408e+03, 2.41914233e+03, 4.88638086e+03, 1.14039465e+03,
          3.60624451e+02, 0. ]
      - [ 2.23919043e+04, 1.27974199e+04, 3.42118408e+03, 4.03190405e+03,
          6120., 0., 0., 0., 2.03519043e+04, 7.32953174e+03, 0.,
          2.41914233e+03, 6120., 0., 0., 0., 18360., 0., 0., 0.,
          5.77552344e+03, 1.14039465e+03, 1.02145273e+04, 3.22552319e+03,
          18360., 0., 0., 0., 1.21919043e+04, 0., 1.32165654e+04,
          7.25742725e+03, 16320., 0., 0., 0., 1.21919043e+04,
          2.28078931e+03, 1.10528193e+04, 5.64466553e+03, 18360., 0., 0.,
          0., 8.53914258e+03, 0., 7.32953174e+03, 4.03190405e+03,
          2.42182852e+04, 7.74867773e+03, 0., 1.61276160e+03, 6630., 0.,
          0., 0., 2.52382852e+04, 1.32165654e+04, 1.14039465e+03,
          3.22552319e+03, 8670., 0., 0., 0. ]
      - [ 3.46319023e+04, 7.38805322e+03, 0., 1.61276160e+03, 0., 0., 0.,
          0., 3.05519043e+04, 7.32953174e+03, 0., 2.41914233e+03, 6120.,
          0., 0., 0., 8160., 0., 0., 0., 6.49914258e+03, 1.14039465e+03,
          9.19117578e+03, 4.03190405e+03, 8160., 0., 0., 0.,
          1.21919043e+04, 0., 1.32165654e+04, 7.25742725e+03, 26520., 0.,
          0., 0., 2.41914233e+03, 0., 7.32953174e+03, 4.03190405e+03,
          30600., 0., 0., 0., 8.53914258e+03, 0., 7.32953174e+03,
          4.03190405e+03, 1.42319043e+04, 7.32953174e+03, 0.,
          2.41914233e+03, 6120., 0., 0., 0., 1.58446660e+04,
          1.32165654e+04, 0., 2.41914233e+03, 10200., 0., 0., 0. ]
      - [ 1.09582852e+04, 1.06921943e+04, 1.14039465e+03, 2.41914233e+03,
          10200., 0., 0., 0., 7.30552344e+03, 7.69015625e+03,
          1.14039465e+03, 2.41914233e+03, 4080., 0., 0., 0.,
          3.34463789e+04, 1.50101904e+03, 0., 0., 8.06380798e+02, 0.,
          4.44453613e+03, 2.41914233e+03, 3.34463789e+04, 1.50101904e+03,
          0., 0., 8.06380798e+02, 0., 4.44453613e+03, 2.41914233e+03,
          3060., 0., 0., 0., 1.26191426e+04, 1.14039465e+03,
          1.21932139e+04, 5.64466553e+03, 4080., 0., 0., 0.,
          7.51914258e+03, 1.14039465e+03, 7.74867725e+03, 4.03190405e+03,
          3.70991406e+04, 4.44453613e+03, 0., 8.06380798e+02, 0., 0., 0.,
          0., 3.81191406e+04, 3.36266260e+03, 0., 0., 510., 0., 0., 0. ]
      - [ 1.38046660e+04, 1.10528193e+04, 2.28078931e+03, 4.03190405e+03,
          8160., 0., 0., 0., 1.01519043e+04, 7.32953174e+03, 0.,
          2.41914233e+03, 6120., 0., 0., 0., 32640., 0., 0., 0.,
          1.61276160e+03, 1.14039465e+03, 7.74867773e+03, 3.22552319e+03,
          30600., 0., 0., 0., 1.61276160e+03, 0., 5.88703418e+03,
          3.22552319e+03, 6120., 0., 0., 0., 1.01519043e+04,
          3.42118408e+03, 1.27974199e+04, 4.03190405e+03, 8160., 0., 0.,
          0., 8.53914258e+03, 0., 7.32953174e+03, 4.03190405e+03,
          3.58655234e+04, 5.88703418e+03, 0., 1.61276160e+03, 2040., 0.,
          0., 0., 3.58655234e+04, 5.88703418e+03, 0., 1.61276160e+03, 0.,
          0., 0., 0. ]
      - [ 3.17855234e+04, 6.00407617e+03, 0., 0., 0., 0., 3.00203809e+03,
          1.61276160e+03, 3.17855234e+04, 6.00407617e+03, 0., 0., 0., 0.,
          3.00203809e+03, 1.61276160e+03, 6120., 0., 0., 0.,
          4.88638086e+03, 0., 7.32953174e+03, 2.41914233e+03, 4080., 0.,
          0., 0., 6.49914258e+03, 2.28078931e+03, 1.39378145e+04,
          4.03190405e+03, 3.54863789e+04, 1.50101904e+03, 0., 0., 0., 0.,
          3.00203809e+03, 1.61276160e+03, 36720., 0., 0., 0., 0., 0.,
          3.00203809e+03, 1.61276160e+03, 5.69276172e+03, 7.69015625e+03,
          1.14039465e+03, 8.06380798e+02, 4080., 0., 0., 0.,
          7.68466553e+03, 1.69398535e+04, 2.28078931e+03, 2.41914233e+03,
          4080., 0., 0., 0. ]
      - [ 1.78846660e+04, 1.88014961e+04, 3.42118408e+03, 2.41914233e+03,
          2040., 0., 0., 0., 1.42319043e+04, 1.00294668e+04,
          3.42118408e+03, 2.41914233e+03, 0., 0., 0., 0., 22440., 0., 0.,
          0., 2.84638086e+03, 1.14039465e+03, 1.21932139e+04,
          4.03190405e+03, 18360., 0., 0., 0., 0., 0., 1.62771250e+04,
          5.64466553e+03, 14280., 0., 0., 0., 6.49914258e+03,
          3.42118408e+03, 1.59165010e+04, 5.64466553e+03, 14280., 0., 0.,
          0., 4.45914258e+03, 3.42118408e+03, 7.02742871e+03,
          2.41914233e+03, 2.44319043e+04, 8.16782324e+03, 2.28078931e+03,
          2.41914233e+03, 2040., 0., 0., 0., 2.93182852e+04,
          1.47761064e+04, 0., 0., 0., 0., 0., 0. ]
      - [ 2.60446660e+04, 1.80802480e+04, 1.14039465e+03, 8.06380798e+02,
          0., 0., 0., 0., 2.03519043e+04, 1.21932139e+04, 1.14039465e+03,
          8.06380798e+02, 2040., 0., 0., 0., 14280., 0., 0., 0.,
          2.41914233e+03, 3.42118408e+03, 1.00294668e+04, 4.03190405e+03,
          12240., 0., 0., 0., 6.92638086e+03, 1.14039465e+03,
          1.80802480e+04, 5.64466553e+03, 20400., 0., 0., 0.,
          8.06380798e+02, 1.14039465e+03, 1.50782090e+04, 4.03190405e+03,
          24480., 0., 0., 0., 4.88638086e+03, 1.14039465e+03,
          9.19117578e+03, 2.41914233e+03, 1.66991426e+04, 9.91242383e+03,
          3.42118408e+03, 2.41914233e+03, 0., 0., 0., 0., 2.03519043e+04,
          1.79632051e+04, 1.14039465e+03, 8.06380798e+02, 6120., 0., 0.,
          0. ]
      - [ 1.26191426e+04, 1.02730488e+04, 4.56157861e+03, 3.22552319e+03,
          6120., 0., 0., 0., 1.01519043e+04, 1.02145273e+04, 0.,
          2.41914233e+03, 4080., 0., 0., 0., 2.20127617e+04,
          2.88499561e+03, 0., 1.61276160e+03, 6.49914258e+03,
          1.14039465e+03, 9.07413281e+03, 2.41914233e+03, 24480., 0., 0.,
          0., 0., 0., 1.33921299e+04, 5.64466553e+03, 6120., 0., 0., 0.,
          7.30552344e+03, 3.42118408e+03, 1.14134434e+04, 4.03190405e+03,
          8160., 0., 0., 0., 2.84638086e+03, 0., 1.03315703e+04,
          4.03190405e+03, 2.28191426e+04, 9.07413281e+03, 1.14039465e+03,
          2.41914233e+03, 4080., 0., 3.00203809e+03, 1.61276160e+03,
          2.93182852e+04, 9.00611426e+03, 0., 0., 1.61276160e+03, 0.,
          2.88499561e+03, 1.61276160e+03 ]
      - [ 1.46591426e+04, 9.91242383e+03, 3.42118408e+03, 2.41914233e+03,
          8160., 0., 0., 0., 1.01519043e+04, 9.19117578e+03,
          1.14039465e+03, 2.41914233e+03, 4080., 0., 0., 0.,
          2.38391426e+04, 1.08187329e+03, 0., 1.61276160e+03,
          7.00914258e+03, 1.14039465e+03, 9.07413281e+03, 2.41914233e+03,
          24480., 0., 0., 0., 0., 0., 1.18911104e+04, 6.45104639e+03,
          6120., 0., 0., 0., 7.81552344e+03, 3.42118408e+03,
          1.03315703e+04, 4.83828467e+03, 9180., 0., 0., 0.,
          2.84638086e+03, 0., 1.03315703e+04, 4.03190405e+03,
          2.28191426e+04, 9.07413281e+03, 1.14039465e+03, 2.41914233e+03,
          4080., 0., 3.00203809e+03, 1.61276160e+03, 2.85119043e+04,
          1.03315703e+04, 0., 8.06380798e+02, 2.63276172e+03, 0.,
          7.21248901e+02, 3.22552319e+03 ]
      - [ 3.01246660e+04, 5.22430615e+03, 0., 1.61276160e+03,
          1.82638086e+03, 0., 1.44249780e+03, 8.06380798e+02,
          2.79191426e+04, 1.17155469e+04, 1.14039465e+03, 0., 2040., 0.,
          5.88703418e+03, 1.61276160e+03, 6120., 0., 0., 0.,
          5.26552344e+03, 2.28078931e+03, 6.60828271e+03, 3.22552319e+03,
          4080., 0., 0., 0., 8.11190430e+03, 5.70197314e+03,
          1.07507158e+04, 4.03190405e+03, 2.09927617e+04, 2.88499561e+03,
          0., 1.61276160e+03, 0., 0., 9.00611426e+03, 4.83828467e+03,
          2.73263809e+04, 1.50101904e+03, 0., 0., 2.63276172e+03,
          1.14039465e+03, 1.18325889e+04, 5.64466553e+03, 6.92638086e+03,
          9.07413281e+03, 1.14039465e+03, 8.06380798e+02, 2040., 0., 0.,
          0., 1.09582852e+04, 1.03900908e+04, 4.56157861e+03,
          4.03190405e+03, 4080., 0., 0., 0. ]
      - [ 8.53914258e+03, 9.91242383e+03, 3.42118408e+03, 2.41914233e+03,
          8160., 0., 0., 0., 5.26552344e+03, 8.71350879e+03, 0.,
          2.41914233e+03, 4080., 0., 0., 0., 2.60927617e+04,
          5.88703418e+03, 0., 0., 1.61276160e+03, 0., 7.27101074e+03,
          2.41914233e+03, 3.14063809e+04, 1.50101904e+03, 0., 0.,
          1.61276160e+03, 0., 7.38805322e+03, 4.03190405e+03, 2040., 0.,
          0., 0., 8.11190430e+03, 4.56157861e+03, 8.88907227e+03,
          4.03190405e+03, 4080., 0., 0., 0., 2.84638086e+03, 0.,
          8.83055078e+03, 3.22552319e+03, 2.89391426e+04, 7.27101074e+03,
          0., 1.61276160e+03, 0., 0., 3.00203809e+03, 1.61276160e+03,
          3.30191406e+04, 4.50305713e+03, 0., 0., 1.61276160e+03, 0.,
          4.38601465e+03, 2.41914233e+03 ]
      - [ 1.83119043e+04, 1.27974199e+04, 3.42118408e+03, 4.03190405e+03,
          8.16000049e+03, 0., 0., 0., 1.66991426e+04, 9.07413281e+03,
          1.14039465e+03, 2.41914233e+03, 4080., 0., 0., 0., 16320., 0.,
          0., 0., 6.07190381e+03, 2.28078931e+03, 8.05078076e+03,
          4.03190405e+03, 16320., 3.60624451e+02, 1.14039465e+03,
          8.06380798e+02, 7.68466553e+03, 5.70197314e+03, 1.36357109e+04,
          5.64466553e+03, 10200., 0., 0., 0., 8.53914258e+03,
          2.28078931e+03, 1.40548574e+04, 5.64466553e+03, 12240., 0., 0.,
          0., 3.65276172e+03, 1.14039465e+03, 1.07507158e+04,
          4.83828467e+03, 1.66991426e+04, 9.79538184e+03, 3.42118408e+03,
          4.03190405e+03, 0., 0., 0., 0., 2.40046660e+04, 1.15304863e+04,
          3.42118408e+03, 3.22552319e+03, 6.92638086e+03, 0.,
          1.44249780e+03, 8.06380798e+02 ]
      - [ 1.26191426e+04, 9.91242383e+03, 3.42118408e+03, 2.41914233e+03,
          8.16000049e+03, 0., 0., 0., 1.17646660e+04, 8.05078076e+03, 0.,
          2.41914233e+03, 5100., 0., 0., 0., 2.20127617e+04,
          2.88499561e+03, 0., 1.61276160e+03, 4.88638086e+03,
          1.14039465e+03, 1.20761709e+04, 2.41914233e+03, 22440., 0., 0.,
          0., 0., 0., 1.33921299e+04, 5.64466553e+03, 6120., 0., 0., 0.,
          8.53914258e+03, 2.28078931e+03, 1.10528193e+04, 4.03190405e+03,
          8160., 0., 0., 0., 2.84638086e+03, 0., 1.03315703e+04,
          4.03190405e+03, 2.28191426e+04, 9.07413281e+03, 1.14039465e+03,
          2.41914233e+03, 4080., 0., 3.00203809e+03, 1.61276160e+03,
          2.93182852e+04, 9.00611426e+03, 0., 0., 1.61276160e+03, 0.,
          2.88499561e+03, 1.61276160e+03 ]
      - [ 2.77055234e+04, 5.88703418e+03, 0., 1.61276160e+03, 0., 0.,
          5.88703418e+03, 1.61276160e+03, 3.09791426e+04, 4.38601465e+03,
          0., 1.61276160e+03, 0., 0., 7.38805322e+03, 2.41914233e+03,
          4080., 0., 0., 0., 4.45914258e+03, 2.28078931e+03,
          5.16578516e+03, 2.41914233e+03, 2040., 0., 0., 0.,
          8.53914258e+03, 3.42118408e+03, 1.14134434e+04, 3.22552319e+03,
          2.77055234e+04, 7.21248901e+02, 0., 1.61276160e+03, 1020., 0.,
          6.00407617e+03, 3.22552319e+03, 3.01727617e+04, 3.00203809e+03,
          0., 0., 1.61276160e+03, 0., 8.88907227e+03, 4.83828467e+03,
          4.45914258e+03, 5.16578516e+03, 2.28078931e+03, 2.41914233e+03,
          2040., 0., 0., 0., 8.11190381e+03, 8.88907227e+03,
          4.56157861e+03, 4.03190405e+03, 4080., 0., 0., 0. ]
      - [ 2.97455234e+04, 5.88703418e+03, 0., 1.61276160e+03,
          1.61276160e+03, 0., 2.88499561e+03, 1.61276160e+03,
          3.30191406e+04, 4.38601465e+03, 0., 1.61276160e+03, 0., 0.,
          5.88703418e+03, 1.61276160e+03, 2040., 0., 0., 0.,
          4.88638086e+03, 1.14039465e+03, 6.30617969e+03, 2.41914233e+03,
          2040., 0., 0., 0., 1.05791426e+04, 2.28078931e+03,
          1.11698613e+04, 5.64466553e+03, 2.60927617e+04, 2.88499561e+03,
          0., 1.61276160e+03, 0., 0., 6.00407617e+03, 3.22552319e+03,
          3.01727617e+04, 3.00203809e+03, 0., 0., 1.61276160e+03, 0.,
          1.02730488e+04, 4.03190405e+03, 4.88638086e+03, 6.18913721e+03,
          1.14039465e+03, 8.06380798e+02, 4080., 0., 0., 0.,
          8.53914258e+03, 8.77202930e+03, 4.56157861e+03, 4.03190405e+03,
          4080., 0., 0., 0. ]
      - [ 1.13855234e+04, 8.46992676e+03, 3.42118408e+03, 3.22552319e+03,
          6.12000049e+03, 0., 0., 0., 6.92638086e+03, 9.43475781e+03,
          2.28078931e+03, 1.61276160e+03, 0., 0., 0., 0., 3.14063809e+04,
          1.44249780e+03, 0., 8.06380798e+02, 0., 0., 9.00611426e+03,
          4.83828467e+03, 2.60927617e+04, 3.00203809e+03, 0., 0.,
          1.61276160e+03, 0., 5.88703418e+03, 3.22552319e+03, 2040., 0.,
          0., 0., 1.05791426e+04, 1.14039465e+03, 1.20761709e+04,
          4.03190405e+03, 6120., 3.60624451e+02, 1.14039465e+03,
          8.06380798e+02, 2.41914233e+03, 0., 1.03315703e+04,
          5.64466553e+03, 3.58655234e+04, 6.00407617e+03, 0., 0., 0., 0.,
          0., 0., 3.83327617e+04, 2.88499561e+03, 0., 1.61276160e+03, 0.,
          0., 0., 0. ]
      - [ 1.01519043e+04, 1.32750869e+04, 4.56157861e+03, 3.22552319e+03,
          4080., 0., 0., 0., 7.73276172e+03, 1.34601475e+04,
          1.14039465e+03, 8.06380798e+02, 0., 0., 0., 0., 30600., 0., 0.,
          0., 2040., 0., 1.00879883e+04, 5.64466553e+03, 2.42663809e+04,
          1.50101904e+03, 0., 0., 1.61276160e+03, 0., 7.38805322e+03,
          4.03190405e+03, 4080., 0., 0., 0., 9.34552344e+03,
          2.28078931e+03, 1.24367959e+04, 4.03190405e+03, 8160., 0., 0.,
          0., 4.45914258e+03, 0., 1.03315703e+04, 5.64466553e+03,
          3.36119023e+04, 7.08594971e+03, 0., 0., 3060., 0., 0., 0.,
          3.70991406e+04, 4.38601465e+03, 0., 1.61276160e+03, 0., 0., 0.,
          0. ]
      - [ 2.40046660e+04, 1.10528193e+04, 2.28078931e+03, 4.03190405e+03,
          6120., 0., 0., 0., 1.87391426e+04, 1.24367959e+04,
          2.28078931e+03, 1.61276160e+03, 0., 0., 0., 0., 16320.,
          3.60624451e+02, 1.14039465e+03, 8.06380798e+02, 8.06380798e+02,
          1.14039465e+03, 1.23102559e+04, 5.64466553e+03, 12240., 0., 0.,
          0., 1.01519043e+04, 2.28078931e+03, 1.10528193e+04,
          5.64466553e+03, 18360., 0., 0., 0., 1.05791426e+04,
          1.14039465e+03, 1.20761709e+04, 4.03190405e+03, 20400., 0., 0.,
          0., 3.65276172e+03, 2.28078931e+03, 9.55179980e+03,
          2.41914233e+03, 2.03519043e+04, 7.80719873e+03, 1.14039465e+03,
          1.61276160e+03, 4.08000024e+03, 0., 0., 0., 2.28191426e+04,
          1.19591289e+04, 1.14039465e+03, 2.41914233e+03, 8160., 0., 0.,
          0. ]
      - [ 3.30191406e+04, 4.38601465e+03, 0., 1.61276160e+03, 0., 0.,
          3.00203809e+03, 1.61276160e+03, 3.17855234e+04, 6.00407617e+03,
          0., 0., 1.61276160e+03, 0., 2.88499561e+03, 1.61276160e+03,
          6120., 0., 0., 0., 4.88638086e+03, 0., 7.44657422e+03,
          4.03190405e+03, 2040., 0., 0., 0., 6.92638086e+03,
          1.14039465e+03, 1.20761709e+04, 2.41914233e+03, 34680., 0., 0.,
          0., 1.61276160e+03, 0., 2.88499561e+03, 1.61276160e+03, 36720.,
          0., 0., 0., 0., 0., 4.50305713e+03, 2.41914233e+03,
          6.07190381e+03, 7.44657422e+03, 0., 8.06380798e+02, 6120., 0.,
          0., 0., 6.49914258e+03, 1.27974199e+04, 3.42118408e+03,
          2.41914233e+03, 6120., 0., 0., 0. ]
      - [ 3.30191406e+04, 4.38601465e+03, 0., 1.61276160e+03, 0., 0.,
          3.00203809e+03, 1.61276160e+03, 3.09791426e+04, 7.38805322e+03,
          0., 0., 1.61276160e+03, 0., 2.88499561e+03, 1.61276160e+03,
          6120., 0., 0., 0., 2.84638086e+03, 1.14039465e+03,
          9.30821777e+03, 4.03190405e+03, 2040., 0., 0., 0.,
          6.07190381e+03, 4.56157861e+03, 8.88907227e+03, 4.03190405e+03,
          32640., 0., 0., 0., 1.61276160e+03, 0., 4.38601465e+03,
          2.41914233e+03, 34680., 0., 0., 0., 0., 0., 7.38805322e+03,
          2.41914233e+03, 6.07190381e+03, 9.30821777e+03, 1.14039465e+03,
          8.06380798e+02, 4080., 0., 0., 0., 1.01519043e+04,
          8.77202930e+03, 4.56157861e+03, 5.64466553e+03, 4080., 0., 0.,
          0. ]
      - [ 2.79191426e+04, 5.04874268e+03, 2.28078931e+03, 4.03190405e+03,
          12240., 0., 0., 0., 1.61276160e+03, 3.24562012e+03,
          1.14039465e+03, 2.41914233e+03, 1.23227617e+04, 0.,
          1.80312231e+03, 2.41914233e+03, 28560., 0., 0., 0., 0., 0., 0.,
          0., 0., 0., 0., 0., 8.06380798e+02, 0., 1.44249780e+03,
          8.06380798e+02, 0., 3.60624451e+02, 1.14039465e+03,
          8.06380798e+02, 5.69276172e+03, 1.14039465e+03, 1.80312231e+03,
          8.06380798e+02, 2.81327617e+04, 3.00203809e+03, 0., 0., 0., 0.,
          0., 0., 0., 0., 0., 0., 0., 0., 0., 0., 3.11927617e+04,
          3.60624451e+02, 0., 8.06380798e+02, 5.39638086e+03,
          1.14039465e+03, 3.60624451e+02, 0. ]
      - [ 2.89391426e+04, 5.40936719e+03, 3.42118408e+03, 4.83828467e+03,
          10200., 0., 0., 0., 1.61276160e+03, 3.60624463e+03,
          2.28078931e+03, 3.22552319e+03, 9.77276172e+03, 0.,
          2.88499561e+03, 1.61276160e+03, 28560., 0., 0., 0., 0., 0., 0.,
          0., 0., 0., 0., 0., 8.06380798e+02, 0., 1.44249780e+03,
          8.06380798e+02, 0., 3.60624451e+02, 1.14039465e+03,
          8.06380798e+02, 4.88638086e+03, 1.14039465e+03, 3.30414136e+03,
          8.06380798e+02, 2.81327617e+04, 3.00203809e+03, 0., 0., 0., 0.,
          0., 0., 0., 0., 0., 0., 0., 0., 0., 0., 2.93663809e+04,
          1.44249780e+03, 0., 8.06380798e+02, 6120., 0., 0., 0. ]
      - [ 2.32463809e+04, 7.63163477e+03, 5.70197314e+03, 4.03190405e+03,
          8160., 0., 0., 0., 0., 1.44249780e+03, 4.56157861e+03,
          3.22552319e+03, 9.77276172e+03, 0., 2.88499561e+03,
          1.61276160e+03, 30600., 0., 0., 0., 0., 0., 0., 0., 0., 0., 0.,
          0., 8.06380798e+02, 0., 1.44249780e+03, 8.06380798e+02, 0., 0.,
          0., 0., 6.92638086e+03, 1.14039465e+03, 3.30414136e+03,
          8.06380798e+02, 2.60927617e+04, 3.00203809e+03, 0., 0., 0., 0.,
          0., 0., 0., 0., 0., 0., 0., 0., 0., 0., 3.14063809e+04,
          1.44249780e+03, 0., 8.06380798e+02, 6120., 0., 0., 0. ]
      - [ 3.03863809e+04, 7.27101074e+03, 5.70197314e+03, 3.22552319e+03,
          6120., 0., 0., 0., 0., 1.44249780e+03, 4.56157861e+03,
          3.22552319e+03, 9.77276172e+03, 0., 2.88499561e+03,
          1.61276160e+03, 22440., 0., 0., 0., 0., 0., 0., 0., 0., 0., 0.,
          0., 8.06380798e+02, 0., 1.44249780e+03, 8.06380798e+02, 0., 0.,
          0., 0., 3.06000024e+03, 1.14039465e+03, 2.94351709e+03,
          8.06380798e+02, 3.32327617e+04, 3.00203809e+03, 0., 0., 0., 0.,
          0., 0., 0., 0., 0., 0., 0., 0., 0., 0., 2.52863809e+04,
          1.44249780e+03, 0., 8.06380798e+02, 3.65276172e+03,
          2.28078931e+03, 7.21248901e+02, 0. ]
      - [ 2.12063809e+04, 5.46788818e+03, 7.98276270e+03, 5.64466553e+03,
          6120., 0., 0., 0., 0., 4.32749365e+03, 4.56157861e+03,
          3.22552319e+03, 7.73276172e+03, 0., 2.88499561e+03,
          1.61276160e+03, 34680., 0., 0., 0., 0., 0., 0., 0., 0., 0., 0.,
          0., 8.06380798e+02, 0., 1.44249780e+03, 8.06380798e+02, 0., 0.,
          0., 0., 6.92638086e+03, 1.14039465e+03, 3.30414136e+03,
          8.06380798e+02, 2.20127617e+04, 3.00203809e+03, 0., 0., 0., 0.,
          0., 0., 0., 0., 0., 0., 0., 0., 0., 0., 3.54863789e+04,
          1.44249780e+03, 0., 8.06380798e+02, 6120., 0., 0., 0. ]
      - [ 2.12063809e+04, 5.76999121e+03, 4.56157861e+03, 4.03190405e+03,
          10200., 0., 0., 0., 0., 1.44249780e+03, 4.56157861e+03,
          3.22552319e+03, 9.77276172e+03, 0., 2.88499561e+03,
          1.61276160e+03, 34680., 0., 0., 0., 0., 0., 0., 0., 0., 0., 0.,
          0., 8.06380798e+02, 0., 1.44249780e+03, 8.06380798e+02, 0., 0.,
          0., 0., 6.92638086e+03, 1.14039465e+03, 3.30414136e+03,
          8.06380798e+02, 2.20127617e+04, 3.00203809e+03, 0., 0., 0., 0.,
          0., 0., 0., 0., 0., 0., 0., 0., 0., 0., 3.54863789e+04,
          1.44249780e+03, 0., 8.06380798e+02, 6120., 0., 0., 0. ]
      - [ 4.83828467e+03, 8.41140527e+03, 2.28078931e+03, 4.03190405e+03,
          6120., 0., 0., 0., 0., 1.44249780e+03, 4.56157861e+03,
          3.22552319e+03, 7.73276172e+03, 1.14039465e+03, 1.80312231e+03,
          8.06380798e+02, 15300., 0., 0., 0., 0., 0., 0., 0., 0., 0., 0.,
          0., 0., 0., 3.60624451e+02, 8.06380798e+02, 1.50863809e+04,
          3.36266260e+03, 2.28078931e+03, 1.61276160e+03, 2.84638086e+03,
          1.14039465e+03, 3.30414136e+03, 8.06380798e+02, 30600., 0., 0.,
          0., 0., 0., 2.94351709e+03, 8.06380798e+02, 15300., 0., 0., 0.,
          0., 0., 0., 0., 3.34463789e+04, 1.44249780e+03, 0.,
          8.06380798e+02, 4.88638086e+03, 1.14039465e+03, 2.94351709e+03,
          0. ]
      - [ 4.45914258e+03, 5.46788818e+03, 6.84236816e+03, 5.64466553e+03,
          2040., 0., 0., 0., 0., 1.08187329e+03, 3.42118408e+03,
          2.41914233e+03, 8.96638086e+03, 1.14039465e+03, 2.16374683e+03,
          8.06380798e+02, 1.50863809e+04, 3.60624451e+02, 0., 0., 0., 0.,
          0., 0., 0., 0., 0., 0., 0., 0., 3.60624451e+02, 8.06380798e+02,
          8.96638086e+03, 3.00203809e+03, 1.14039465e+03, 8.06380798e+02,
          6120., 0., 2.94351709e+03, 8.06380798e+02, 28560., 0., 0., 0.,
          0., 0., 5.58493066e+03, 1.61276160e+03, 1.50863809e+04,
          2.64141382e+03, 0., 0., 0., 0., 0., 0., 3.54863789e+04,
          1.44249780e+03, 0., 8.06380798e+02, 4.88638086e+03,
          1.14039465e+03, 2.94351709e+03, 0. ]
      - [ 5.77552344e+03, 7.27101074e+03, 2.28078931e+03, 4.03190405e+03,
          6120., 0., 0., 0., 0., 1.44249780e+03, 4.56157861e+03,
          3.22552319e+03, 6.92638086e+03, 1.14039465e+03, 2.16374683e+03,
          0., 1.40663809e+04, 0., 0., 0., 0., 0., 0., 0., 0., 0., 0., 0.,
          0., 0., 3.60624451e+02, 8.06380798e+02, 1.74227617e+04,
          3.00203809e+03, 2.28078931e+03, 1.61276160e+03, 4.88638086e+03,
          0., 1.44249780e+03, 8.06380798e+02, 34680., 0., 0., 0.,
          8.06380798e+02, 0., 2.58289258e+03, 1.61276160e+03, 13260.,
          1.50101904e+03, 0., 0., 0., 0., 0., 0., 3.14063809e+04,
          1.44249780e+03, 0., 8.06380798e+02, 4.88638086e+03,
          1.14039465e+03, 2.94351709e+03, 0. ]
      - [ 8.53914258e+03, 6.91038623e+03, 3.42118408e+03, 4.03190405e+03,
          6120., 0., 0., 0., 1.61276160e+03, 4.32749365e+03,
          4.56157861e+03, 4.83828467e+03, 4.88638086e+03, 0.,
          1.44249780e+03, 8.06380798e+02, 0., 0., 0., 0., 0., 0., 0., 0.,
          0., 0., 0., 0., 0., 0., 0., 0., 24480., 0., 0., 0.,
          1.10063809e+04, 0., 1.44249780e+03, 8.06380798e+02, 34680., 0.,
          0., 0., 8.06380798e+02, 0., 1.44249780e+03, 8.06380798e+02,
          26520., 0., 0., 0., 0., 0., 0., 0., 3.14063809e+04,
          1.44249780e+03, 0., 8.06380798e+02, 4.88638086e+03, 0.,
          4.44453613e+03, 2.41914233e+03 ]
      - [ 6.07190381e+03, 6.85186475e+03, 0., 4.03190405e+03, 6120., 0.,
          0., 0., 1.61276160e+03, 2.88499561e+03, 1.14039465e+03,
          2.41914233e+03, 8.96638086e+03, 0., 1.44249780e+03,
          8.06380798e+02, 0., 0., 0., 0., 0., 0., 0., 0., 0., 0., 0., 0.,
          0., 0., 0., 0., 22440., 7.21248901e+02, 2.28078931e+03,
          1.61276160e+03, 6.92638086e+03, 0., 1.44249780e+03,
          8.06380798e+02, 32640., 3.60624451e+02, 1.14039465e+03,
          8.06380798e+02, 8.06380798e+02, 0., 1.44249780e+03,
          8.06380798e+02, 34680., 0., 0., 0., 0., 0., 0., 0.,
          3.54863789e+04, 1.44249780e+03, 0., 8.06380798e+02,
          4.88638086e+03, 0., 1.44249780e+03, 8.06380798e+02 ]
      - [ 4.88638086e+03, 6.13061572e+03, 5.70197314e+03, 4.83828467e+03,
          2040., 0., 0., 0., 0., 4.32749365e+03, 4.56157861e+03,
          3.22552319e+03, 4.88638086e+03, 0., 1.44249780e+03,
          8.06380798e+02, 0., 0., 0., 0., 0., 0., 0., 0., 0., 0., 0., 0.,
          0., 0., 0., 0., 22440., 3.60624451e+02, 1.14039465e+03,
          8.06380798e+02, 8.96638086e+03, 0., 1.44249780e+03,
          8.06380798e+02, 32640., 0., 0., 0., 2.84638086e+03, 0.,
          1.44249780e+03, 8.06380798e+02, 34680., 0., 0., 0., 0., 0., 0.,
          0., 3.34463789e+04, 3.30414136e+03, 1.14039465e+03,
          8.06380798e+02, 2.84638086e+03, 0., 1.44249780e+03,
          8.06380798e+02 ]
      - [ 1.71263809e+04, 3.60624463e+03, 6.84236816e+03, 5.64466553e+03,
          6120., 0., 0., 0., 0., 1.80312231e+03, 5.70197314e+03,
          4.03190405e+03, 8.24276172e+03, 0., 1.44249780e+03,
          1.61276160e+03, 11220., 0., 0., 0., 0., 0., 0., 0., 0., 0., 0.,
          0., 0., 0., 3.60624451e+02, 8.06380798e+02, 14280.,
          3.60624451e+02, 2.28078931e+03, 8.06380798e+02, 1020., 0.,
          4.08391162e+03, 2.41914233e+03, 33660., 0., 0., 0., 0., 0.,
          3.60624451e+02, 8.06380798e+02, 11220., 0., 0., 0., 0., 0., 0.,
          0., 2.32463809e+04, 3.30414136e+03, 1.14039465e+03,
          8.06380798e+02, 2.84638086e+03, 1.14039465e+03, 2.94351709e+03,
          0. ]
      - [ 1.10063809e+04, 5.10726367e+03, 6.84236816e+03, 4.83828467e+03,
          6120., 0., 0., 0., 8.06380798e+02, 2.52437109e+03,
          3.42118408e+03, 3.22552319e+03, 9180., 0., 3.30414136e+03,
          1.61276160e+03, 15300., 0., 0., 0., 0., 0., 0., 0., 0., 0., 0.,
          0., 0., 0., 3.60624451e+02, 8.06380798e+02, 10200.,
          3.60624451e+02, 1.14039465e+03, 8.06380798e+02, 4.88638086e+03,
          1.14039465e+03, 3.30414136e+03, 8.06380798e+02, 26520., 0., 0.,
          0., 0., 0., 3.60624451e+02, 8.06380798e+02, 15300., 0., 0., 0.,
          0., 0., 0., 0., 3.14063809e+04, 1.44249780e+03, 0.,
          8.06380798e+02, 6.92638086e+03, 0., 1.08187341e+03, 0. ]
      - [ 9.98638086e+03, 5.10726367e+03, 6.84236816e+03, 4.83828467e+03,
          6120., 0., 0., 0., 8.06380798e+02, 2.52437109e+03,
          3.42118408e+03, 3.22552319e+03, 9180., 0., 3.30414136e+03,
          1.61276160e+03, 16320., 0., 0., 0., 0., 0., 0., 0., 0., 0., 0.,
          0., 0., 0., 3.60624451e+02, 8.06380798e+02, 9180.,
          3.60624451e+02, 1.14039465e+03, 8.06380798e+02, 4.88638086e+03,
          1.14039465e+03, 3.30414136e+03, 8.06380798e+02, 24480., 0., 0.,
          0., 0., 0., 3.60624451e+02, 8.06380798e+02, 16320., 0., 0., 0.,
          0., 0., 0., 0., 3.34463789e+04, 1.44249780e+03, 0.,
          8.06380798e+02, 6.92638086e+03, 0., 1.08187341e+03, 0. ]
      - [ 1.30463809e+04, 3.60624463e+03, 6.84236816e+03, 5.64466553e+03,
          6120., 0., 0., 0., 0., 1.80312231e+03, 5.70197314e+03,
          4.03190405e+03, 8.24276172e+03, 0., 1.44249780e+03,
          1.61276160e+03, 15300., 0., 0., 0., 0., 0., 0., 0., 0., 0., 0.,
          0., 0., 0., 3.60624451e+02, 8.06380798e+02, 9180., 0., 0., 0.,
          8.96638086e+03, 0., 1.44249780e+03, 8.06380798e+02, 26520., 0.,
          0., 0., 0., 0., 3.60624451e+02, 8.06380798e+02, 15300., 0., 0.,
          0., 0., 0., 0., 0., 3.14063809e+04, 3.30414136e+03,
          1.14039465e+03, 8.06380798e+02, 2.84638086e+03, 1.14039465e+03,
          2.94351709e+03, 0. ]
      - [ 1.40663809e+04, 3.60624463e+03, 6.84236816e+03, 5.64466553e+03,
          6120., 0., 0., 0., 8.06380798e+02, 2.88499561e+03,
          4.56157861e+03, 4.03190405e+03, 7.94638086e+03, 0.,
          1.80312231e+03, 1.61276160e+03, 14280., 0., 0., 0., 0., 0., 0.,
          0., 0., 0., 0., 0., 0., 0., 3.60624451e+02, 8.06380798e+02,
          11220., 7.21248901e+02, 2.28078931e+03, 1.61276160e+03,
          2.84638086e+03, 1.14039465e+03, 3.30414136e+03, 8.06380798e+02,
          28560., 0., 0., 0., 0., 0., 3.60624451e+02, 8.06380798e+02,
          14280., 0., 0., 0., 0., 0., 0., 0., 2.93663809e+04,
          3.30414136e+03, 1.14039465e+03, 8.06380798e+02, 2.84638086e+03,
          1.14039465e+03, 2.94351709e+03, 0. ]
      - [ 1.71263809e+04, 5.76999121e+03, 4.56157861e+03, 4.03190405e+03,
          10200., 0., 0., 0., 8.06380798e+02, 2.88499561e+03,
          1.14039465e+03, 2.41914233e+03, 1.23227617e+04, 0.,
          2.88499561e+03, 1.61276160e+03, 37740., 0., 0., 0., 0., 0., 0.,
          0., 0., 0., 0., 0., 0., 0., 1.08187341e+03, 8.06380798e+02, 0.,
          0., 0., 0., 6.92638086e+03, 1.14039465e+03, 3.30414136e+03,
          8.06380798e+02, 1.79327617e+04, 3.00203809e+03, 0., 0., 0., 0.,
          0., 0., 1020., 0., 0., 0., 0., 0., 0., 0., 40800., 0., 0., 0.,
          1.82638086e+03, 0., 3.60624451e+02, 0. ]
      - [ 3.19991426e+04, 5.04874268e+03, 2.28078931e+03, 4.03190405e+03,
          12240., 0., 0., 0., 1.61276160e+03, 3.24562012e+03,
          1.14039465e+03, 2.41914233e+03, 1.23227617e+04, 0.,
          1.80312231e+03, 2.41914233e+03, 24480., 0., 0., 0., 0., 0., 0.,
          0., 0., 0., 0., 0., 8.06380798e+02, 0., 1.44249780e+03,
          8.06380798e+02, 510., 0., 1.14039465e+03, 8.06380798e+02,
          3570., 0., 5.46788818e+03, 8.06380798e+02, 3.06827617e+04,
          3.00203809e+03, 0., 0., 0., 0., 0., 0., 0., 0., 0., 0., 0., 0.,
          0., 0., 2.73263809e+04, 1.44249780e+03, 0., 8.06380798e+02,
          3.65276172e+03, 2.28078931e+03, 7.21248901e+02, 0. ]
      - [ 2.17991426e+04, 5.40936719e+03, 3.42118408e+03, 4.83828467e+03,
          10200., 0., 0., 0., 1.61276160e+03, 3.24562012e+03,
          1.14039465e+03, 2.41914233e+03, 1.23227617e+04, 0.,
          1.80312231e+03, 2.41914233e+03, 34680., 0., 0., 0., 0., 0., 0.,
          0., 0., 0., 0., 0., 8.06380798e+02, 0., 1.44249780e+03,
          8.06380798e+02, 0., 3.60624451e+02, 1.14039465e+03,
          8.06380798e+02, 4.88638086e+03, 1.14039465e+03, 3.30414136e+03,
          8.06380798e+02, 2.20127617e+04, 3.00203809e+03, 0., 0., 0., 0.,
          0., 0., 0., 0., 0., 0., 0., 0., 0., 0., 3.54863789e+04,
          1.44249780e+03, 0., 8.06380798e+02, 6120., 0., 0., 0. ]
      - [ 3.93527617e+04, 2.88499561e+03, 0., 1.61276160e+03, 2040., 0.,
          0., 0., 1.61276160e+03, 3.24562012e+03, 1.14039465e+03,
          2.41914233e+03, 1.23227617e+04, 0., 1.80312231e+03,
          2.41914233e+03, 18360., 0., 0., 0., 0., 0., 0., 0., 0., 0., 0.,
          0., 8.06380798e+02, 0., 1.44249780e+03, 8.06380798e+02, 0., 0.,
          0., 0., 0., 0., 0., 0., 3.83327617e+04, 3.00203809e+03, 0., 0.,
          0., 0., 0., 0., 0., 0., 0., 0., 0., 0., 0., 0., 1.91663809e+04,
          2.94351709e+03, 0., 0., 4.88638086e+03, 1.14039465e+03,
          3.60624451e+02, 0. ]
      - [ 7.94638086e+03, 7.63163477e+03, 5.70197314e+03, 4.03190405e+03,
          8160., 0., 0., 0., 0., 1.44249780e+03, 5.70197314e+03,
          4.03190405e+03, 7.73276172e+03, 0., 1.44249780e+03,
          2.41914233e+03, 40800., 0., 0., 0., 0., 0., 0., 0., 0.,
          3.60624451e+02, 0., 0., 510., 0., 3.60624451e+02, 0., 0., 0.,
          0., 0., 6.92638086e+03, 1.14039465e+03, 3.30414136e+03,
          8.06380798e+02, 1.10063809e+04, 1.50101904e+03, 0., 0., 0., 0.,
          0., 0., 0., 0., 0., 0., 0., 0., 0., 0., 3.95663789e+04,
          1.50101904e+03, 0., 0., 0., 0., 0., 0. ]
      - [ 2.42663809e+04, 7.63163477e+03, 5.70197314e+03, 4.03190405e+03,
          8160., 0., 0., 0., 1.61276160e+03, 3.24562012e+03,
          1.14039465e+03, 2.41914233e+03, 1.23227617e+04, 0.,
          1.80312231e+03, 2.41914233e+03, 28560., 0., 0., 0., 0., 0., 0.,
          0., 0., 0., 0., 0., 8.06380798e+02, 0., 1.44249780e+03,
          8.06380798e+02, 0., 0., 0., 0., 6.92638086e+03, 1.14039465e+03,
          3.30414136e+03, 8.06380798e+02, 2.60927617e+04, 3.00203809e+03,
          0., 0., 0., 0., 0., 0., 0., 0., 0., 0., 0., 0., 0., 0.,
          3.14063809e+04, 1.44249780e+03, 0., 8.06380798e+02,
          3.65276172e+03, 2.28078931e+03, 7.21248901e+02, 0. ]
      - [ 1.30463809e+04, 3.60624451e+02, 0., 0., 0., 0., 0., 0., 510.,
          7.21248901e+02, 3.42118408e+03, 2.41914233e+03, 8.45638086e+03,
          1.14039465e+03, 1.80312231e+03, 0., 7140., 0., 0., 0., 0., 0.,
          0., 0., 0., 0., 0., 0., 0., 0., 3.60624451e+02, 8.06380798e+02,
          2.37563809e+04, 2.64141382e+03, 0., 0., 0., 0., 0., 0., 40800.,
          0., 0., 0., 0., 0., 2.58289258e+03, 8.06380798e+02, 7140., 0.,
          0., 0., 0., 0., 0., 0., 1.71263809e+04, 1.44249780e+03, 0.,
          8.06380798e+02, 4.88638086e+03, 1.14039465e+03, 2.94351709e+03,
          0. ]
      - [ 2.41914233e+03, 6.60828271e+03, 6.84236816e+03, 5.64466553e+03,
          2040., 0., 0., 0., 0., 7.21248901e+02, 2.28078931e+03,
          1.61276160e+03, 1.18127617e+04, 1.14039465e+03, 1.80312231e+03,
          8.06380798e+02, 1.30463809e+04, 3.60624451e+02, 0., 0., 0., 0.,
          0., 0., 0., 0., 0., 0., 0., 0., 0., 0., 2040., 0., 0., 0.,
          8.96638086e+03, 0., 1.44249780e+03, 8.06380798e+02, 16320., 0.,
          0., 0., 0., 0., 2.94351709e+03, 8.06380798e+02, 2.52863809e+04,
          2.64141382e+03, 0., 0., 0., 0., 0., 0., 40800., 0., 0., 0., 0.,
          0., 0., 0. ]
      - [ 1.18127617e+04, 1.86164355e+03, 0., 0., 0., 0., 0., 0., 0.,
          7.21248901e+02, 2.28078931e+03, 1.61276160e+03, 1.30463809e+04,
          0., 1.44249780e+03, 8.06380798e+02, 8160., 0., 0., 0., 0., 0.,
          0., 0., 0., 0., 0., 0., 0., 0., 3.60624451e+02, 8.06380798e+02,
          2.32463809e+04, 2.64141382e+03, 0., 0., 0., 0., 0., 0., 40800.,
          0., 0., 0., 8.06380798e+02, 0., 1.44249780e+03, 8.06380798e+02,
          8160., 0., 0., 0., 0., 0., 0., 0., 1.71263809e+04,
          3.30414136e+03, 1.14039465e+03, 8.06380798e+02, 2.41914233e+03,
          2.28078931e+03, 1.80312231e+03, 0. ]
      - [ 4.03190405e+03, 8.41140527e+03, 2.28078931e+03, 4.03190405e+03,
          6120., 0., 0., 0., 0., 1.08187329e+03, 3.42118408e+03,
          2.41914233e+03, 1.10063809e+04, 0., 1.44249780e+03,
          8.06380798e+02, 1.71263809e+04, 0., 0., 0., 0., 0., 0., 0., 0.,
          0., 0., 0., 0., 0., 3.60624451e+02, 8.06380798e+02,
          1.30463809e+04, 1.86164355e+03, 2.28078931e+03, 1.61276160e+03,
          2.84638086e+03, 1.14039465e+03, 3.30414136e+03, 8.06380798e+02,
          26520., 0., 0., 0., 0., 0., 2.94351709e+03, 8.06380798e+02,
          17340., 1.50101904e+03, 0., 0., 0., 0., 0., 0., 3.85463789e+04,
          1.08187341e+03, 0., 0., 2040., 1.14039465e+03, 2.58289258e+03,
          0. ]
      - [ 1.13855234e+04, 3.72328711e+03, 0., 0., 0., 0., 0., 0., 0.,
          1.08187329e+03, 3.42118408e+03, 2.41914233e+03, 1.10063809e+04,
          0., 1.80312231e+03, 1.61276160e+03, 8160., 0., 0., 0., 0., 0.,
          0., 0., 0., 0., 0., 0., 0., 0., 3.60624451e+02, 8.06380798e+02,
          1.58927617e+04, 5.28282764e+03, 0., 0., 0., 0., 0., 0., 40800.,
          0., 0., 0., 0., 0., 5.58493066e+03, 1.61276160e+03, 8160., 0.,
          0., 0., 0., 0., 0., 0., 1.91663809e+04, 1.44249780e+03, 0.,
          8.06380798e+02, 4.88638086e+03, 1.14039465e+03, 2.94351709e+03,
          0. ]
      - [ 2.41914233e+03, 8.41140527e+03, 3.42118408e+03, 3.22552319e+03,
          6120., 0., 0., 0., 0., 1.44249780e+03, 4.56157861e+03,
          3.22552319e+03, 5.69276172e+03, 2.28078931e+03, 3.66476587e+03,
          8.06380798e+02, 1.30463809e+04, 3.60624451e+02, 0., 0., 0., 0.,
          0., 0., 0., 0., 0., 0., 0., 0., 3.60624451e+02, 8.06380798e+02,
          14280., 3.60624451e+02, 1.14039465e+03, 8.06380798e+02,
          6.92638086e+03, 0., 1.44249780e+03, 8.06380798e+02, 28560., 0.,
          0., 0., 0., 0., 2.94351709e+03, 8.06380798e+02, 2.01863809e+04,
          2.64141382e+03, 0., 0., 0., 0., 0., 0., 3.65063789e+04,
          2.94351709e+03, 1.14039465e+03, 0., 1020., 1.14039465e+03,
          2.58289258e+03, 0. ]
      - [ 6.92638086e+03, 3.60624463e+03, 6.84236816e+03, 5.64466553e+03,
          4080., 0., 0., 0., 0., 2.16374658e+03, 6.84236816e+03,
          4.83828467e+03, 4.88638086e+03, 0., 1.44249780e+03,
          8.06380798e+02, 0., 0., 0., 0., 0., 0., 0., 0., 0., 0., 0., 0.,
          0., 0., 0., 0., 6120., 7.21248901e+02, 2.28078931e+03,
          1.61276160e+03, 6.92638086e+03, 0., 1.44249780e+03,
          8.06380798e+02, 18360., 0., 0., 0., 8.06380798e+02, 0.,
          1.44249780e+03, 8.06380798e+02, 40800., 0., 0., 0., 0., 0., 0.,
          0., 40800., 0., 0., 0., 0., 0., 0., 0. ]
      - [ 8.53914258e+03, 6.91038623e+03, 3.42118408e+03, 4.03190405e+03,
          6120., 0., 0., 0., 1.61276160e+03, 4.32749365e+03,
          4.56157861e+03, 4.83828467e+03, 4.88638086e+03, 0.,
          1.44249780e+03, 8.06380798e+02, 0., 0., 0., 0., 0., 0., 0., 0.,
          0., 0., 0., 0., 0., 0., 0., 0., 20400., 3.60624451e+02,
          1.14039465e+03, 8.06380798e+02, 9.47638086e+03, 0.,
          3.60624451e+02, 1.61276160e+03, 31620., 0., 0., 0.,
          8.06380798e+02, 0., 1.44249780e+03, 8.06380798e+02, 30600., 0.,
          0., 0., 0., 0., 0., 0., 3.54863789e+04, 1.44249780e+03, 0.,
          8.06380798e+02, 4.88638086e+03, 0., 4.44453613e+03,
          2.41914233e+03 ]
      - [ 6120., 0., 0., 0., 0., 0., 0., 0., 1530., 3.96686914e+03,
          4.56157861e+03, 3.22552319e+03, 4.88638086e+03, 0.,
          1.44249780e+03, 8.06380798e+02, 0., 0., 0., 0., 0., 0., 0., 0.,
          0., 0., 0., 0., 0., 0., 0., 0., 39270., 0., 0., 0., 0., 0., 0.,
          0., 40800., 0., 0., 0., 0., 0., 0., 8.06380798e+02, 14280., 0.,
          0., 0., 0., 0., 0., 0., 1.71263809e+04, 3.30414136e+03,
          1.14039465e+03, 8.06380798e+02, 2.84638086e+03, 0.,
          4.44453613e+03, 2.41914233e+03 ]
      - [ 8.53914258e+03, 6.91038623e+03, 3.42118408e+03, 4.03190405e+03,
          6120., 0., 0., 0., 1.61276160e+03, 4.32749365e+03,
          4.56157861e+03, 4.83828467e+03, 4.88638086e+03, 0.,
          1.44249780e+03, 8.06380798e+02, 0., 0., 0., 0., 0., 0., 0., 0.,
          0., 0., 0., 0., 0., 0., 0., 0., 24480., 0., 0., 0.,
          1.10063809e+04, 0., 1.44249780e+03, 8.06380798e+02, 34680., 0.,
          0., 0., 8.06380798e+02, 0., 1.44249780e+03, 8.06380798e+02,
          28560., 0., 0., 0., 0., 0., 0., 0., 3.14063809e+04,
          1.44249780e+03, 0., 8.06380798e+02, 4.88638086e+03,
          1.14039465e+03, 3.30414136e+03, 8.06380798e+02 ]
      - [ 4080., 0., 0., 0., 0., 0., 0., 0., 3.65276172e+03,
          2.88499561e+03, 0., 1.61276160e+03, 3.86638086e+03, 0.,
          1.44249780e+03, 8.06380798e+02, 0., 0., 0., 0., 0., 0., 0., 0.,
          0., 0., 0., 0., 0., 0., 0., 0., 40800., 0., 0., 0., 0., 0., 0.,
          0., 40800., 0., 0., 0., 0., 0., 0., 0., 18360., 0., 0., 0., 0.,
          0., 0., 0., 1.91663809e+04, 1.44249780e+03, 0., 8.06380798e+02,
          4.88638086e+03, 0., 1.44249780e+03, 8.06380798e+02 ]
      - [ 4.88638086e+03, 6.13061572e+03, 5.70197314e+03, 4.83828467e+03,
          2040., 0., 0., 0., 1.61276160e+03, 3.60624463e+03,
          2.28078931e+03, 3.22552319e+03, 6.92638086e+03, 0.,
          1.44249780e+03, 8.06380798e+02, 0., 0., 0., 0., 0., 0., 0., 0.,
          0., 0., 0., 0., 0., 0., 0., 0., 8160., 3.60624451e+02,
          1.14039465e+03, 8.06380798e+02, 8.96638086e+03, 0.,
          1.44249780e+03, 8.06380798e+02, 18360., 0., 0., 0.,
          2.84638086e+03, 0., 1.44249780e+03, 8.06380798e+02, 40800., 0.,
          0., 0., 0., 0., 0., 0., 40800., 0., 0., 0., 0., 0., 0., 0. ]
      - [ 6.92638086e+03, 5.04874268e+03, 2.28078931e+03, 2.41914233e+03,
          0., 0., 0., 0., 0., 4.32749365e+03, 4.56157861e+03,
          3.22552319e+03, 4.88638086e+03, 0., 1.44249780e+03,
          8.06380798e+02, 0., 0., 0., 0., 0., 0., 0., 0., 0., 0., 0., 0.,
          0., 0., 0., 0., 30600., 0., 0., 0., 0., 0., 0., 0., 40800., 0.,
          0., 0., 2.84638086e+03, 0., 1.44249780e+03, 8.06380798e+02,
          24480., 0., 0., 0., 0., 0., 0., 0., 2.52863809e+04,
          3.30414136e+03, 1.14039465e+03, 8.06380798e+02, 8.06380798e+02,
          1.14039465e+03, 3.30414136e+03, 8.06380798e+02 ]
      - [ 6120., 0., 0., 0., 0., 0., 0., 0., 1020., 3.96686914e+03,
          4.56157861e+03, 2.41914233e+03, 2.84638086e+03, 0.,
          1.44249780e+03, 8.06380798e+02, 0., 0., 0., 0., 0., 0., 0., 0.,
          0., 0., 0., 0., 0., 0., 0., 0., 37740., 0., 0., 0., 0., 0., 0.,
          0., 40800., 0., 0., 0., 1020., 0., 1.08187341e+03,
          8.06380798e+02, 18360., 0., 0., 0., 0., 0., 0., 0.,
          1.91663809e+04, 2.94351709e+03, 0., 0., 3.65276172e+03,
          1.14039465e+03, 1.80312231e+03, 8.06380798e+02 ]
      - [ 6.92638086e+03, 6.85186475e+03, 3.42118408e+03, 3.22552319e+03,
          0., 0., 0., 0., 1.61276160e+03, 3.60624463e+03, 2.28078931e+03,
          3.22552319e+03, 6.92638086e+03, 0., 1.44249780e+03,
          8.06380798e+02, 0., 0., 0., 0., 0., 0., 0., 0., 0., 0., 0., 0.,
          0., 0., 0., 0., 28560., 0., 0., 0., 0., 0., 0., 0., 40800., 0.,
          0., 0., 2.84638086e+03, 0., 1.44249780e+03, 8.06380798e+02,
          28560., 0., 0., 0., 0., 0., 0., 0., 2.73263809e+04,
          3.30414136e+03, 1.14039465e+03, 8.06380798e+02, 2.84638086e+03,
          0., 1.44249780e+03, 8.06380798e+02 ]
      - [ 1.30463809e+04, 7.63163477e+03, 5.70197314e+03, 4.03190405e+03,
          6120., 0., 0., 0., 0., 1.80312231e+03, 5.70197314e+03,
          4.03190405e+03, 8.24276172e+03, 0., 1.44249780e+03,
          1.61276160e+03, 13260., 0., 0., 0., 0., 0., 0., 0., 0., 0., 0.,
          0., 0., 0., 3.60624451e+02, 8.06380798e+02, 11220.,
          7.21248901e+02, 2.28078931e+03, 1.61276160e+03, 2.84638086e+03,
          1.14039465e+03, 3.30414136e+03, 8.06380798e+02, 30600., 0., 0.,
          0., 0., 0., 3.60624451e+02, 8.06380798e+02, 13260., 0., 0., 0.,
          0., 0., 0., 0., 2.73263809e+04, 3.30414136e+03, 1.14039465e+03,
          8.06380798e+02, 2.84638086e+03, 1.14039465e+03, 2.94351709e+03,
          0. ]
      - [ 1.91663809e+04, 4.02539038e+03, 3.42118408e+03, 2.41914233e+03,
          3060., 0., 0., 0., 8.06380798e+02, 2.52437109e+03,
          3.42118408e+03, 3.22552319e+03, 9180., 0., 3.30414136e+03,
          1.61276160e+03, 9180., 0., 0., 0., 0., 0., 0., 0., 0., 0., 0.,
          0., 0., 0., 3.60624451e+02, 8.06380798e+02, 16320., 0., 0., 0.,
          0., 0., 0., 0., 40800., 0., 0., 0., 0., 0., 3.60624451e+02,
          8.06380798e+02, 9180., 0., 0., 0., 0., 0., 0., 0.,
          1.91663809e+04, 1.80312231e+03, 1.14039465e+03, 1.61276160e+03,
          4080., 0., 2.58289258e+03, 0. ]
      - [ 1.10063809e+04, 5.10726367e+03, 6.84236816e+03, 4.83828467e+03,
          6120., 0., 0., 0., 8.06380798e+02, 2.52437109e+03,
          3.42118408e+03, 3.22552319e+03, 9180., 0., 3.30414136e+03,
          1.61276160e+03, 15300., 0., 0., 0., 0., 0., 0., 0., 0., 0., 0.,
          0., 0., 0., 3.60624451e+02, 8.06380798e+02, 10200.,
          3.60624451e+02, 1.14039465e+03, 8.06380798e+02, 4.88638086e+03,
          1.14039465e+03, 3.30414136e+03, 8.06380798e+02, 26520., 0., 0.,
          0., 0., 0., 3.60624451e+02, 8.06380798e+02, 15300., 0., 0., 0.,
          0., 0., 0., 0., 3.14063809e+04, 1.80312231e+03, 1.14039465e+03,
          1.61276160e+03, 4080., 0., 2.58289258e+03, 0. ]
      - [ 7.94638086e+03, 5.10726367e+03, 6.84236816e+03, 4.83828467e+03,
          6120., 0., 0., 0., 0., 4.32749365e+03, 4.56157861e+03,
          3.22552319e+03, 7.43638086e+03, 0., 2.94351709e+03,
          1.61276160e+03, 20400., 0., 0., 0., 0., 0., 0., 0., 0., 0., 0.,
          0., 0., 0., 0., 0., 6120., 3.60624451e+02, 1.14039465e+03,
          8.06380798e+02, 4.88638086e+03, 1.14039465e+03, 3.30414136e+03,
          8.06380798e+02, 18360., 0., 0., 0., 0., 0., 3.60624451e+02,
          8.06380798e+02, 20400., 0., 0., 0., 0., 0., 0., 0., 40800., 0.,
          0., 0., 0., 0., 0., 0. ]
      - [ 1.55963809e+04, 4.74663916e+03, 6.84236816e+03, 4.83828467e+03,
          6120., 0., 0., 0., 8.06380798e+02, 2.52437109e+03,
          3.42118408e+03, 3.22552319e+03, 9180., 0., 3.30414136e+03,
          1.61276160e+03, 11220., 0., 0., 0., 0., 0., 0., 0., 0., 0., 0.,
          0., 0., 0., 3.60624451e+02, 8.06380798e+02, 14790.,
          3.60624451e+02, 1.14039465e+03, 0., 2.04000012e+03,
          1.14039465e+03, 2.94351709e+03, 8.06380798e+02, 35700., 0., 0.,
          0., 0., 0., 3.60624451e+02, 8.06380798e+02, 11220., 0., 0., 0.,
          0., 0., 0., 0., 2.32463809e+04, 1.44249780e+03, 0.,
          8.06380798e+02, 6.92638086e+03, 0., 1.08187341e+03, 0. ]
      - [ 1.20263809e+04, 5.10726367e+03, 6.84236816e+03, 4.83828467e+03,
          6120., 0., 0., 0., 8.06380798e+02, 2.52437109e+03,
          3.42118408e+03, 3.22552319e+03, 9180., 0., 3.30414136e+03,
          1.61276160e+03, 14280., 0., 0., 0., 0., 0., 0., 0., 0., 0., 0.,
          0., 0., 0., 3.60624451e+02, 8.06380798e+02, 11220.,
          3.60624451e+02, 1.14039465e+03, 8.06380798e+02, 4.88638086e+03,
          1.14039465e+03, 3.30414136e+03, 8.06380798e+02, 28560., 0., 0.,
          0., 0., 0., 3.60624451e+02, 8.06380798e+02, 14280., 0., 0., 0.,
          0., 0., 0., 0., 2.93663809e+04, 1.44249780e+03, 0.,
          8.06380798e+02, 6.92638086e+03, 0., 1.08187341e+03, 0. ]
      - [ 2.84638086e+03, 3.30414136e+03, 1.14039465e+03, 8.06380798e+02,
          12240., 0., 0., 0., 0., 0., 0., 0., 1.38527617e+04,
          1.14039465e+03, 1.80312231e+03, 8.06380798e+02, 2.07791426e+04,
          1.16570254e+04, 4.56157861e+03, 4.03190405e+03, 8.96638086e+03,
          0., 1.44249780e+03, 8.06380798e+02, 6.49914258e+03,
          1.05751523e+04, 1.14039465e+03, 1.61276160e+03, 1.50863809e+04,
          0., 1.44249780e+03, 8.06380798e+02, 1.26191426e+04,
          4.32749365e+03, 0., 2.41914233e+03, 6.49914258e+03,
          3.42118408e+03, 1.27974199e+04, 2.41914233e+03, 1.26191426e+04,
          4.50305713e+03, 0., 0., 5.26552344e+03, 3.42118408e+03,
          2.52437109e+03, 8.06380798e+02, 1020., 7.21248901e+02,
          2.28078931e+03, 1.61276160e+03, 1.26191426e+04, 2.28078931e+03,
          2.16374683e+03, 8.06380798e+02, 7.51914258e+03, 9.85390332e+03,
          4.56157861e+03, 3.22552319e+03, 1.10063809e+04, 2.28078931e+03,
          3.60624451e+02, 0. ]
      - [ 2.84638086e+03, 1.44249780e+03, 0., 8.06380798e+02, 14280., 0.,
          0., 0., 0., 0., 0., 0., 1.30463809e+04, 1.14039465e+03,
          3.30414136e+03, 8.06380798e+02, 2.13719043e+04, 1.24367959e+04,
          2.28078931e+03, 3.22552319e+03, 1.10063809e+04, 0.,
          1.44249780e+03, 8.06380798e+02, 1.01519043e+04, 8.83055078e+03,
          0., 1.61276160e+03, 9.77276172e+03, 2.28078931e+03,
          1.80312231e+03, 8.06380798e+02, 1.26191426e+04, 4.38601465e+03,
          0., 1.61276160e+03, 8.53914258e+03, 2.28078931e+03,
          1.10528193e+04, 4.03190405e+03, 1.18127617e+04, 3.00203809e+03,
          0., 0., 6.49914258e+03, 2.28078931e+03, 2.16374683e+03,
          8.06380798e+02, 0., 2.16374683e+03, 2.28078931e+03,
          1.61276160e+03, 1.50863809e+04, 0., 1.44249780e+03,
          8.06380798e+02, 6.71276172e+03, 1.12378799e+04, 4.56157861e+03,
          3.22552319e+03, 9180., 0., 0., 0. ]
      - [ 2.84638086e+03, 5.10726367e+03, 2.28078931e+03, 1.61276160e+03,
          1.10063809e+04, 1.14039465e+03, 3.60624451e+02, 0., 0., 0., 0.,
          0., 1.26191426e+04, 2.28078931e+03, 2.16374683e+03,
          8.06380798e+02, 1.87391426e+04, 1.38792930e+04, 2.28078931e+03,
          1.61276160e+03, 8.96638086e+03, 0., 1.44249780e+03,
          8.06380798e+02, 6.49914258e+03, 1.05751523e+04, 1.14039465e+03,
          1.61276160e+03, 1.50863809e+04, 0., 1.44249780e+03,
          8.06380798e+02, 1.26191426e+04, 5.04874268e+03, 2.28078931e+03,
          4.03190405e+03, 9.77276172e+03, 1.14039465e+03, 1.06921943e+04,
          4.03190405e+03, 1.34255234e+04, 8.88907227e+03, 0., 0.,
          6.49914258e+03, 2.28078931e+03, 2.16374683e+03, 8.06380798e+02,
          0., 0., 0., 0., 1.26191426e+04, 2.28078931e+03, 2.16374683e+03,
          8.06380798e+02, 5.69276172e+03, 5.82851270e+03, 4.56157861e+03,
          4.03190405e+03, 1.38527617e+04, 2.28078931e+03, 7.21248901e+02,
          0. ]
      - [ 5.47914258e+03, 6.13061572e+03, 2.28078931e+03, 3.22552319e+03,
          9180., 0., 0., 0., 0., 0., 0., 0., 1.30463809e+04,
          1.14039465e+03, 3.30414136e+03, 8.06380798e+02, 1.87391426e+04,
          7.38805322e+03, 0., 0., 8.96638086e+03, 0., 1.44249780e+03,
          8.06380798e+02, 1.01519043e+04, 7.32953174e+03, 0.,
          2.41914233e+03, 1.50863809e+04, 1.14039465e+03, 3.30414136e+03,
          8.06380798e+02, 1.15991426e+04, 6.54976172e+03, 2.28078931e+03,
          3.22552319e+03, 5.69276172e+03, 2.28078931e+03, 1.06921943e+04,
          4.03190405e+03, 1.52519043e+04, 1.10528193e+04, 2.28078931e+03,
          2.41914233e+03, 8.24276172e+03, 1.14039465e+03, 3.60624463e+03,
          1.61276160e+03, 0., 0., 0., 0., 1.50863818e+04, 1.14039465e+03,
          1.80312231e+03, 0., 3.65276172e+03, 3.66476587e+03,
          2.28078931e+03, 2.41914233e+03, 14280., 0., 0., 0. ]
      - [ 2.84638086e+03, 1.80312231e+03, 1.14039465e+03, 1.61276160e+03,
          1.91663809e+04, 1.14039465e+03, 3.60624451e+02, 0., 0.,
          3.60624451e+02, 1.14039465e+03, 8.06380798e+02, 20400., 0.,
          2.94351709e+03, 8.06380798e+02, 2.13719043e+04, 1.20761709e+04,
          1.02635518e+04, 8.87018848e+03, 8.96638086e+03, 1.14039465e+03,
          3.30414136e+03, 8.06380798e+02, 6.49914258e+03, 6.91038623e+03,
          3.42118408e+03, 4.03190405e+03, 13260., 0., 1.08187341e+03,
          8.06380798e+02, 1.10063809e+04, 3.24562012e+03, 1.14039465e+03,
          1.61276160e+03, 1.26191426e+04, 1.14039465e+03, 6.18913721e+03,
          2.41914233e+03, 1.79327617e+04, 2.88499561e+03, 0.,
          1.61276160e+03, 8.06380798e+02, 1.14039465e+03, 9.07413281e+03,
          8.06380798e+02, 0., 1.80312231e+03, 1.14039465e+03,
          8.06380798e+02, 1.87391426e+04, 2.28078931e+03, 2.16374683e+03,
          8.06380798e+02, 8.32552344e+03, 9.85390332e+03, 4.56157861e+03,
          4.03190405e+03, 12240., 0., 0., 0. ]
      - [ 4.88638086e+03, 1.44249780e+03, 0., 8.06380798e+02, 18360., 0.,
          0., 0., 0., 0., 0., 0., 1.91663809e+04, 0., 1.44249780e+03,
          8.06380798e+02, 1.42319043e+04, 9.49327832e+03, 6.84236816e+03,
          7.25742725e+03, 1.30463809e+04, 0., 1.44249780e+03,
          8.06380798e+02, 4.88638086e+03, 6.91038623e+03, 3.42118408e+03,
          2.41914233e+03, 2.07791426e+04, 2.28078931e+03, 2.16374683e+03,
          8.06380798e+02, 2.84638086e+03, 9.07413281e+03, 1.14039465e+03,
          8.06380798e+02, 1.01519043e+04, 5.70197314e+03, 7.63163477e+03,
          8.06380798e+02, 1.30463809e+04, 4.38601465e+03, 0., 0.,
          6.92638086e+03, 0., 7.32953174e+03, 2.41914233e+03, 0.,
          7.21248901e+02, 2.28078931e+03, 1.61276160e+03, 1.91663809e+04,
          1.14039465e+03, 3.30414136e+03, 8.06380798e+02, 8.06380798e+02,
          1.01560059e+04, 9.12315723e+03, 6.45104639e+03, 18360., 0., 0.,
          0. ]
      - [ 2.84638086e+03, 3.30414136e+03, 1.14039465e+03, 8.06380798e+02,
          1.38527617e+04, 2.28078931e+03, 7.21248901e+02, 0., 0., 0., 0.,
          0., 1.91663809e+04, 0., 1.44249780e+03, 8.06380798e+02,
          1.26191426e+04, 1.23782744e+04, 6.84236816e+03, 5.64466553e+03,
          1.30463809e+04, 0., 1.44249780e+03, 8.06380798e+02,
          4.88638086e+03, 5.76999121e+03, 4.56157861e+03, 4.03190405e+03,
          1.87391426e+04, 2.28078931e+03, 2.16374683e+03, 8.06380798e+02,
          2.84638086e+03, 9.07413281e+03, 1.14039465e+03, 8.06380798e+02,
          1.26191426e+04, 3.42118408e+03, 6.91038623e+03, 8.06380798e+02,
          1.30463809e+04, 4.38601465e+03, 0., 0., 4.88638086e+03,
          1.14039465e+03, 9.07413281e+03, 8.06380798e+02, 0.,
          7.21248901e+02, 2.28078931e+03, 1.61276160e+03, 1.91663809e+04,
          1.14039465e+03, 3.30414136e+03, 8.06380798e+02, 8.06380798e+02,
          1.23197529e+04, 6.84236816e+03, 4.83828467e+03, 20400., 0., 0.,
          0. ]
      - [ 3.86638086e+03, 1.04581094e+04, 6.84236816e+03, 4.83828467e+03,
          1.12200010e+04, 0., 0., 0., 0., 2.52437109e+03, 3.42118408e+03,
          2.41914233e+03, 1.66991426e+04, 2.28078931e+03, 2.16374683e+03,
          8.06380798e+02, 1.05791426e+04, 4.50305713e+03, 0., 0.,
          1.10063809e+04, 0., 1.44249780e+03, 8.06380798e+02,
          4.88638086e+03, 7.27101074e+03, 0., 0., 1.91663809e+04,
          1.14039465e+03, 3.30414136e+03, 8.06380798e+02, 4.45914258e+03,
          7.38805273e+03, 4.56157861e+03, 3.22552319e+03, 6.71276172e+03,
          3.42118408e+03, 9.43475781e+03, 8.06380798e+02, 1.40663809e+04,
          8.35288379e+03, 7.98276270e+03, 5.64466553e+03, 8.96638086e+03,
          1.14039465e+03, 6.18913721e+03, 8.06380798e+02, 0., 0., 0., 0.,
          1.91663809e+04, 1.14039465e+03, 1.80312231e+03, 0., 2040.,
          1.80312231e+03, 1.14039465e+03, 8.06380798e+02, 18360., 0., 0.,
          0. ]
      - [ 3.35638086e+03, 1.05166309e+04, 6.84236816e+03, 4.83828467e+03,
          1.76363809e+04, 1.14039465e+03, 0., 0., 510., 7.21248901e+02,
          2.28078931e+03, 1.61276160e+03, 1.91663809e+04, 0.,
          1.44249780e+03, 8.06380798e+02, 1.26191426e+04, 4.44453613e+03,
          0., 8.06380798e+02, 1.10063809e+04, 0., 1.44249780e+03,
          8.06380798e+02, 4.88638086e+03, 5.04874268e+03, 2.28078931e+03,
          2.41914233e+03, 1.91663809e+04, 1.14039465e+03, 3.30414136e+03,
          8.06380798e+02, 2.84638086e+03, 1.19591289e+04, 1.14039465e+03,
          8.06380798e+02, 1.42319043e+04, 5.70197314e+03, 4.74663916e+03,
          8.06380798e+02, 1.50863809e+04, 8.35288379e+03, 7.98276270e+03,
          5.64466553e+03, 6.49914258e+03, 3.42118408e+03, 6.91038623e+03,
          8.06380798e+02, 0., 0., 0., 0., 1.91663809e+04, 1.14039465e+03,
          3.30414136e+03, 8.06380798e+02, 8.06380798e+02, 3.30414136e+03,
          1.14039465e+03, 8.06380798e+02, 18360., 0., 0., 0. ]
      - [ 3.35638086e+03, 3.96686914e+03, 9.12315723e+03, 7.25742725e+03,
          1.86563809e+04, 1.14039465e+03, 0., 0., 510., 3.60624451e+02,
          0., 0., 2.20127617e+04, 1.14039465e+03, 1.80312231e+03,
          8.06380798e+02, 1.43146660e+04, 1.02730488e+04, 1.14039465e+03,
          2.41914233e+03, 1.91663809e+04, 0., 2.52437134e+03,
          1.61276160e+03, 1.54655234e+04, 6.13061572e+03, 2.28078931e+03,
          4.83828467e+03, 28560., 0., 2.16374683e+03, 2.41914233e+03,
          8.53914258e+03, 6.54976172e+03, 2.28078931e+03, 3.22552319e+03,
          1.05791426e+04, 1.14039465e+03, 9.19117578e+03, 4.03190405e+03,
          1.42319043e+04, 9.55179980e+03, 3.42118408e+03, 4.03190405e+03,
          7.30552344e+03, 1.14039465e+03, 4.68811816e+03, 2.41914233e+03,
          0., 0., 0., 0., 1.76363809e+04, 0., 1.80312231e+03,
          1.61276160e+03, 6.49914258e+03, 3.60624463e+03, 0.,
          1.61276160e+03, 16830., 0., 0., 0. ]
      - [ 8.53914258e+03, 5.82851270e+03, 4.56157861e+03, 4.83828467e+03,
          4080., 0., 0., 0., 8.06380798e+02, 1.80312231e+03, 0.,
          8.06380798e+02, 2.42663809e+04, 0., 1.44249780e+03,
          8.06380798e+02, 1.24055234e+04, 7.32953174e+03, 1.14039465e+03,
          1.61276160e+03, 1.86563809e+04, 0., 2.52437134e+03,
          1.61276160e+03, 1.87391426e+04, 6.54976172e+03, 3.42118408e+03,
          4.03190405e+03, 24990., 0., 2.16374683e+03, 1.61276160e+03,
          7.30552344e+03, 7.63163477e+03, 1.14039465e+03, 3.22552319e+03,
          3.43914233e+03, 0., 7.32953174e+03, 4.03190405e+03,
          1.70782852e+04, 1.09942979e+04, 3.42118408e+03, 4.83828467e+03,
          7.51914258e+03, 1.14039465e+03, 4.02539038e+03, 4.03190405e+03,
          0., 7.21248901e+02, 2.28078931e+03, 1.61276160e+03,
          1.10063809e+04, 1.14039465e+03, 3.30414136e+03, 8.06380798e+02,
          4.88638086e+03, 1.80312231e+03, 0., 8.06380798e+02,
          1.63200010e+04, 0., 0., 0. ]
      - [ 5.69276172e+03, 4.32749365e+03, 4.56157861e+03, 4.83828467e+03,
          25500., 0., 0., 0., 0., 0., 0., 0., 2.32463809e+04, 0.,
          1.44249780e+03, 8.06380798e+02, 1.50382852e+04, 9.55179980e+03,
          1.14039465e+03, 2.41914233e+03, 1.91663809e+04, 0.,
          4.02539038e+03, 1.61276160e+03, 1.26191426e+04, 7.63163477e+03,
          5.70197314e+03, 5.64466553e+03, 2.30327617e+04, 1.14039465e+03,
          1.80312231e+03, 1.61276160e+03, 1.09582852e+04, 3.60624463e+03,
          0., 3.22552319e+03, 1.32119043e+04, 2.28078931e+03,
          8.05078076e+03, 4.03190405e+03, 1.78846660e+04, 6.96890723e+03,
          1.14039465e+03, 3.22552319e+03, 7.51914258e+03, 1.14039465e+03,
          6.18913721e+03, 2.41914233e+03, 0., 0., 0., 0., 1.71263809e+04,
          0., 1.44249780e+03, 8.06380798e+02, 4.88638086e+03,
          3.60624463e+03, 2.28078931e+03, 2.41914233e+03, 1.63200010e+04,
          0., 0., 0. ]
      - [ 4.88638086e+03, 2.52437109e+03, 2.28078931e+03, 2.41914233e+03,
          1.34255234e+04, 4.56157861e+03, 1.44249780e+03, 0., 0., 0., 0.,
          0., 2.20127617e+04, 1.14039465e+03, 1.80312231e+03,
          8.06380798e+02, 1.50382852e+04, 1.27974199e+04, 6.84236816e+03,
          7.25742725e+03, 1.86563809e+04, 0., 1.44249780e+03,
          8.06380798e+02, 9.34552344e+03, 6.49124023e+03, 2.28078931e+03,
          4.83828467e+03, 16320., 0., 2.16374683e+03, 1.61276160e+03,
          8.53914258e+03, 5.82851270e+03, 1.14039465e+03, 2.41914233e+03,
          1.05791426e+04, 1.14039465e+03, 9.19117578e+03, 4.03190405e+03,
          1.26191426e+04, 4.44453613e+03, 0., 8.06380798e+02,
          5.26552344e+03, 1.14039465e+03, 4.68811816e+03, 2.41914233e+03,
          8.06380798e+02, 1.80312231e+03, 0., 8.06380798e+02,
          1.71263809e+04, 0., 1.44249780e+03, 8.06380798e+02,
          1.03655234e+04, 7.99225928e+03, 3.42118408e+03, 4.03190405e+03,
          10200., 0., 0., 0. ]
      - [ 5.69276172e+03, 1.80312231e+03, 0., 8.06380798e+02, 22440., 0.,
          0., 0., 0., 0., 0., 0., 2.32463809e+04, 0., 1.44249780e+03,
          8.06380798e+02, 1.14682852e+04, 1.42984395e+04, 5.70197314e+03,
          6.45104639e+03, 2.12063809e+04, 0., 1.44249780e+03,
          8.06380798e+02, 9.85552344e+03, 8.35288379e+03, 3.42118408e+03,
          4.83828467e+03, 2.68163809e+04, 0., 2.88499561e+03,
          2.41914233e+03, 8.11190381e+03, 5.10726367e+03, 1.14039465e+03,
          3.22552319e+03, 1.11719043e+04, 2.28078931e+03, 8.05078076e+03,
          4.03190405e+03, 1.34255234e+04, 5.88703418e+03, 0.,
          1.61276160e+03, 5.47914258e+03, 1.14039465e+03, 4.02539038e+03,
          4.03190405e+03, 8.06380798e+02, 1.44249780e+03, 3.42118408e+03,
          2.41914233e+03, 7.73276172e+03, 2.28078931e+03, 3.66476587e+03,
          8.06380798e+02, 8.53914258e+03, 5.04874268e+03, 2.28078931e+03,
          4.03190405e+03, 20400., 0., 0., 0. ]
      - [ 4.88638086e+03, 1.44249780e+03, 0., 8.06380798e+02,
          1.63200010e+04, 0., 0., 0., 0., 0., 0., 0., 1.46591426e+04,
          2.28078931e+03, 2.16374683e+03, 8.06380798e+02, 1.42319043e+04,
          1.68813320e+04, 6.84236816e+03, 4.83828467e+03, 9.77276172e+03,
          1.14039465e+03, 1.80312231e+03, 8.06380798e+02, 4.03190405e+03,
          1.25538379e+04, 2.28078931e+03, 1.61276160e+03, 0., 0.,
          3.00203809e+03, 1.61276160e+03, 1.05791426e+04, 4.50305713e+03,
          0., 0., 1.01519043e+04, 4.56157861e+03, 8.88907227e+03,
          4.03190405e+03, 1.18127617e+04, 3.00203809e+03, 0., 0.,
          6.92638086e+03, 1.14039465e+03, 3.30414136e+03, 8.06380798e+02,
          0., 5.40936719e+03, 3.42118408e+03, 2.41914233e+03,
          1.46591426e+04, 2.28078931e+03, 2.16374683e+03, 8.06380798e+02,
          5.69276172e+03, 1.23782744e+04, 6.84236816e+03, 4.83828467e+03,
          0., 0., 0., 0. ]
      - [ 4.88638086e+03, 1.80312231e+03, 0., 8.06380798e+02,
          1.63200010e+04, 0., 0., 0., 0., 0., 0., 0., 1.71263809e+04, 0.,
          1.44249780e+03, 8.06380798e+02, 1.38046660e+04, 1.47761064e+04,
          5.70197314e+03, 4.83828467e+03, 1.30463809e+04, 0.,
          1.44249780e+03, 8.06380798e+02, 4.03190405e+03, 1.50782090e+04,
          1.14039465e+03, 8.06380798e+02, 1.91663809e+04, 0.,
          4.44453613e+03, 2.41914233e+03, 1.05791426e+04, 7.74867773e+03,
          2.28078931e+03, 1.61276160e+03, 1.01519043e+04, 4.56157861e+03,
          8.88907227e+03, 4.03190405e+03, 1.26191426e+04, 6.30617969e+03,
          1.14039465e+03, 8.06380798e+02, 4.45914258e+03, 3.42118408e+03,
          4.02539038e+03, 8.06380798e+02, 0., 1.80312231e+03, 0., 0.,
          1.71263809e+04, 1.14039465e+03, 3.30414136e+03, 8.06380798e+02,
          2.84638086e+03, 8.35288379e+03, 7.98276270e+03, 5.64466553e+03,
          1.63200010e+04, 0., 0., 0. ]
      - [ 4.88638086e+03, 1.80312231e+03, 0., 8.06380798e+02,
          1.63200010e+04, 0., 0., 0., 0., 0., 0., 0., 1.50863809e+04,
          1.14039465e+03, 3.30414136e+03, 8.06380798e+02, 1.21919043e+04,
          1.65207070e+04, 6.84236816e+03, 4.83828467e+03, 8.96638086e+03,
          1.14039465e+03, 1.80312231e+03, 0., 7.30552344e+03,
          1.10528193e+04, 2.28078931e+03, 1.61276160e+03, 1.91663809e+04,
          0., 4.44453613e+03, 2.41914233e+03, 8.53914258e+03,
          8.83055078e+03, 1.14039465e+03, 8.06380798e+02, 1.01519043e+04,
          4.56157861e+03, 8.88907227e+03, 4.03190405e+03, 1.26191426e+04,
          6.30617969e+03, 1.14039465e+03, 8.06380798e+02, 4.88638086e+03,
          1.14039465e+03, 6.18913721e+03, 8.06380798e+02, 0.,
          7.21248901e+02, 1.14039465e+03, 8.06380798e+02, 1.91663809e+04,
          0., 1.44249780e+03, 8.06380798e+02, 2.41914233e+03,
          1.20176494e+04, 5.70197314e+03, 4.83828467e+03, 1.63200010e+04,
          0., 0., 0. ]
      - [ 4.88638086e+03, 1.44249780e+03, 0., 8.06380798e+02,
          1.63200010e+04, 0., 0., 0., 0., 0., 0., 0., 1.46591426e+04,
          2.28078931e+03, 2.16374683e+03, 8.06380798e+02, 1.32119043e+04,
          1.72419551e+04, 7.98276270e+03, 5.64466553e+03, 8.16000049e+03,
          0., 2.94351709e+03, 8.06380798e+02, 4.03190405e+03,
          1.25538379e+04, 2.28078931e+03, 1.61276160e+03, 9180., 0.,
          4.08391162e+03, 2.41914233e+03, 8.53914258e+03, 7.38805322e+03,
          0., 0., 1.01519043e+04, 4.56157861e+03, 8.88907227e+03,
          4.03190405e+03, 1.26191426e+04, 4.50305713e+03, 0., 0.,
          6.92638086e+03, 0., 4.44453613e+03, 2.41914233e+03, 0.,
          2.52437109e+03, 3.42118408e+03, 2.41914233e+03, 1.34255234e+04,
          3.42118408e+03, 2.52437109e+03, 8.06380798e+02, 3.86638086e+03,
          1.23197529e+04, 7.98276270e+03, 4.83828467e+03, 8.16000049e+03,
          0., 0., 0. ]
      - [ 5.47914258e+03, 6.13061572e+03, 2.28078931e+03, 3.22552319e+03,
          9180., 0., 0., 0., 0., 0., 0., 0., 1.30463809e+04,
          1.14039465e+03, 3.30414136e+03, 8.06380798e+02, 1.66991426e+04,
          7.38805322e+03, 0., 0., 8.96638086e+03, 0., 1.44249780e+03,
          8.06380798e+02, 1.01519043e+04, 7.32953174e+03, 0.,
          2.41914233e+03, 1.30463809e+04, 1.14039465e+03, 6.18913721e+03,
          8.06380798e+02, 1.26191426e+04, 6.54976172e+03, 2.28078931e+03,
          3.22552319e+03, 4.67276172e+03, 2.28078931e+03, 1.06921943e+04,
          4.03190405e+03, 1.32119043e+04, 1.29144629e+04, 3.42118408e+03,
          2.41914233e+03, 6.49914258e+03, 2.28078931e+03, 2.16374683e+03,
          8.06380798e+02, 0., 0., 0., 0., 1.50863809e+04, 0.,
          1.44249780e+03, 8.06380798e+02, 4.88638086e+03, 2.16374683e+03,
          2.28078931e+03, 2.41914233e+03, 14280., 0., 0., 0. ]
      - [ 2.84638086e+03, 1.26803779e+04, 3.42118408e+03, 2.41914233e+03,
          0., 0., 0., 0., 0., 4.32749365e+03, 0., 0., 1.26191426e+04,
          2.28078931e+03, 2.16374683e+03, 8.06380798e+02, 1.79327617e+04,
          3.00203809e+03, 0., 0., 8.96638086e+03, 0., 1.44249780e+03,
          8.06380798e+02, 8.53914258e+03, 6.60828271e+03, 2.28078931e+03,
          2.41914233e+03, 1.05791426e+04, 2.28078931e+03, 2.16374683e+03,
          8.06380798e+02, 1.26191426e+04, 5.04874268e+03, 2.28078931e+03,
          4.03190405e+03, 0., 0., 7.50509570e+03, 4.03190405e+03,
          1.42319043e+04, 1.32750869e+04, 4.56157861e+03, 3.22552319e+03,
          8.53914258e+03, 2.28078931e+03, 2.16374683e+03, 8.06380798e+02,
          0., 0., 0., 0., 1.50863809e+04, 0., 1.44249780e+03,
          8.06380798e+02, 4.88638086e+03, 1.44249780e+03, 0.,
          8.06380798e+02, 1.30463809e+04, 1.14039465e+03, 3.60624451e+02,
          0. ]
      - [ 5.69276172e+03, 7.93373828e+03, 2.28078931e+03, 3.22552319e+03,
          2040., 0., 0., 0., 0., 1.80312231e+03, 0., 0., 1.30463809e+04,
          1.14039465e+03, 3.30414136e+03, 8.06380798e+02, 1.87391426e+04,
          4.50305713e+03, 0., 0., 8.96638086e+03, 0., 1.44249780e+03,
          8.06380798e+02, 8.53914258e+03, 8.77202930e+03, 1.14039465e+03,
          1.61276160e+03, 1.26191426e+04, 2.28078931e+03, 2.16374683e+03,
          8.06380798e+02, 1.26191426e+04, 6.54976172e+03, 2.28078931e+03,
          3.22552319e+03, 0., 0., 1.03900908e+04, 4.03190405e+03,
          1.42319043e+04, 1.29144629e+04, 4.56157861e+03, 3.22552319e+03,
          8.53914258e+03, 2.28078931e+03, 2.16374683e+03, 8.06380798e+02,
          0., 0., 0., 0., 1.50863809e+04, 0., 1.44249780e+03,
          8.06380798e+02, 4.88638086e+03, 1.80312231e+03, 0.,
          8.06380798e+02, 14280., 0., 0., 0. ]
      - [ 5.47914258e+03, 6.13061572e+03, 2.28078931e+03, 3.22552319e+03,
          9180., 0., 0., 0., 0., 0., 0., 0., 1.30463809e+04,
          1.14039465e+03, 3.30414136e+03, 8.06380798e+02, 1.87391426e+04,
          7.38805322e+03, 0., 0., 8.96638086e+03, 0., 1.44249780e+03,
          8.06380798e+02, 1.01519043e+04, 7.32953174e+03, 0.,
          2.41914233e+03, 1.50863809e+04, 1.14039465e+03, 3.30414136e+03,
          8.06380798e+02, 1.26191426e+04, 6.54976172e+03, 2.28078931e+03,
          3.22552319e+03, 5.69276172e+03, 2.28078931e+03, 1.06921943e+04,
          4.03190405e+03, 1.52519043e+04, 1.10528193e+04, 2.28078931e+03,
          2.41914233e+03, 8.53914258e+03, 2.28078931e+03, 2.16374683e+03,
          8.06380798e+02, 0., 0., 0., 0., 1.50863809e+04, 0.,
          1.44249780e+03, 8.06380798e+02, 4.88638086e+03, 2.16374683e+03,
          2.28078931e+03, 2.41914233e+03, 14280., 0., 0., 0. ]
      - [ 4.45914258e+03, 1.06336729e+04, 5.70197314e+03, 4.03190405e+03,
          0., 0., 0., 0., 2.41914233e+03, 6.18913721e+03, 1.14039465e+03,
          2.41914233e+03, 0., 0., 0., 0., 14280., 0., 0., 0.,
          8.96638086e+03, 0., 1.44249780e+03, 8.06380798e+02,
          5.69276172e+03, 3.00203809e+03, 0., 0., 1.30463809e+04,
          1.14039465e+03, 3.30414136e+03, 8.06380798e+02, 1.30463809e+04,
          7.93373828e+03, 2.28078931e+03, 2.41914233e+03, 0., 0.,
          3.00203809e+03, 1.61276160e+03, 1.62719043e+04, 1.17740674e+04,
          4.56157861e+03, 4.03190405e+03, 4.45914258e+03, 2.28078931e+03,
          2.16374683e+03, 8.06380798e+02, 0., 0., 0., 0., 1.30463809e+04,
          1.14039465e+03, 3.30414136e+03, 8.06380798e+02, 4.67276172e+03,
          3.60624451e+02, 0., 8.06380798e+02, 1.35563809e+04,
          1.14039465e+03, 3.60624451e+02, 0. ]
      - [ 2.84638086e+03, 1.26803779e+04, 3.42118408e+03, 2.41914233e+03,
          0., 0., 0., 0., 0., 4.32749365e+03, 0., 0., 1.26191426e+04,
          2.28078931e+03, 2.16374683e+03, 8.06380798e+02, 1.79327617e+04,
          3.00203809e+03, 0., 0., 7.73276172e+03, 1.14039465e+03,
          1.80312231e+03, 8.06380798e+02, 6.49914258e+03, 6.24765820e+03,
          1.14039465e+03, 1.61276160e+03, 1.38527617e+04, 1.14039465e+03,
          1.80312231e+03, 8.06380798e+02, 1.26191426e+04, 5.04874268e+03,
          2.28078931e+03, 4.03190405e+03, 0., 0., 7.38805322e+03,
          2.41914233e+03, 1.62719043e+04, 1.32750869e+04, 4.56157861e+03,
          3.22552319e+03, 8.53914258e+03, 2.28078931e+03, 2.16374683e+03,
          8.06380798e+02, 0., 0., 0., 0., 1.38527617e+04, 1.14039465e+03,
          1.80312231e+03, 8.06380798e+02, 4.88638086e+03, 1.44249780e+03,
          0., 8.06380798e+02, 1.30463809e+04, 1.14039465e+03,
          3.60624451e+02, 0. ]
      - [ 3.86638086e+03, 9.37623633e+03, 3.42118408e+03, 2.41914233e+03,
          7140., 0., 0., 0., 0., 3.60624451e+02, 0., 0., 1.26191426e+04,
          2.28078931e+03, 2.16374683e+03, 8.06380798e+02, 1.66991426e+04,
          7.38805322e+03, 0., 0., 8.96638086e+03, 0., 1.44249780e+03,
          8.06380798e+02, 8.53914258e+03, 1.02145273e+04, 1.14039465e+03,
          1.61276160e+03, 1.05791426e+04, 3.42118408e+03, 4.02539038e+03,
          8.06380798e+02, 1.26191426e+04, 6.18913721e+03, 1.14039465e+03,
          2.41914233e+03, 6120., 1.14039465e+03, 1.17155469e+04,
          2.41914233e+03, 1.52519043e+04, 1.25538379e+04, 3.42118408e+03,
          2.41914233e+03, 8.53914258e+03, 2.28078931e+03, 2.16374683e+03,
          8.06380798e+02, 0., 0., 0., 0., 1.50863809e+04, 0.,
          1.44249780e+03, 8.06380798e+02, 4.88638086e+03, 2.16374683e+03,
          1.14039465e+03, 1.61276160e+03, 14280., 0., 0., 0. ]
      - [ 2.84638086e+03, 3.30414136e+03, 1.14039465e+03, 8.06380798e+02,
          20400., 0., 0., 0., 0., 0., 0., 0., 2.32463809e+04, 0.,
          1.44249780e+03, 8.06380798e+02, 1.47419043e+04, 1.17155469e+04,
          7.98276270e+03, 7.25742725e+03, 3060., 0., 0., 0.,
          1.05791426e+04, 8.41140527e+03, 3.42118408e+03, 3.22552319e+03,
          2040., 0., 0., 0., 6120., 0., 0., 0., 1.01519043e+04,
          3.42118408e+03, 6.91038623e+03, 2.41914233e+03, 10200., 0., 0.,
          0., 2.41914233e+03, 2.28078931e+03, 5.04874268e+03,
          8.06380798e+02, 9.04914258e+03, 4.32749365e+03, 0.,
          3.22552319e+03, 9.98638086e+03, 0., 3.60624451e+02, 0.,
          1.24055234e+04, 1.05751523e+04, 2.28078931e+03, 4.03190405e+03,
          4590., 0., 0., 0. ]
      - [ 6.28552344e+03, 5.76999121e+03, 4.56157861e+03, 6.45104639e+03,
          5100., 0., 0., 0., 0., 7.21248901e+02, 2.28078931e+03,
          1.61276160e+03, 2.52863809e+04, 0., 1.44249780e+03,
          8.06380798e+02, 1.87391426e+04, 5.16578516e+03, 2.28078931e+03,
          2.41914233e+03, 8.96638086e+03, 0., 1.44249780e+03,
          8.06380798e+02, 6.49914258e+03, 9.19117578e+03, 1.14039465e+03,
          8.06380798e+02, 2.32463809e+04, 0., 1.44249780e+03,
          8.06380798e+02, 1.44455234e+04, 4.74663916e+03, 0.,
          1.61276160e+03, 4.16276172e+03, 1.14039465e+03, 3.24562012e+03,
          8.06380798e+02, 2.44319043e+04, 1.09357764e+04, 2.28078931e+03,
          4.03190405e+03, 6.49914258e+03, 2.28078931e+03, 5.04874268e+03,
          8.06380798e+02, 0., 0., 0., 0., 1.87391426e+04, 2.28078931e+03,
          2.16374683e+03, 8.06380798e+02, 2.84638086e+03, 2.16374683e+03,
          2.28078931e+03, 2.41914233e+03, 1.63200010e+04, 0., 0., 0. ]
      - [ 2.84638086e+03, 3.66476587e+03, 1.14039465e+03, 1.61276160e+03,
          21420., 0., 0., 0., 0., 0., 0., 0., 2.32463809e+04, 0.,
          1.44249780e+03, 8.06380798e+02, 2.03519043e+04, 9.85390332e+03,
          9.12315723e+03, 8.06380811e+03, 9.98638086e+03, 1.14039465e+03,
          3.30414136e+03, 8.06380798e+02, 8.11190381e+03, 8.77202930e+03,
          4.56157861e+03, 5.64466553e+03, 1.75055234e+04, 3.42118408e+03,
          2.52437109e+03, 8.06380798e+02, 1.26191426e+04, 5.82851270e+03,
          1.14039465e+03, 1.61276160e+03, 1.01519043e+04, 3.42118408e+03,
          6.91038623e+03, 2.41914233e+03, 1.87391426e+04, 4.38601465e+03,
          0., 1.61276160e+03, 4.45914258e+03, 0., 4.32749365e+03,
          2.41914233e+03, 0., 1.44249780e+03, 3.42118408e+03,
          3.22552319e+03, 1.13855234e+04, 1.14039465e+03, 4.68811816e+03,
          2.41914233e+03, 4.45914258e+03, 7.57311377e+03, 5.70197314e+03,
          6.45104639e+03, 1.71263809e+04, 1.14039465e+03, 3.60624451e+02,
          0. ]
      - [ 2.84638086e+03, 1.44249780e+03, 0., 8.06380798e+02, 22440., 0.,
          0., 0., 0., 0., 0., 0., 2.12063809e+04, 1.14039465e+03,
          3.30414136e+03, 8.06380798e+02, 1.52519043e+04, 1.35186689e+04,
          4.56157861e+03, 5.64466553e+03, 7140., 0., 0., 0.,
          1.01519043e+04, 8.05078076e+03, 2.28078931e+03, 4.03190405e+03,
          2040., 0., 0., 0., 5100., 0., 0., 0., 1.01519043e+04,
          4.56157861e+03, 5.76999121e+03, 8.06380798e+02, 10200., 0., 0.,
          0., 5.47914258e+03, 0., 2.88499561e+03, 2.41914233e+03,
          7.73276172e+03, 5.82851270e+03, 1.14039465e+03, 2.41914233e+03,
          9.47638086e+03, 0., 3.60624451e+02, 0., 1.11719043e+04,
          1.27974199e+04, 3.42118408e+03, 4.03190405e+03, 2040., 0., 0.,
          0. ]
      - [ 4.45914258e+03, 1.17155469e+04, 9.12315723e+03, 6.45104639e+03,
          0., 0., 0., 0., 8.06380798e+02, 9.43475781e+03, 2.28078931e+03,
          1.61276160e+03, 1.69127617e+04, 2.28078931e+03, 7.21248901e+02,
          0., 10200., 0., 0., 0., 1.10063809e+04, 0., 1.44249780e+03,
          8.06380798e+02, 4080., 0., 0., 0., 2.12063809e+04, 0.,
          1.44249780e+03, 8.06380798e+02, 4.88638086e+03, 9.43475781e+03,
          2.28078931e+03, 1.61276160e+03, 2040., 0., 4.38601465e+03,
          8.06380798e+02, 1.50863809e+04, 1.08772549e+04, 6.84236816e+03,
          4.83828467e+03, 8.96638086e+03, 1.14039465e+03, 6.18913721e+03,
          8.06380798e+02, 0., 0., 0., 0., 1.91663809e+04, 1.14039465e+03,
          3.30414136e+03, 8.06380798e+02, 8.06380798e+02, 1.44249780e+03,
          0., 8.06380798e+02, 20400., 0., 0., 0. ]
      - [ 5.47914258e+03, 1.17155469e+04, 9.12315723e+03, 6.45104639e+03,
          0., 0., 0., 0., 2.84638086e+03, 9.43475781e+03, 2.28078931e+03,
          1.61276160e+03, 1.10063809e+04, 0., 3.60624451e+02, 0., 8160.,
          0., 0., 0., 1.10063809e+04, 0., 1.44249780e+03, 8.06380798e+02,
          2040., 0., 0., 0., 2.12063809e+04, 0., 1.44249780e+03,
          8.06380798e+02, 5.90638086e+03, 9.43475781e+03, 2.28078931e+03,
          1.61276160e+03, 2040., 0., 1.50101904e+03, 8.06380798e+02,
          1.50863809e+04, 1.08772549e+04, 6.84236816e+03, 4.83828467e+03,
          5100., 1.14039465e+03, 5.82851270e+03, 8.06380798e+02, 0., 0.,
          0., 0., 1.91663809e+04, 1.14039465e+03, 3.30414136e+03,
          8.06380798e+02, 8.06380798e+02, 1.44249780e+03, 0.,
          8.06380798e+02, 20400., 0., 0., 0. ]
      - [ 5.69276172e+03, 1.08772549e+04, 6.84236816e+03, 5.64466553e+03,
          2040., 0., 0., 0., 0., 4.32749365e+03, 4.56157861e+03,
          3.22552319e+03, 1.91663809e+04, 0., 1.44249780e+03,
          8.06380798e+02, 1.10063809e+04, 1.50101904e+03, 0., 0.,
          1.10063809e+04, 0., 1.44249780e+03, 8.06380798e+02,
          4.88638086e+03, 1.44249780e+03, 0., 8.06380798e+02,
          1.87391426e+04, 2.28078931e+03, 2.16374683e+03, 8.06380798e+02,
          2.84638086e+03, 9.79538184e+03, 3.42118408e+03, 2.41914233e+03,
          3.43914233e+03, 0., 4.32749365e+03, 2.41914233e+03,
          1.66991426e+04, 9.49327832e+03, 6.84236816e+03, 5.64466553e+03,
          6.49914258e+03, 3.42118408e+03, 6.91038623e+03, 8.06380798e+02,
          0., 0., 0., 0., 1.91663809e+04, 1.14039465e+03, 3.30414136e+03,
          8.06380798e+02, 8.06380798e+02, 3.30414136e+03, 1.14039465e+03,
          8.06380798e+02, 18360., 0., 0., 0. ]
      - [ 2.84638086e+03, 1.44249780e+03, 0., 8.06380798e+02, 18360., 0.,
          0., 0., 0., 0., 0., 0., 1.66991426e+04, 2.28078931e+03,
          2.16374683e+03, 8.06380798e+02, 1.36391426e+04, 1.38792930e+04,
          6.84236816e+03, 4.83828467e+03, 1.30463809e+04, 0.,
          1.44249780e+03, 8.06380798e+02, 4.88638086e+03, 9.43475781e+03,
          2.28078931e+03, 1.61276160e+03, 12240., 0., 1.08187341e+03,
          8.06380798e+02, 4080., 0., 0., 0., 1.01519043e+04,
          5.70197314e+03, 7.63163477e+03, 8.06380798e+02, 8160., 0., 0.,
          0., 6.92638086e+03, 1.14039465e+03, 6.18913721e+03,
          8.06380798e+02, 8.06380798e+02, 7.27101074e+03, 4.56157861e+03,
          3.22552319e+03, 1.91663809e+04, 1.14039465e+03, 1.80312231e+03,
          0., 7.94638086e+03, 1.01560059e+04, 1.02635518e+04,
          6.45104639e+03, 9.18000098e+03, 0., 0., 0. ]
      - [ 3.86638086e+03, 1.44249780e+03, 0., 8.06380798e+02, 22440., 0.,
          0., 0., 0., 7.21248901e+02, 2.28078931e+03, 1.61276160e+03,
          1.59755234e+04, 3.42118408e+03, 1.44249780e+03, 1.61276160e+03,
          1.22746660e+04, 1.53217910e+04, 7.98276270e+03, 8.06380811e+03,
          1.71263809e+04, 0., 1.44249780e+03, 8.06380798e+02,
          1.10891426e+04, 5.76999121e+03, 3.42118408e+03, 5.64466553e+03,
          4080., 0., 1.08187329e+03, 8.06380798e+02, 7.73276172e+03,
          2.88499561e+03, 0., 1.61276160e+03, 1.01519043e+04,
          2.28078931e+03, 8.05078076e+03, 4.03190405e+03, 9.77276172e+03,
          3.00203809e+03, 0., 0., 6.49914258e+03, 0., 4.32749365e+03,
          2.41914233e+03, 1.61276160e+03, 4.74663916e+03, 1.14039465e+03,
          1.61276160e+03, 1.71263809e+04, 0., 1.44249780e+03,
          8.06380798e+02, 1.13855234e+04, 8.35288379e+03, 3.42118408e+03,
          4.83828467e+03, 2040., 0., 0., 0. ]
      - [ 4.37638086e+03, 7.57311377e+03, 1.02635518e+04, 8.06380811e+03,
          0., 0., 0., 0., 8.06380798e+02, 3.96686914e+03, 3.42118408e+03,
          3.22552319e+03, 1.30463809e+04, 1.14039465e+03, 7.21248901e+02,
          0., 7.00914258e+03, 5.16578516e+03, 0., 0., 1.86563809e+04, 0.,
          3.66476587e+03, 1.61276160e+03, 2.07791426e+04, 4.38601465e+03,
          0., 1.61276160e+03, 2.27363809e+04, 1.14039465e+03,
          4.74663916e+03, 1.61276160e+03, 9.04914258e+03, 6.54976172e+03,
          2.28078931e+03, 3.22552319e+03, 8.06380798e+02, 0.,
          4.44453613e+03, 2.41914233e+03, 1.70782852e+04, 1.13549219e+04,
          3.42118408e+03, 4.83828467e+03, 7.30552344e+03, 1.14039465e+03,
          4.32749365e+03, 2.41914233e+03, 0., 0., 0., 0., 1.71263809e+04,
          0., 1.44249780e+03, 8.06380798e+02, 6.92638086e+03,
          1.44249780e+03, 0., 8.06380798e+02, 1.63200010e+04, 0., 0., 0. ]
      - [ 4.88638086e+03, 1.44249780e+03, 0., 8.06380798e+02, 22440., 0.,
